<?xml version="1.0"?>
<opencv_storage>
<my_svm type_id="opencv-ml-svm">
  <svm_type>C_SVC</svm_type>
  <kernel><type>LINEAR</type></kernel>
  <C>5.0000000000000000e-001</C>
  <term_criteria><epsilon>1.1920928955078125e-007</epsilon>
    <iterations>1000</iterations></term_criteria>
  <var_all>3780</var_all>
  <var_count>3780</var_count>
  <class_count>5</class_count>
  <class_labels type_id="opencv-matrix">
    <rows>1</rows>
    <cols>5</cols>
    <dt>i</dt>
    <data>
      0 1 2 3 4</data></class_labels>
  <sv_total>10</sv_total>
  <support_vectors>
    <_>
      -4.00412381e-002 4.37949318e-003 2.98729893e-002 5.33320569e-002
      3.64167467e-002 -4.81323227e-002 -1.23128702e-003 -1.01075824e-002
      -5.70210591e-002 -1.51957907e-002 -1.60330627e-002
      -1.24636814e-002 4.91295867e-002 5.82834706e-002 -1.70328002e-002
      1.55848358e-002 -1.44773424e-002 -6.46423921e-003 -9.82922167e-002
      4.19301204e-002 1.96685977e-002 9.47618932e-002 3.83347529e-003
      6.98340163e-002 -1.10898875e-002 -1.82829723e-002 -1.15869254e-001
      -1.44289723e-002 3.57416831e-002 5.04813576e-003 8.42464566e-002
      3.12182922e-002 -3.70613635e-002 6.82525113e-002 3.37338746e-002
      6.61342032e-003 -2.07106154e-002 -4.80070636e-002 -5.61361574e-002
      1.00932075e-002 3.59869301e-002 -2.50888150e-002 1.32775027e-002
      -1.70706902e-002 4.57559265e-002 5.27759120e-002 3.99184451e-002
      -9.68725700e-003 -2.54378002e-002 -6.64980561e-002
      -8.69953632e-002 -5.81402145e-002 3.03523708e-003 4.12138067e-002
      -2.65994895e-004 2.09029689e-002 -5.75460084e-002 5.81630506e-002
      2.64788084e-002 -1.74926054e-002 4.22499515e-002 -4.01903763e-002
      3.88578884e-002 3.17873955e-002 4.31218706e-002 -1.92706436e-002
      -4.30634543e-002 -4.60910015e-002 -2.70106904e-002
      -4.29424569e-002 -5.66608161e-002 4.51059416e-002 5.66617325e-002
      3.99595462e-002 3.26468088e-002 -6.83525577e-002 -7.17811584e-002
      -1.19706415e-001 -3.64152379e-002 -7.81643838e-002 4.12925612e-003
      4.06175330e-002 3.68334875e-002 5.70478514e-002 -3.51734757e-002
      6.08917251e-002 -1.77177545e-002 4.29801866e-002 -3.69723924e-002
      -1.84230655e-002 6.59643812e-003 -4.68938565e-003 2.48652138e-002
      -2.53399685e-002 -3.89224328e-002 -1.20121114e-001
      -2.56880485e-002 -1.25699593e-002 -6.04871735e-002
      -1.29584540e-002 6.32679686e-002 5.02452366e-002 4.93330806e-002
      1.18663497e-002 -3.34719457e-002 4.56043556e-002 5.39039262e-002
      -4.41481173e-002 -2.60100868e-002 -4.95665371e-002
      -3.30045596e-002 4.54337196e-003 8.95794854e-002 9.52602699e-002
      2.97861267e-002 -3.11743319e-002 -3.70368250e-002 -4.26713284e-003
      -1.74270287e-001 -6.90474808e-002 2.02338696e-002 2.48002876e-002
      3.75713035e-003 -2.18415111e-002 -6.70142472e-002 1.63274468e-003
      -1.13894707e-002 6.94667846e-002 -4.27581146e-002 5.45748044e-004
      -2.38591246e-002 -1.88731756e-002 2.61289887e-002 -4.34207544e-003
      -8.79458804e-003 -2.61895508e-002 -3.33944964e-003
      -1.75873898e-002 6.04321575e-003 3.62960063e-002 1.32100889e-003
      -2.14349739e-002 -3.15194204e-002 -2.30247751e-002 7.35517452e-003
      -1.36103392e-001 -1.03773884e-002 3.30618806e-002 2.56094076e-002
      1.11780139e-002 -2.65839621e-002 -2.83593312e-002 2.95402724e-002
      -1.80032256e-003 -1.10076249e-001 -4.39349562e-002
      -1.68884620e-002 -6.14043176e-002 -4.57314551e-002
      -5.69639653e-002 -6.82669785e-003 -4.29355241e-002
      -6.40265364e-003 -3.42227221e-002 5.49029224e-002 1.83060691e-002
      1.17214173e-002 3.69205549e-002 -1.54777141e-002 9.00022965e-003
      -4.06374951e-004 8.03692266e-003 7.12785646e-002 3.78885753e-002
      -6.86556473e-003 1.26484539e-002 1.21127081e-003 1.70934983e-002
      5.84055968e-002 -4.06676196e-002 3.92489508e-002 -7.36621171e-002
      -7.28671774e-002 -4.00904194e-002 -1.13774627e-001
      -1.07059134e-002 2.98950169e-002 5.52855805e-002 2.50796154e-002
      5.00214705e-003 -9.30697471e-002 -5.35714626e-002 3.73351872e-002
      -6.93995273e-003 5.33681549e-002 4.79283668e-002 -7.93276448e-003
      -1.65772010e-002 5.46498671e-002 1.23073190e-001 1.89494323e-002
      6.16483903e-003 -5.69017567e-002 3.39613110e-002 5.93701713e-002
      7.75300637e-002 3.14342082e-002 4.73268889e-002 5.02904728e-002
      1.48861073e-002 2.78964210e-002 -9.67845246e-002 4.08301316e-002
      1.02930576e-001 6.84359372e-002 4.44090478e-002 -1.31521653e-002
      -4.58289050e-002 -1.01288566e-002 2.57775076e-002 3.51840705e-002
      -2.78200544e-002 -2.96943542e-002 -5.84880300e-002
      -2.80185416e-002 -4.12701536e-003 -4.83059958e-002
      -4.35486846e-002 2.18917523e-002 2.97650583e-002 -3.84346135e-002
      -1.13241363e-003 -1.26079265e-002 -4.75838855e-002 1.06567718e-001
      4.79902774e-002 5.13949841e-002 2.48251134e-003 -3.97637263e-002
      -7.31463879e-002 6.63450174e-003 6.16564751e-002 9.72385257e-002
      1.28251195e-001 6.08297857e-003 3.78841497e-002 -2.67473124e-002
      4.58267145e-002 -2.21925844e-002 1.16355754e-002 7.82887489e-002
      5.40851094e-002 -4.76560183e-002 -4.76501212e-002 1.74442716e-002
      1.86957587e-002 -2.52625979e-002 -2.67436393e-002 5.20908786e-003
      -4.93532009e-002 -6.21228367e-002 -2.23347601e-002
      -5.00181355e-002 2.24928372e-002 -3.33883911e-002 -3.61333303e-002
      -1.63206309e-002 -3.79323326e-002 -3.08356006e-002
      -7.75044709e-002 1.66320726e-001 -2.02026218e-003 4.25015539e-002
      2.49556042e-002 9.67489332e-002 2.07352806e-002 7.32797161e-002
      9.43599716e-002 7.74173290e-002 6.34399951e-002 -1.76399834e-002
      4.87386957e-002 5.82814366e-002 2.35163271e-002 -2.81629991e-003
      3.76159996e-002 2.66319513e-002 3.14664505e-002 6.24605380e-002
      -2.66862698e-002 -1.12108272e-002 -4.63056900e-002
      -2.89231837e-002 -7.55182952e-002 -4.23828053e-004 2.85176677e-003
      1.15336874e-003 1.17387570e-001 5.76500930e-002 4.32853997e-002
      8.88869911e-002 2.03419514e-002 -7.78405741e-002 -1.50608253e-002
      -3.29624712e-002 5.43020964e-002 -3.25068906e-002 -4.84313183e-002
      1.63980052e-002 -3.04934033e-003 -3.37372124e-002 -7.99046829e-002
      3.34415957e-002 8.49063881e-003 -6.05576225e-002 1.13086902e-001
      3.10891476e-002 3.66821475e-002 7.31036738e-002 7.98790902e-002
      2.17353795e-002 8.91136974e-002 7.26389512e-002 3.30482982e-002
      3.74007523e-002 7.43513368e-003 1.17491512e-002 4.71485779e-002
      1.19396858e-003 5.34984618e-002 7.44730048e-003 2.28344332e-002
      4.38914150e-002 -1.61057978e-003 -8.31975341e-002 -3.08343247e-002
      1.66735779e-002 3.81269529e-002 7.62892440e-002 9.63545218e-002
      5.94892018e-002 -6.60366239e-003 -2.80569470e-003 7.86072239e-002
      6.20673858e-002 5.14288805e-002 7.68643804e-003 1.51032940e-001
      6.03569634e-002 8.29022974e-002 -1.30151464e-002 -3.73577997e-002
      7.26112872e-002 5.26808016e-002 2.80040465e-002 7.39917625e-003
      4.61024754e-002 6.91414028e-002 4.81279865e-002 -1.22564929e-002
      -5.86648192e-003 -7.60942101e-002 -1.24208406e-002 2.49389336e-002
      1.73360631e-002 -5.68687320e-002 3.20950747e-002 7.20261689e-003
      -5.94934300e-002 9.74927936e-003 -7.71834403e-002 -1.27288457e-002
      2.12098919e-002 4.91378680e-002 -1.74201019e-002 5.98528283e-003
      2.08259051e-004 2.70806551e-002 3.28803286e-002 1.00265471e-002
      6.26316369e-002 3.66435014e-002 -3.25649343e-002 -9.35574621e-002
      -3.82889882e-002 -6.24527782e-002 3.90802547e-002 1.22132450e-001
      5.06383739e-002 5.39854020e-002 -1.06117250e-002 2.70504467e-002
      1.46373454e-002 -1.39051145e-002 -5.19778430e-002 1.47233784e-001
      -9.32500325e-003 -1.25609726e-001 1.33150741e-002 2.35285796e-002
      -3.38978022e-002 -3.60795148e-002 -1.17368940e-002 5.01969084e-003
      -9.16463323e-003 5.32189421e-002 -7.28820190e-002 6.29050657e-002
      3.85310575e-002 -5.17315418e-002 -5.76077327e-002 -2.77862512e-002
      -2.14753766e-002 -1.83492154e-002 4.31272648e-002 9.71240085e-003
      5.28765991e-002 -1.35099590e-002 -6.01829179e-002 -1.02654044e-002
      2.45480090e-002 -2.02815477e-002 6.48004115e-002 1.11042656e-001
      -2.61596479e-002 6.97504953e-002 1.54169854e-002 -6.32068738e-002
      -4.79621701e-002 -1.42824342e-002 5.43982722e-003 3.94926369e-002
      1.13138534e-001 -4.61394414e-002 4.58113849e-002 1.42736202e-002
      -1.45259304e-002 3.88467684e-002 5.18494584e-002 -7.71755306e-003
      -1.14832567e-002 4.02951002e-004 -9.47528481e-002 -5.65565340e-002
      2.18888186e-002 -1.49827097e-002 -8.83998629e-003 3.37624587e-002
      -2.27086730e-002 -2.35232133e-002 6.57903478e-002 2.06257999e-002
      3.45989019e-002 8.12381739e-004 -6.80564344e-002 1.87776145e-002
      1.65800005e-003 2.19377950e-002 6.92008287e-002 -4.13553119e-002
      -5.39077185e-002 2.25266702e-002 4.65893671e-002 1.28274903e-001
      -1.07345060e-002 -3.45918909e-002 6.50703609e-002 2.47510262e-002
      -4.32556979e-002 6.29608566e-003 -3.03742039e-004 3.53683904e-002
      4.32357378e-002 -2.84335632e-002 -7.95929786e-003 -4.41824682e-002
      -2.70317979e-002 -1.32784784e-001 -1.79536175e-002
      -7.50025958e-002 9.99768730e-003 4.12952825e-002 -6.48051128e-002
      -7.29115680e-002 -6.51513860e-002 -5.52091673e-002
      -3.35711539e-002 1.39706982e-002 3.62952426e-002 3.60936522e-002
      2.99897268e-002 -9.46752820e-003 -9.14763566e-003 6.87103048e-002
      9.47386678e-003 -5.09662554e-002 -4.68566170e-004 -3.17912875e-003
      -2.87282816e-003 4.42132689e-002 -9.80651379e-002 -3.73817645e-002
      3.30828987e-002 -8.17604810e-002 -8.36560875e-002 -4.67518829e-002
      -7.16479868e-002 4.41400614e-003 4.70829643e-002 6.78947475e-003
      -9.83749703e-002 -2.97101736e-002 -2.47436296e-002 1.83716249e-002
      -4.38171960e-002 2.11997721e-002 3.94646591e-003 2.99691618e-003
      -8.45171569e-004 -8.21829215e-003 -2.25823782e-002 6.36737123e-002
      3.07468185e-003 2.91348645e-003 -4.60391939e-002 -2.35153306e-002
      7.43365660e-002 -4.32445109e-002 -2.48219576e-002 6.87915832e-002
      2.66688410e-003 -1.53499348e-002 4.32385206e-002 4.49629314e-002
      -4.54582423e-002 -8.90931580e-003 -6.98456019e-002
      -7.42095814e-004 9.12580192e-002 3.42214964e-002 -7.42271766e-002
      -3.48828919e-002 7.01135304e-003 4.07449119e-002 -3.95147651e-002
      8.92379805e-002 -2.63615195e-002 -4.27985936e-002 -1.31270677e-001
      2.87825372e-002 -2.80182902e-002 -2.80780811e-002 3.12066004e-002
      -7.62934890e-003 -6.69017509e-002 7.46239489e-003 2.81803049e-002
      5.50364889e-002 2.89173890e-003 -3.52862217e-002 -6.86019193e-003
      2.00012177e-002 3.14184674e-003 3.06143127e-002 -2.47357376e-002
      -3.28130461e-002 -4.00865711e-002 5.49904481e-002 1.97376264e-003
      -2.06392705e-002 -1.52828405e-002 -2.33844835e-002
      -2.32955888e-002 -2.27360819e-002 -4.30090679e-003
      -2.87106726e-003 -5.63360006e-003 -1.01615237e-002
      -3.14474478e-002 3.11712343e-002 1.68415383e-002 -2.00855359e-002
      1.12042241e-002 -3.88517752e-002 -1.13611417e-002 6.63025603e-002
      1.64671391e-002 1.67792110e-004 -3.32398303e-002 -7.98392519e-002
      2.16427613e-002 -1.08481357e-002 -8.15891847e-002 -3.20517235e-002
      2.91042235e-002 -2.83025522e-002 -1.13198264e-002 1.28356228e-002
      -5.86751521e-005 1.08641170e-001 4.15006094e-003 -2.75005326e-002
      -7.22036436e-002 -5.26524559e-002 2.22799368e-002 -2.50274446e-002
      1.36165845e-003 -5.68544259e-003 4.94652689e-002 -5.16454736e-003
      -7.18675852e-002 -9.62090269e-002 -3.20165767e-004
      -2.45080199e-002 -7.61932286e-004 4.99043660e-003 -3.38804871e-002
      -4.03162017e-002 9.31222050e-004 -1.45908566e-002 -1.06139921e-001
      -2.77938060e-002 7.66255287e-003 3.95975895e-002 5.07401936e-002
      -1.78771093e-002 -5.79300802e-003 4.46214229e-002 4.28034067e-002
      -6.55288920e-002 2.88766026e-002 3.90348770e-003 -7.87650875e-004
      1.91913154e-002 2.22441088e-003 1.80138070e-002 2.24033222e-002
      -1.04490230e-002 -1.43091669e-002 -4.07970585e-002
      -6.48287237e-002 6.28322884e-002 1.11699151e-003 3.72026786e-002
      1.94407851e-002 8.42359960e-002 5.38096614e-002 3.03996745e-002
      1.32706789e-002 4.28597182e-002 -2.55921315e-002 -1.09050814e-002
      -6.00488596e-002 -7.79670700e-002 3.38670537e-002 2.38937605e-002
      2.58793607e-005 1.12735063e-001 2.31507104e-002 -5.57263382e-002
      -1.57490562e-004 7.35726953e-002 -4.77380455e-002 -4.12873216e-002
      3.13029415e-003 3.95232402e-002 -8.99489317e-003 -4.35141437e-002
      -1.26952603e-002 -1.14302970e-002 -1.95033588e-002
      -5.22567332e-002 1.12749180e-002 3.95635217e-002 1.94784887e-002
      -3.06775272e-002 -1.42573968e-001 -1.25356600e-001 3.24006602e-002
      -1.69927068e-002 -4.25674021e-002 -6.45479783e-002
      -4.95669283e-002 -3.57272886e-002 1.68022931e-001 3.86749581e-002
      -8.41682125e-003 6.11206610e-003 2.33118944e-002 -1.45002697e-002
      -4.21706140e-002 -4.53885645e-003 7.46565089e-002 8.42061341e-002
      8.65467489e-002 5.34760207e-003 -9.05174762e-003 5.60468948e-003
      -4.38535772e-002 -1.95115246e-002 -1.66615993e-002 1.56721156e-002
      4.40395623e-002 -9.92920995e-002 -5.68635613e-002 -4.20091581e-003
      -5.38041862e-003 -3.13400999e-002 -4.73840274e-002
      -3.65117118e-002 5.88354096e-003 -9.36803129e-003 -7.85107613e-002
      -6.97461441e-002 1.33494558e-002 -6.48464784e-002 4.64948937e-002
      -2.02541482e-002 -2.74705645e-002 -6.68368265e-002 6.66259304e-002
      7.07696974e-002 4.98563563e-003 -3.15335840e-002 -1.07542254e-001
      -4.21168394e-002 5.38542755e-002 3.00488025e-002 3.04578189e-002
      5.70787974e-002 2.67447215e-002 -1.07120480e-002 -6.07522875e-002
      -9.38486606e-002 5.11341281e-002 1.34317875e-001 6.20904081e-002
      4.83441427e-002 -3.89162973e-002 -7.27505935e-003 -6.12924881e-002
      -2.37301644e-002 -1.21820599e-001 -7.81451631e-003
      -2.98971636e-003 -3.10345031e-002 -8.03172439e-002 6.44778600e-003
      2.35795379e-002 -9.35145188e-004 -2.81125810e-002 -4.60580140e-002
      1.02423370e-001 4.63285334e-002 -4.00668532e-002 -6.30915910e-002
      7.31742084e-002 -1.30398208e-002 -4.30051051e-002 -5.78347147e-002
      -9.28444043e-002 -6.09984435e-002 4.00404148e-002 1.21208308e-002
      5.47581017e-002 4.98155467e-002 1.41452104e-002 2.93706288e-003
      -1.38447736e-003 -5.97155131e-002 -1.69749353e-002 2.85121077e-003
      4.24942225e-002 -2.94544990e-003 1.56180132e-002 -4.66356799e-002
      -5.60814478e-002 -1.58415455e-002 -3.08389775e-002 7.89504964e-003
      -3.17218453e-002 -4.47423086e-002 -4.17637341e-002 8.69896496e-004
      -1.20744836e-002 -5.20391576e-003 4.85638194e-002 1.17562506e-002
      1.32017322e-002 -5.48267625e-002 2.12222282e-002 -4.56279367e-002
      5.62956333e-002 5.43997549e-002 4.12790813e-002 4.87442128e-002
      2.86060683e-002 2.49506682e-002 1.90085527e-002 3.44654359e-002
      -1.67780071e-002 -4.13748771e-002 1.55284517e-002 3.61166075e-002
      1.03551969e-002 -1.78283900e-002 7.24425307e-003 -2.71313302e-002
      -4.35029119e-002 -1.33988008e-001 -3.94706689e-002
      -4.43212688e-002 2.49723010e-002 3.98359336e-002 5.43913767e-002
      5.37007898e-002 -1.25849470e-002 2.09328886e-002 2.55759526e-003
      -3.35875750e-002 -2.90161613e-002 6.59667328e-002 1.21316733e-002
      4.79567237e-002 2.30399333e-002 -3.03519703e-002 -2.35737078e-002
      1.80570390e-002 -4.60182205e-002 -4.00925949e-002 -1.35541642e-002
      -3.69698778e-002 -5.76768890e-002 -2.14712080e-002
      -5.42898402e-002 -5.87561391e-002 -1.16482913e-001 8.71038735e-002
      -2.66675167e-002 8.73690005e-003 5.12745269e-002 -4.62137908e-002
      1.89341716e-002 4.72987853e-002 4.53194976e-002 7.76126310e-002
      -8.57889727e-002 -7.42528215e-002 2.56593134e-002 -5.67408912e-002
      2.19488814e-002 5.37252845e-003 -5.91287054e-002 -2.31622849e-002
      -6.17252290e-002 3.54427584e-002 7.78206363e-002 1.03879735e-001
      -2.06648167e-002 -1.08715877e-001 -2.40794476e-002
      -1.44233508e-002 -4.30789292e-002 3.20272520e-002 -5.05940476e-003
      -2.96724378e-003 -2.32022651e-003 1.35216760e-002 -1.44089043e-001
      1.18012510e-001 5.50410822e-002 7.30902329e-002 4.14097533e-002
      -3.31492908e-002 1.90822631e-002 1.50198946e-002 5.80790080e-002
      4.09485400e-002 3.36611345e-002 -2.16215127e-003 2.73503680e-002
      -8.73771030e-003 9.51614976e-003 3.07317451e-002 -2.35802010e-002
      -5.53170685e-003 -1.18877865e-001 2.34270971e-002 -3.74274179e-002
      -5.46320155e-002 -3.20816562e-002 -8.65641143e-003 1.09653734e-002
      -1.08966623e-002 5.78335375e-002 9.82707068e-002 4.23913561e-002
      -4.58729267e-002 -3.67315896e-002 -9.57005695e-002
      -9.81057137e-002 8.63616355e-003 -7.69054377e-003 2.09597731e-003
      -6.11433201e-002 -9.35020074e-002 -7.81069770e-002
      -4.95512038e-002 -5.18360771e-002 -1.13259517e-001 4.82011214e-002
      1.82361770e-002 -4.49669249e-002 5.36995195e-002 1.64681766e-002
      -2.44354215e-002 -1.33101419e-002 -7.59541318e-002
      -6.88972771e-002 1.80042740e-002 -2.41490244e-003 -1.78438611e-002
      -5.11857904e-002 -4.85187694e-002 -4.15020660e-002
      -1.29027450e-002 -1.06598146e-001 -7.86993466e-003 9.83223915e-002
      2.49640904e-002 -2.40806658e-002 5.65956496e-002 -1.73852742e-002
      6.94538355e-002 5.76440766e-002 -2.51652710e-002 -6.40247613e-002
      5.68730198e-002 3.53932232e-002 -2.63113175e-002 3.68996933e-002
      1.67190526e-002 1.35230031e-002 -3.74977514e-002 -1.18988752e-001
      4.00716774e-002 2.21927334e-002 2.62801908e-002 -3.49299498e-002
      -9.62866619e-002 -5.25852665e-002 2.29619234e-003 -5.01533858e-002
      -4.22676001e-003 2.70320754e-002 3.74855064e-002 -1.11842649e-002
      4.50935811e-002 6.48298068e-003 2.98340693e-002 3.69193628e-002
      2.48630531e-002 -5.98556995e-002 3.61553617e-002 -4.14853357e-002
      -1.23120569e-001 1.22663323e-002 -9.19677764e-002 -4.30178978e-002
      -6.81271730e-003 -4.49176244e-002 1.68332830e-002 5.18964082e-002
      4.01125886e-002 5.23137040e-002 1.35212252e-002 -1.11377388e-001
      -8.94879177e-003 -1.00711547e-002 2.90363934e-002 9.31230336e-002
      -4.43417504e-002 -3.35374326e-002 3.80573086e-002 3.07976995e-002
      4.23086174e-002 -1.58637911e-002 -4.32935208e-002 5.02671823e-002
      -2.62076370e-002 -8.54731165e-003 2.02944130e-003 4.07588482e-002
      5.16535826e-002 -3.70985642e-002 -1.74639784e-002 1.47194164e-002
      2.01017298e-002 1.92455240e-002 -6.02565557e-002 2.82164793e-002
      9.44301635e-002 2.99088024e-002 3.20653096e-002 2.21950784e-002
      -2.11095251e-002 -3.16814519e-002 -1.22509329e-002
      -1.77857224e-002 -5.36152385e-002 1.03715118e-002 6.52946252e-003
      2.87177460e-003 2.16745771e-002 -2.61144177e-003 4.65374216e-002
      -2.75262669e-002 2.05774214e-002 -4.95330431e-002 9.90239438e-004
      -1.05105555e-002 4.10341583e-002 -4.36219154e-003 -1.68892220e-002
      -5.17494464e-003 -3.33479829e-002 -9.11912471e-002
      -8.71190056e-002 4.98204902e-002 6.13607727e-002 3.99806239e-002
      4.77475077e-002 7.12559884e-003 -3.51085663e-002 1.84823256e-002
      -3.02722920e-002 -6.44595623e-002 3.91687267e-002 4.59098928e-002
      4.07854281e-002 -4.70903842e-003 4.60314080e-002 -4.52921838e-002
      -6.20249920e-002 -2.16500983e-002 -6.16909005e-002
      -1.94324013e-002 -4.69996370e-002 7.77477548e-002 4.61403057e-002
      -1.67681947e-002 4.24312726e-002 1.68279726e-002 -3.10811009e-002
      -3.21166292e-002 4.73914891e-002 -4.62039895e-002 -6.32866472e-002
      1.36190536e-003 -2.95629576e-002 5.63563332e-002 -3.96722108e-002
      1.54434899e-002 1.43200625e-002 6.41921908e-002 -1.01902196e-002
      8.43286365e-002 1.77663174e-002 -1.00460388e-002 -7.60501176e-002
      -2.28982978e-002 6.44448400e-002 5.10981828e-002 1.62402261e-002
      -2.54912935e-002 -6.09503947e-002 -7.15473806e-003 6.25272887e-003
      -7.70869292e-003 3.99912186e-002 1.72026660e-002 1.06709609e-002
      3.84543394e-003 -3.54267545e-002 1.24647161e-002 -4.65941355e-002
      2.28781719e-002 2.15738136e-002 1.11974869e-002 5.78022115e-002
      3.55066843e-002 1.34476861e-002 -6.32290468e-002 -6.38284683e-002
      -7.77032692e-003 5.96443117e-002 3.84708866e-002 2.66685672e-002
      -5.17622493e-002 1.78891513e-002 -2.77017374e-002 -2.17620004e-002
      4.72649224e-002 3.93864661e-002 3.26349139e-002 4.01526839e-002
      -5.79451770e-002 5.80468774e-002 2.26580072e-002 -1.87665201e-003
      -6.01055473e-002 -2.42410004e-002 5.44984564e-002 8.24075565e-002
      8.48749205e-002 6.80372790e-002 2.23549642e-002 9.62007884e-003
      4.02465602e-003 -1.15181524e-002 9.51825175e-003 8.27779844e-002
      4.39096130e-002 -6.74339850e-003 -3.18447724e-002 6.41898718e-003
      2.68443543e-002 -5.07844910e-002 -2.93345582e-002 7.95790777e-002
      5.26928380e-002 1.42685138e-002 -3.97856906e-002 -9.39319432e-002
      1.76265892e-002 7.37112015e-002 2.89782714e-002 -2.26019300e-003
      3.83325405e-002 1.70056522e-002 6.99110627e-002 8.97763297e-002
      2.81360727e-002 -1.18879667e-002 4.74679582e-002 -8.04622620e-002
      -4.12742188e-003 7.85024315e-002 -4.05372493e-002 2.54361872e-002
      5.82629442e-002 -1.77342966e-002 1.50462436e-002 8.70036893e-003
      -2.08304152e-002 -3.32105230e-003 6.66051731e-002 4.75307405e-002
      2.59410515e-002 4.41751033e-002 -1.72504839e-002 -4.89542782e-002
      -6.25765622e-002 2.02250350e-002 1.05229728e-002 6.33233339e-002
      -2.56582927e-002 7.47372583e-002 4.48375195e-002 1.27871661e-002
      1.55559480e-002 8.50605592e-003 -5.41876368e-002 6.43355353e-003
      3.59248705e-002 -3.30148973e-002 2.44358052e-002 1.01501316e-001
      -4.38009650e-002 -6.00199923e-002 -2.63416357e-002
      -3.51878293e-002 -4.69266511e-002 2.87435725e-002 -4.26401682e-002
      6.10422306e-002 -1.03318207e-002 -7.57936612e-002 1.25169875e-002
      -3.47339734e-002 -7.36464374e-003 1.75410993e-002 5.83359785e-002
      -1.17597748e-002 4.01628055e-002 1.39598586e-002 4.43797223e-002
      5.68272732e-003 -1.16843522e-001 -8.31029341e-002 3.28085497e-002
      -3.13116441e-004 -6.34709746e-002 9.58788395e-003 1.21441449e-003
      3.68856005e-002 -3.72044221e-002 -5.64650558e-002 -4.89906557e-002
      -2.67187338e-002 4.73151468e-002 -3.12022418e-002 1.05753936e-001
      -1.47241447e-002 4.36353125e-003 -2.51333117e-002 -1.73945561e-001
      -1.42683610e-001 -1.03659101e-001 -1.32044360e-001
      -2.85071097e-002 3.16587463e-002 1.48819191e-002 1.00093283e-001
      5.85392192e-002 -8.10426027e-002 -3.54078040e-002 9.73411463e-003
      3.89642678e-002 -2.17775237e-002 1.54398652e-002 4.23773713e-002
      8.91913995e-002 -1.69098619e-002 -1.47317834e-002 2.13542562e-002
      4.65939045e-002 -3.36301588e-002 5.70609607e-002 5.63486516e-002
      4.57549579e-002 -9.50802490e-003 -4.39131930e-002 -1.40030354e-001
      -5.82351461e-002 -7.42224529e-002 -9.32939127e-002
      -2.77659222e-002 -7.55491666e-003 3.15730833e-002 5.70764430e-002
      -3.45169678e-002 -1.16164349e-001 4.16876785e-002 2.50659906e-003
      -3.74596566e-002 9.17049311e-003 8.22456703e-002 6.38406724e-002
      -1.89301521e-002 -9.61693078e-002 -2.21702065e-002
      -1.56250354e-002 -3.16833239e-003 -1.18741877e-001
      -7.06460001e-003 -1.65790692e-002 -4.84591379e-004
      -4.10995595e-002 1.43432645e-002 3.52104381e-002 6.75023571e-002
      2.20841393e-002 5.43444380e-002 2.96084695e-002 -1.10133626e-002
      -1.65462885e-002 4.09317985e-002 -1.50469691e-001 -1.53957412e-001
      1.23730684e-002 2.33311858e-002 -6.10139640e-003 2.92568412e-002
      5.50118871e-002 1.05011873e-002 -1.09338976e-001 7.62231648e-003
      4.21220697e-002 1.92444339e-001 2.21409380e-001 1.80124328e-001
      9.37127694e-002 1.13199010e-001 -6.19595535e-002 -1.96846202e-002
      -6.89042583e-002 4.42448910e-003 8.16105306e-003 -9.56007838e-003
      1.31148007e-002 -9.09858965e-004 -1.68280117e-002 -6.16944432e-002
      -6.03146553e-002 -5.94145879e-002 -2.78471336e-002 5.47966128e-003
      -3.94809544e-002 -7.53950626e-002 -3.28276902e-002
      -1.05766766e-002 -6.56507071e-003 -3.28865312e-002
      -8.01912099e-002 6.33918727e-003 1.64061725e-001 1.29071876e-001
      1.27453683e-002 1.63386669e-002 1.05066381e-001 -6.48097247e-002
      -5.60793355e-002 2.78311949e-002 6.79049687e-003 1.59842163e-001
      1.14905387e-001 1.36983350e-001 5.08207195e-002 1.46322593e-001
      9.85389948e-002 7.20503852e-002 -1.73631877e-001 -2.13801414e-001
      -4.01835963e-002 -7.86997005e-002 -5.96238151e-002
      -5.69452010e-002 3.79485893e-003 4.53840196e-002 -5.16225025e-002
      -1.06102981e-001 -2.23348826e-001 1.55529287e-002 -3.71838808e-002
      -2.48942487e-002 1.45088602e-002 2.40872391e-002 1.06043126e-002
      6.19220501e-003 -1.04767986e-001 -1.30782366e-001 2.92215198e-002
      5.09704947e-002 2.93965582e-002 4.02559862e-002 9.28854570e-002
      1.16217695e-001 -7.84565136e-003 -3.74918692e-002 -5.14141209e-002
      7.97670558e-002 1.03963554e-001 1.17054060e-002 1.74278140e-001
      1.53375879e-001 1.76385328e-001 1.00040548e-001 -1.19007543e-001
      -1.53645501e-001 2.76661199e-002 -1.99043415e-002 -1.73420385e-002
      2.67278347e-002 -1.47632919e-002 -1.02943247e-002 -8.17102268e-002
      -3.45980003e-002 2.74614226e-002 1.14220671e-001 -2.56763082e-002
      -1.71038941e-001 -9.61960386e-003 1.18301222e-002 -1.09294184e-001
      -1.18637001e-002 -6.69878125e-002 -2.15633512e-002 1.20369174e-001
      3.67967784e-002 -7.07779601e-002 8.83042812e-002 1.11893147e-001
      1.18289292e-001 3.14469934e-002 -2.72909906e-002 7.27398396e-002
      2.27706641e-001 1.20054334e-001 -1.95292328e-002 5.10274693e-002
      1.25160679e-001 -2.02035718e-002 9.37385205e-003 -4.23961543e-002
      1.79878399e-002 5.81064448e-002 -1.04175266e-002 -8.75478163e-002
      2.47174334e-002 -5.20131923e-003 -6.39106110e-002 -2.43228078e-002
      -2.16409694e-002 -4.09266576e-002 -3.37233245e-002
      -7.97648169e-003 2.29558840e-001 7.69419670e-002 2.90159490e-002
      -4.65460792e-002 -9.73047540e-002 4.98265028e-002 5.83466031e-002
      1.74325287e-001 7.76004717e-002 -1.22154523e-002 6.25090897e-002
      6.96167275e-002 -2.63793599e-002 3.52538675e-002 -3.20401490e-002
      8.43448192e-002 9.65460166e-002 -3.31210084e-002 1.07963979e-001
      1.18881173e-001 3.85464504e-002 -3.69843692e-002 -1.96533635e-001
      -5.08213378e-002 -1.04910191e-002 -4.56652679e-002
      -2.01402195e-002 -1.24384565e-002 3.17780375e-002 3.27634923e-002
      -3.88683155e-002 -1.15440436e-001 -1.29754292e-002
      -2.07629353e-002 1.15558701e-002 4.09081504e-002 1.23233944e-001
      9.17399861e-003 5.82151152e-002 -1.17830362e-003 -7.66330212e-002
      1.06981978e-001 3.71307880e-002 -3.57757043e-003 -1.03219807e-001
      -3.42910253e-002 3.77716534e-002 6.45541921e-002 -7.61946291e-002
      -5.76525517e-002 -2.64805891e-002 -1.30881113e-003
      -1.05438139e-002 6.02139384e-002 9.64840055e-002 1.85001791e-002
      3.09278183e-002 -1.14318691e-001 -6.07284047e-002 2.58119348e-002
      2.04451731e-003 3.51243205e-002 5.79201989e-002 4.15263847e-002
      -3.76880392e-002 1.98927913e-002 5.14009483e-002 -2.20342483e-002
      8.21986645e-002 -3.75437625e-002 -1.44054061e-002 -4.31656558e-003
      -2.73864046e-002 -1.22041486e-001 -7.67486542e-002
      -9.52059776e-003 3.52677070e-002 -9.58293900e-002 4.38410714e-002
      8.96777511e-002 1.25974134e-001 5.24570234e-002 7.42384493e-002
      3.85644250e-002 2.71368176e-002 -5.08668385e-002 -4.41172943e-002
      -4.94191796e-002 7.40882233e-002 -2.64038127e-002 -6.15972839e-003
      -3.63945104e-002 -5.32439910e-002 9.87747498e-003 3.41272391e-002
      7.48998970e-002 -8.77911877e-003 1.57621354e-002 3.30145136e-002
      -6.77944422e-002 -5.65287285e-002 -1.67373549e-002 1.78044550e-002
      8.42276663e-002 6.15277812e-002 2.26617474e-002 7.28889853e-002
      3.48288342e-002 -2.89464612e-002 -3.68778668e-002 4.09300067e-003
      -1.43672246e-002 6.35767430e-002 4.19261716e-002 -2.85073253e-003
      5.13128117e-002 -4.79779877e-002 -1.21821046e-001 -4.70450819e-002
      -2.58880109e-002 -1.28495619e-002 7.05829188e-002 3.16638052e-002
      2.45043412e-002 5.15495501e-002 -3.51142250e-002 -8.12457204e-002
      -5.43120615e-002 1.95262562e-002 -4.09524859e-004 2.54291110e-002
      -2.31235544e-003 -6.06547520e-002 2.39666663e-002 3.57483141e-002
      5.80114536e-002 1.11522134e-002 1.10790990e-002 -2.88346987e-002
      2.16385652e-003 -6.76027909e-002 -3.70945260e-002 9.29417834e-003
      9.68312472e-003 3.53498608e-002 -4.48577455e-004 1.89688411e-002
      -4.10576686e-002 -1.12968870e-001 1.39786964e-002 -1.44983204e-002
      3.28601040e-002 -3.54006812e-002 -3.88968326e-002 -4.50648665e-002
      1.53257810e-002 5.41940145e-002 6.03230894e-002 -2.66920449e-003
      -4.61563095e-002 -1.92004293e-002 -1.14876777e-002 8.09501298e-003
      -1.83599927e-002 -4.48778160e-002 9.30852592e-002 2.52894070e-002
      -6.81514964e-002 6.20369017e-002 5.17615303e-002 -1.80184525e-002
      2.00809315e-002 -1.22565962e-002 1.10128392e-002 -4.83993068e-002
      -9.49577540e-002 5.14121167e-002 7.19471052e-002 6.21258803e-002
      9.07191820e-003 2.45580636e-002 -2.68148407e-002 2.87733581e-002
      -5.06258244e-003 -1.64057035e-002 2.77548227e-002 -1.69346035e-002
      -5.90948910e-002 -6.87152427e-003 -7.90723693e-003
      -3.23590189e-002 -4.35342044e-002 1.07552763e-002 1.81958321e-002
      7.24822516e-003 -5.94144240e-002 -7.12477043e-002 -6.16169795e-002
      -1.07716043e-002 -1.51100904e-002 -8.85787234e-003 4.35612835e-002
      6.63199574e-002 -6.75700754e-002 9.37823579e-003 -1.27302557e-002
      1.08436635e-002 -1.59060117e-002 7.53238648e-002 2.92762835e-002
      -5.30904904e-003 -8.00926909e-002 8.92075673e-002 3.01065054e-002
      -5.14939660e-003 -1.50101781e-002 8.10441375e-003 5.36542460e-002
      1.14747025e-002 1.38670290e-002 1.25727624e-001 3.29371006e-003
      1.28562702e-003 4.27634045e-002 7.52961338e-002 -8.50916877e-002
      2.20332053e-002 2.47923732e-002 8.27778931e-005 3.98483174e-003
      6.48409873e-002 6.34746104e-002 4.25490178e-002 1.08868079e-002
      -7.93718081e-003 7.86446854e-002 -1.96190663e-002 -2.60215644e-002
      5.62918745e-002 2.93932352e-002 3.72864716e-002 1.61519311e-002
      5.41288266e-003 -2.57518869e-002 1.90359987e-002 6.92271581e-003
      4.51085381e-002 6.13038279e-002 -8.18980262e-002 -3.93974185e-002
      -1.12251610e-001 -4.09356644e-003 8.75539854e-002 1.79559588e-002
      -3.90815875e-003 7.44457764e-004 -1.24227302e-002 2.36332789e-002
      1.81182735e-002 5.69478516e-003 -5.40027283e-002 -5.10061346e-002
      9.03854668e-002 -5.93964290e-003 -2.88647003e-002 -1.03590311e-002
      5.56781404e-002 -9.24842730e-002 -7.13216066e-002 1.31997429e-002
      1.32133747e-002 9.83923450e-002 -7.10968906e-003 -5.52679934e-002
      4.90460023e-002 2.48323791e-002 -1.61446929e-002 -6.24945275e-002
      -5.79295331e-004 6.48341924e-002 1.50104826e-002 1.45837700e-003
      4.44770716e-002 3.98859121e-002 -3.29815522e-002 -1.04125086e-002
      -2.11343244e-002 -3.67007926e-002 -7.00715929e-002 8.32308922e-003
      4.52627381e-003 -3.37398201e-002 4.25398722e-002 7.70645812e-002
      -5.75676002e-002 -2.17752922e-002 -5.16998693e-002 7.07728369e-003
      8.38398710e-002 -1.46281645e-002 4.27562259e-002 1.37564480e-001
      1.12426169e-002 -3.44026573e-002 -5.03389444e-003 -5.99276908e-002
      -1.04399793e-001 4.68435474e-002 -9.34370607e-002 -4.81020100e-002
      7.14664087e-002 -1.45259956e-002 -2.69195046e-002 -1.73904318e-002
      2.11432502e-002 4.85099778e-002 1.80650428e-002 3.80964726e-002
      -6.06511198e-002 8.18432420e-002 -3.39212976e-002 -9.63990912e-002
      -1.09172268e-002 9.82994866e-003 -1.24487057e-002 -1.30653875e-002
      -1.33821638e-002 -1.03933111e-001 8.21216479e-002 8.38440494e-004
      -6.89263344e-002 -1.17256762e-002 7.70602226e-002 8.88467580e-002
      -4.07680199e-002 -7.62020871e-002 -1.13155477e-001 8.30566958e-002
      -6.75808340e-002 -1.55784264e-001 -9.29995701e-002 7.21230805e-002
      9.39195137e-003 -5.32795489e-002 -7.48683885e-002 -1.59312204e-001
      -8.11873227e-002 -7.28569627e-002 -9.63612422e-002 7.46527873e-003
      7.43206823e-003 -2.92260908e-002 -4.05478776e-002 -1.75297204e-002
      -8.62470940e-002 -8.68007701e-005 -9.10257921e-002
      -7.90921003e-002 6.75693303e-002 6.54449165e-002 8.41071531e-002
      4.33789939e-002 7.15324506e-002 -3.19933519e-002 -6.62577376e-002
      -4.45705391e-002 -1.19352020e-001 2.11517289e-002 1.48892298e-001
      1.77741081e-001 9.83647723e-003 2.81395167e-002 -1.47872001e-001
      -3.34769562e-002 -1.07183360e-001 -5.42090535e-002 9.80446264e-002
      1.69892728e-001 2.24423885e-001 1.49186894e-001 1.32635921e-001
      -1.43060803e-001 -9.16724876e-002 -1.45136207e-001
      -5.56765012e-002 9.18556675e-002 7.01551661e-002 4.11883742e-002
      4.71261591e-002 9.49250981e-002 -1.59473605e-002 -9.47085768e-002
      4.19839751e-003 5.26841953e-002 1.84015915e-001 1.90376192e-001
      1.75699815e-001 9.86014456e-002 1.32335708e-001 -3.64309810e-002
      6.99850870e-003 -1.96544364e-001 -4.17019613e-002 2.41372511e-002
      3.17775533e-002 1.11268312e-001 5.13117984e-002 1.05558291e-001
      -9.22133699e-002 -1.30023658e-001 -1.14145480e-001 8.20620637e-003
      9.47936922e-002 6.82983175e-002 1.56825259e-001 4.09882367e-002
      1.81183428e-001 -4.10216600e-002 -6.53562024e-002 -1.34122640e-001
      -8.62754434e-002 1.01506740e-001 6.26626015e-002 -3.82753573e-002
      8.87387805e-003 9.34102163e-002 -4.16338630e-002 -1.09115332e-001
      -4.51268442e-002 6.12023771e-002 1.89887434e-001 5.49170226e-002
      1.41495064e-001 7.17289448e-002 1.39806390e-001 8.70735571e-002
      5.61013073e-002 -1.96262464e-001 -1.07445762e-001 4.91562001e-002
      -1.07795252e-002 -9.91130248e-002 -4.45271023e-002 8.40639919e-002
      -9.30138975e-002 -1.90287113e-001 -7.43461624e-002 1.17758720e-003
      8.64026025e-002 1.67640988e-002 -2.51569599e-002 -2.38656122e-002
      1.72718450e-001 4.17608432e-002 -3.00601851e-002 -1.36751547e-001
      3.78961526e-002 1.35057673e-001 1.19023785e-001 2.02997193e-001
      7.53735304e-002 1.06455348e-001 6.59158304e-002 -1.34467296e-002
      -1.45058051e-001 8.49736035e-002 1.59376085e-001 1.39722675e-001
      4.94216457e-002 1.13947950e-001 1.30834103e-001 6.80798665e-002
      -1.01640172e-001 -1.52905047e-001 -8.56042430e-002 2.56072897e-002
      1.28509449e-002 -6.48087412e-002 -2.53790878e-002 8.90047029e-002
      -6.28395677e-002 -1.14324480e-001 -2.48976305e-001
      -1.43804535e-001 8.47337674e-003 -5.82592525e-002 -7.95295164e-002
      8.53879191e-003 7.44935963e-003 -6.29149154e-002 -2.22165868e-001
      -2.13983759e-001 1.13220319e-001 1.90407738e-001 7.86930248e-002
      -1.72046516e-002 1.34024262e-001 1.37323007e-001 5.43207638e-002
      -7.80683085e-002 -1.53515264e-001 1.45093367e-001 2.38237143e-001
      8.87056515e-002 -5.63862035e-003 7.97508731e-002 6.32534325e-002
      2.87601277e-002 -1.54288515e-001 -2.76178181e-001 -4.38532904e-002
      1.10093905e-002 -1.20198978e-002 -4.74200770e-002 6.33166134e-002
      -5.11527620e-002 -7.25465938e-002 -2.25718915e-001
      -1.09551623e-001 1.12677321e-001 1.15238763e-001 3.18045318e-002
      -3.30972895e-002 7.90703576e-003 -9.47143435e-002 -8.44216794e-002
      -1.88740149e-001 5.80500579e-003 8.36072937e-002 2.17432588e-001
      8.78945664e-002 -4.88793105e-002 3.90222073e-002 2.36881934e-002
      3.34823839e-002 -9.99720395e-002 5.93842492e-002 -4.22233194e-002
      -1.96997225e-002 -3.53094824e-002 -8.27905629e-003 1.60807818e-002
      -3.09179351e-002 -1.72398548e-004 -8.37630555e-002
      -1.38260773e-003 1.06409244e-001 9.85852182e-002 6.33495376e-002
      -1.46521283e-002 1.94659960e-002 -5.51417135e-002 5.25082573e-002
      -5.92354387e-002 -8.39387178e-002 7.00361058e-002 -9.08829197e-002
      -1.34537490e-002 -7.33166235e-003 -6.44294545e-002
      -1.29848510e-001 5.20679131e-002 -1.79026555e-002 4.53079455e-002
      -2.39796825e-002 -7.78626278e-002 -4.62932698e-002
      -1.92366745e-002 5.08354641e-002 5.60877379e-003 -4.71750200e-002
      -2.43123509e-002 -3.26469652e-002 -2.07910929e-002
      -1.41075533e-002 5.28131910e-002 7.70452619e-002 6.77692741e-002
      2.08732877e-002 -1.02885172e-001 -9.21448469e-002 -9.60159376e-002
      -1.12119138e-001 -6.73420355e-002 1.26843248e-002 2.65762545e-002
      -5.28887920e-002 -5.83763048e-002 -1.98465902e-002 2.06133220e-002
      -7.22408369e-002 4.64676581e-002 -1.09385420e-002 5.02486266e-002
      6.11505769e-002 2.41802521e-002 -4.31696000e-003 -1.60933360e-002
      4.72533666e-002 -1.34630382e-001 1.51768237e-001 1.17345400e-001
      9.64814350e-002 1.20049931e-001 8.68073031e-002 5.10330684e-002
      -8.09069537e-003 -1.43028781e-001 -1.36157498e-001
      -1.69280055e-003 4.66862805e-002 3.99820954e-002 8.56904685e-003
      3.42240967e-002 -2.52837082e-003 4.89353649e-002 -9.17161778e-002
      -3.92463505e-002 2.68711383e-003 2.63366681e-002 8.08834136e-002
      1.10538550e-001 6.81389347e-002 4.71961498e-002 2.36666556e-002
      -2.05923505e-002 -4.78415526e-002 -5.02500460e-002
      -4.95820828e-002 8.62059444e-002 1.49670884e-001 8.73179510e-002
      2.97411941e-002 3.71357356e-003 -1.81679986e-002 -2.28440091e-002
      4.17588130e-002 5.13681546e-002 8.95366073e-003 -6.82723075e-002
      5.20849116e-002 3.75063755e-002 9.27719846e-003 -9.35185328e-002
      -2.77628694e-002 6.23730272e-002 2.04885118e-002 -3.32726724e-002
      -5.55339158e-002 3.65645625e-002 7.21535087e-002 4.08355929e-002
      -7.96159282e-002 4.41392772e-002 5.40733039e-002 4.50186944e-003
      3.11109908e-002 4.44853082e-002 9.22353342e-002 5.99094182e-002
      2.77594291e-003 -1.33445123e-002 7.20643550e-002 6.18387014e-002
      1.57525926e-003 -2.87880879e-002 -2.18469519e-002 3.44084986e-002
      7.35997856e-002 8.28663707e-002 -2.46566534e-002 -8.37360770e-002
      -1.58004481e-002 4.64955643e-002 2.66628917e-002 -1.50816317e-003
      2.39158571e-002 5.47268242e-002 1.26620412e-001 -5.94938844e-002
      -8.83783698e-002 4.10713675e-003 1.20705031e-002 -7.14999065e-003
      1.90443185e-004 -3.02420976e-003 -2.54689455e-002 1.47250593e-001
      1.74304452e-002 -2.54897587e-002 6.45335950e-003 -1.13828862e-002
      4.02052440e-002 1.78247748e-003 1.90178119e-002 3.80214006e-002
      1.20946065e-001 -5.98855168e-002 -2.07745321e-002 7.13045895e-002
      7.02795014e-002 4.42003533e-002 1.70330927e-002 3.96192120e-003
      2.14961055e-003 -1.37274163e-002 -5.73491454e-002 4.90640337e-003
      8.20241682e-003 -5.50391935e-002 -1.65901277e-002 4.49138768e-002
      5.54981176e-003 -1.51246041e-002 2.40714196e-002 4.37068800e-003
      5.10220379e-002 1.35707455e-002 -1.49951773e-002 4.39652894e-003
      8.84899646e-002 3.82721089e-002 -1.95585564e-002 5.73219173e-002
      2.55311448e-002 -1.39736058e-002 7.15947077e-002 4.90249731e-002
      1.66539326e-002 2.52471790e-002 2.14536283e-002 -2.26849243e-002
      -6.61072582e-002 -6.26613498e-002 -2.68474920e-004 1.42939920e-002
      8.88428316e-002 4.48639095e-002 5.52332588e-002 5.85163087e-002
      -3.26396413e-002 1.29330643e-002 -4.83900905e-002 -2.58628484e-002
      -8.71903321e-004 5.55508956e-002 7.03156888e-002 -3.93532924e-002
      1.53467786e-002 1.46438014e-002 -4.94701602e-002 -7.59088546e-002
      6.14659823e-002 3.41740958e-002 4.32064384e-002 2.93319765e-002
      -7.12970854e-004 5.24936430e-002 2.18803380e-002 -3.62171084e-002
      4.28232998e-002 -4.62088361e-002 3.26515436e-002 2.62894505e-003
      -1.62853133e-002 -1.23247001e-002 6.50791973e-002 2.07858570e-002
      5.35855675e-003 -3.76068354e-002 5.48416562e-002 8.00316280e-004
      1.66274831e-002 6.23889528e-002 -1.34599125e-002 3.31259221e-002
      4.99747097e-002 4.40685526e-002 7.05120116e-002 1.91284921e-002
      -1.83550883e-002 1.23783259e-003 -5.79967126e-002 1.67492367e-002
      4.83533144e-002 1.06219959e-003 -4.44147363e-002 -2.85378261e-003
      4.43144850e-002 -3.47013995e-002 -1.50933610e-002 -1.23990783e-002
      2.28581317e-002 8.33472461e-002 -2.92341672e-002 -2.79027671e-002
      -4.78136055e-002 -2.13692337e-002 -7.49046654e-002
      -4.04100353e-003 -4.66641709e-002 -6.31272271e-002
      -7.93902203e-002 -3.83886769e-002 -3.40967923e-002 5.63250482e-002
      2.55934638e-003 -3.50115448e-002 4.68897342e-004 -1.12498766e-002
      -9.59402043e-003 -8.59716814e-003 -3.92645933e-002 2.22869217e-003
      -7.69194728e-003 8.68063420e-002 -3.29936221e-002 -2.73421388e-002
      -6.60908297e-002 3.40277283e-003 5.76821268e-002 -6.36114776e-002
      -5.52691426e-003 3.74322049e-002 -3.13792601e-002 -2.42363848e-002
      -2.00537462e-002 -4.81573865e-002 -1.39915064e-001
      -1.68361254e-002 -1.23888522e-001 -5.28222956e-002
      -4.26417254e-002 -2.45463960e-002 -5.33572286e-002
      -4.33747731e-002 1.74337078e-003 2.79704239e-002 5.55603616e-002
      -1.83879659e-002 -6.44187350e-003 -5.99135533e-002
      -6.80394284e-003 -4.16722484e-002 -3.88912223e-002
      -5.74219339e-002 -1.42498352e-002 2.11737771e-002 4.07581963e-002
      -1.71888829e-003 -3.15743424e-002 -9.83140245e-003
      -2.64446121e-002 1.11765880e-002 3.21348533e-002 1.94301195e-002
      -1.05628647e-001 -9.89248827e-002 -4.81672809e-002
      -2.32179407e-002 -4.41286042e-002 -7.81043172e-002
      -7.81202465e-002 3.70863080e-002 9.00234729e-002 -6.73286170e-002
      -3.39254551e-002 -1.39944121e-001 -3.44380946e-003 6.44387975e-002
      4.75107469e-002 2.34249625e-002 -3.40314489e-003 4.24329117e-002
      -4.17034030e-002 6.36166111e-002 7.18359947e-002 2.81107072e-002
      1.93851255e-002 4.38879766e-002 -1.08686159e-003 5.55367135e-002
      3.55527587e-002 -1.79524776e-002 2.32493933e-002 -6.49506273e-003
      -8.77918443e-004 -3.27326655e-002 -8.17178562e-002
      -3.11613102e-002 1.15447022e-001 1.54784039e-001 5.75842522e-002
      1.07613072e-001 -6.14627339e-002 -7.10838214e-002 -1.71951249e-001
      -8.76511857e-002 1.56244431e-002 1.12994760e-001 3.42327505e-002
      7.60569721e-002 1.66710183e-001 -6.04159087e-002 -8.12829509e-002
      4.20782603e-002 4.36365716e-002 -1.28317974e-003 6.80910125e-002
      2.11665891e-002 5.43750711e-002 8.84919316e-002 3.20974179e-002
      4.49208356e-002 1.86779425e-002 3.85597833e-002 1.54561512e-002
      8.59644413e-002 2.04229038e-002 -1.46228680e-002 1.41332120e-001
      1.73836961e-001 8.13430697e-002 -2.63782233e-001 -7.25710616e-002
      -6.50753686e-003 3.52660380e-003 7.02677518e-002 1.71063971e-002
      1.39518723e-001 -4.02642041e-003 -1.43103287e-001 -7.40366951e-002
      9.50524025e-003 4.13204953e-002 1.98658332e-002 5.36720119e-002
      -2.86215246e-002 1.34040207e-001 1.55759957e-002 -4.88054231e-002
      6.93435594e-003 4.06896463e-003 2.86509413e-002 -3.64229120e-002
      1.43379858e-002 -3.23908925e-002 7.95502216e-002 1.52862102e-001
      1.02358438e-001 1.58456974e-002 8.71274024e-002 8.93942863e-002
      -3.84080522e-002 -3.05842869e-002 -5.22081479e-002 6.06632940e-002
      1.32621109e-001 1.07744247e-001 -5.57635203e-002 -6.25784183e-003
      1.82079747e-002 8.93280143e-004 -8.84178579e-002 -5.66512085e-002
      4.22883928e-002 1.41283125e-002 -9.29074511e-002 -1.07209077e-002
      2.83097383e-002 2.66298149e-002 2.16600299e-002 -1.81717407e-002
      1.56560242e-002 1.57921746e-001 7.70211369e-002 2.91034933e-002
      2.60182214e-003 -9.51060560e-003 -3.00510451e-002 -6.56599700e-002
      -1.04310736e-001 -4.59495299e-002 2.37922128e-002 6.95446804e-002
      8.96989554e-002 1.14226662e-001 -5.10015152e-002 -4.29671332e-002
      -7.84206539e-002 -6.80323541e-002 -1.80586502e-002 1.25625646e-002
      3.17916535e-002 1.17655508e-001 3.79471816e-002 -6.70256168e-002
      -2.82362495e-002 -3.96726280e-003 -5.59007302e-002
      -8.18256103e-003 1.15258507e-001 1.54810620e-003 4.12427075e-003
      -8.82986784e-002 -8.12121630e-002 2.92236619e-002 3.63649847e-003
      3.24599594e-002 4.38511632e-002 1.03261560e-001 7.49636143e-002
      -8.13887268e-002 -2.35607605e-002 -6.70666248e-002
      -4.29537445e-002 -4.53486145e-002 -1.97156426e-002
      -5.15011996e-002 -1.77177601e-002 -5.33551462e-002 1.88141258e-003
      -8.65845829e-002 -7.81683549e-002 -5.07389978e-002
      -7.80344382e-003 -1.37643861e-002 -4.08977382e-002
      -1.61010791e-002 6.60191178e-002 -7.84538612e-002 -5.84434420e-002
      4.36621495e-002 -2.58524101e-002 -1.16830384e-002 -2.25617867e-002
      1.91752648e-003 -2.44260263e-002 6.58745393e-002 -9.37679783e-002
      7.58368894e-002 1.32862926e-001 -4.46082978e-003 -4.18559387e-002
      -5.33705354e-002 5.30867577e-002 -3.14023555e-003 1.95289701e-002
      -2.43774559e-002 -5.14467694e-002 -5.30209057e-002
      -5.42505383e-002 -1.62477873e-003 -3.54283527e-002
      -2.41824165e-002 -2.73713954e-002 6.71942756e-002 -4.90386337e-002
      -1.48756085e-002 -8.94882604e-002 -9.09206122e-002
      -6.37977496e-002 -6.13689423e-002 -4.22988869e-002 9.93499067e-003
      7.20141456e-002 -8.51487592e-002 6.80942973e-003 8.61287676e-003
      -3.51352151e-003 8.74416437e-003 2.24572718e-002 5.19320332e-002
      1.16793625e-003 6.78903461e-002 1.98384598e-002 -1.14643954e-001
      1.27317803e-002 1.94006618e-002 8.32682848e-003 -3.43371257e-002
      7.52293831e-003 -6.60091788e-002 1.24244943e-001 5.72093911e-002
      -5.03395572e-002 -1.07300535e-001 -4.30781022e-002 1.72461700e-002
      8.65007471e-003 -3.72324581e-003 8.27044155e-003 6.37175664e-002
      1.52653214e-002 -4.72504906e-002 -1.03655487e-001 -4.36805887e-003
      -2.76234541e-002 -6.38224855e-002 -7.22856075e-002
      -3.47403139e-002 6.32464290e-002 1.08723439e-001 -7.91425183e-002
      -1.41095638e-001 4.03013341e-002 -7.47444807e-003 -2.39037964e-002
      -1.07808446e-003 -1.09764542e-002 2.08993927e-002 9.72914249e-002
      2.51625665e-002 -1.34623274e-001 3.16242352e-002 2.31052302e-002
      -3.77863459e-002 -1.81984168e-003 -3.95311154e-002 1.53522016e-002
      1.58939451e-001 -1.21239915e-001 -1.19690761e-001 1.82061791e-002
      -5.99866211e-002 -4.13601920e-002 7.02132471e-003 3.13148871e-002
      2.06900798e-002 9.77714360e-002 -1.32684913e-002 -7.58796036e-002
      3.01553756e-002 1.72382127e-002 -1.82311460e-002 3.34725268e-002
      -1.43091306e-002 -2.25542532e-003 1.35526238e-002 4.96810377e-002
      -9.19928551e-002 1.93600021e-002 2.85030510e-002 2.78726593e-002
      3.19269411e-002 -8.07843229e-004 6.59418628e-002 5.91175631e-002
      1.15190603e-001 3.15842554e-002 -7.03663798e-003 2.17555985e-002
      8.94617960e-002 3.24550504e-003 -8.14076699e-003 -2.99848150e-002
      6.02101944e-002 -2.59456411e-003 -3.51486146e-003 1.03406048e-004
      3.37731205e-002 2.28811917e-003 4.23877733e-003 -4.37401012e-002
      -1.41218286e-002 -2.44753920e-002 1.31167963e-001 -4.13837433e-002
      -2.22109724e-002 1.98653098e-002 -4.43771482e-002 -3.54440175e-002
      -5.87840565e-002 -8.80039558e-002 -2.51468327e-002 1.67724818e-001
      5.25095463e-002 -1.65208355e-002 -1.63889136e-002 -1.49956914e-002
      -1.86031889e-002 2.62606014e-002 -5.01899198e-002 8.35869908e-002
      3.32814455e-002 8.03656131e-002 6.41172228e-004 -3.25751863e-002
      -6.81430399e-002 -2.04050005e-003 8.18104446e-002 6.82927370e-002
      -4.14068215e-002 5.59556335e-002 -6.58285804e-003 2.18164660e-002
      2.39669848e-002 -4.52515036e-002 -3.79480571e-002 5.43018896e-003
      -7.76837915e-002 -8.07663146e-003 -6.80273846e-002 6.63142800e-002
      8.35443512e-002 1.86532009e-002 2.06530187e-003 -4.12099576e-003
      7.37020820e-002 -6.07568659e-002 -6.39389306e-002 -1.88876987e-002
      -7.61413202e-002 -4.29385677e-002 -4.20424007e-002
      -2.65555996e-002 -1.43117113e-002 2.71677636e-002 9.99391079e-002
      -1.61725637e-002 9.06378627e-002 4.69641667e-003 1.14530157e-002
      2.28620656e-002 -2.34235008e-003 -1.74596328e-002 3.38502675e-002
      -2.48720068e-002 1.15364157e-002 2.18273122e-002 7.33017996e-002
      5.12663983e-002 -6.68920055e-002 -4.65627946e-002 -2.83498503e-002
      1.29636414e-002 -2.81367935e-002 -2.19637193e-002 -9.19000898e-003
      6.40102327e-002 -4.21805196e-002 -4.01198976e-002 -4.47201468e-002
      -1.22953551e-002 4.33677435e-002 5.59197962e-002 1.50699979e-002
      5.05385175e-002 3.29122208e-002 -2.17296090e-003 -2.60879770e-002
      -2.23185308e-002 -2.37867497e-002 -4.60850969e-002
      -3.37541997e-002 2.03108527e-002 4.61514294e-002 -4.30717580e-002
      2.72151735e-003 1.57167185e-002 3.48889679e-002 8.68438482e-002
      -2.71496903e-002 -3.41712050e-002 2.97973529e-002 -5.37503548e-002
      -1.07378047e-003 -5.89363538e-002 -5.90570346e-002
      -6.26446754e-002 -4.32094149e-002 -1.52476262e-002 3.51116881e-002
      6.29120842e-002 6.79452717e-002 3.25171575e-002 -3.07448655e-002
      -8.34120438e-003 4.02122270e-003 5.52180968e-002 -2.75405776e-002
      -1.78169757e-002 8.24242160e-002 9.44485946e-004 2.24067606e-002
      -2.94401068e-002 -6.11293269e-003 3.33224759e-002 1.23389410e-002
      -9.89667512e-003 4.94104214e-002 1.14971036e-002 6.49387985e-002
      7.65628938e-004 5.15467720e-004 4.29622568e-002 1.81011334e-002
      4.88189869e-002 6.08876487e-003 2.62612030e-002 3.80937792e-002
      -6.99887797e-002 -2.41840016e-002 -4.53964993e-002
      -6.69605285e-002 6.54449873e-003 -3.58194485e-002 -3.76498774e-002
      8.93407594e-003 -8.57911482e-002 1.95849780e-002 -5.58045506e-002
      7.90848490e-003 -2.79115420e-002 -3.58833969e-002 2.83885635e-002
      1.76405124e-002 2.13732754e-004 -1.91875398e-002 2.54796315e-002
      -1.10712331e-002 3.52917202e-002 -3.04231048e-002 -3.04304063e-002
      -9.40835625e-002 -7.81860352e-002 -6.59303144e-002 2.44330820e-002
      5.70751727e-003 -2.45398153e-002 1.71815064e-002 2.67350487e-002
      3.21983546e-002 -5.33541925e-002 -1.79865286e-002 -2.18941420e-002
      4.53259274e-002 1.59558060e-003 -6.03899360e-002 3.28965373e-002
      -2.70334352e-002 -4.02166843e-002 -4.89872620e-002
      -5.21997772e-002 -3.76644805e-002 1.14613548e-002 -1.00947544e-002
      -3.00774854e-002 2.52876636e-002 2.16404833e-002 7.41822459e-003
      -3.27334777e-002 7.33810524e-003 -1.77167673e-002 4.40585092e-002
      -6.01340272e-003 -4.05072942e-002 -1.73208658e-002 7.02562258e-002
      2.86117774e-002 1.75746856e-003 2.18622517e-002 -2.45917365e-002
      3.30568850e-003 1.57578266e-003 -1.67546533e-002 3.64579912e-003
      6.44427314e-002 -2.98417086e-004 3.75735830e-003 6.20858856e-002
      -2.01438013e-002 3.32046114e-002 -5.34698479e-002 -3.62420492e-002
      2.83489395e-002 3.30666564e-002 -3.37872803e-002 -2.20745653e-002
      2.54591294e-002 -6.17909543e-002 -4.52306867e-002 -8.89522955e-003
      -1.11008873e-002 -2.13275142e-002 7.40659460e-002 -4.92801331e-002
      8.28416795e-002 -3.78876776e-002 -4.84139659e-002 6.06091879e-003
      1.72107816e-002 3.36174704e-002 1.42658632e-002 -1.75995193e-003
      5.50368382e-003 -2.53931843e-002 7.10785985e-002 3.13982964e-002
      3.08838170e-002 -1.52749987e-002 4.00030315e-002 2.52823103e-002
      9.57936887e-003 -4.18127514e-002 -2.38702130e-002 -4.02392745e-002
      -3.26295607e-002 3.34645770e-002 2.17824224e-002 3.89930122e-002
      -8.88465159e-003 4.00986485e-002 6.31390512e-002 -8.03470146e-003
      -2.65675690e-002 4.12423164e-003 3.09621375e-002 6.37950003e-002
      5.95453978e-002 1.70419943e-002 -1.65546443e-002 -1.74981095e-002
      -5.53005151e-002 -1.01973005e-002 -4.34416831e-002 5.37078194e-002
      2.67652273e-002 4.60192487e-002 -1.82445964e-003 2.76289359e-002
      -4.72257100e-002 1.25790592e-002 -2.91891340e-002 -7.54910661e-003
      4.58328463e-002 4.05003317e-002 4.30205278e-002 -1.51653001e-002
      -2.66558374e-004 -2.67285518e-002 -8.96448418e-002
      -2.23862883e-002 6.35448396e-002 6.68227971e-002 5.44143282e-002
      8.09717476e-002 1.82942431e-002 1.79131504e-003 -5.21036908e-002
      2.39088517e-002 3.86009105e-002 -5.83412983e-002 1.73670184e-002
      6.63783327e-002 3.53106968e-002 6.60541409e-004 -2.02035857e-003
      -1.10085439e-002 3.60827558e-002 -3.10581736e-002 -1.82255097e-002
      -2.09289826e-002 1.01805001e-003 1.12456046e-002 2.49381289e-002
      -1.25250760e-002 -8.80925450e-003 -3.97500843e-002
      -1.55662810e-002 8.08193162e-002 5.54936044e-002 -1.22358194e-002
      3.79719958e-002 3.59518714e-002 -3.76815051e-002 -1.31017193e-002
      -5.65981977e-002 1.50700761e-002 4.52093631e-002 6.26256987e-002
      1.97460987e-002 -7.71224592e-003 -1.21991299e-002 -1.32157477e-002
      1.79464126e-003 1.47145307e-002 -6.97333366e-002 -1.58824716e-002
      4.47180942e-002 -4.65763994e-002 1.93539355e-002 2.22917330e-002
      -3.06068417e-002 2.00337935e-002 -3.84254754e-002 1.08536873e-002
      8.78594292e-004 3.76242250e-002 -4.26654927e-002 4.45993356e-002
      -8.46461672e-003 -2.27384344e-002 -6.28644275e-003
      -3.15063186e-002 4.37677056e-002 4.60948497e-002 3.27007882e-002
      1.85240377e-002 -9.22531821e-003 6.22272817e-003 -6.53949529e-002
      2.43866406e-002 3.91653068e-002 6.21494129e-002 7.44248852e-002
      4.68018986e-002 3.46488575e-003 3.81084532e-003 2.05783406e-003
      -5.53189032e-002 7.76771680e-002 -3.85177732e-002 5.31371534e-002
      1.07669877e-002 1.34460358e-002 -2.40247790e-002 3.98286209e-002
      2.48406231e-002 -4.73794155e-002 8.44717845e-002 1.93661731e-002
      1.14856577e-002 2.44138623e-003 6.95850095e-003 8.99634790e-003
      -3.27018313e-002 3.85107845e-003 -2.39324048e-002 8.55883118e-003
      -2.07706541e-002 -2.25720145e-002 -1.06094284e-002
      -2.22450141e-002 4.13722061e-002 -7.58431340e-003 1.63264424e-002
      4.65248944e-003 -6.07154854e-002 -2.37313882e-002 -3.31839137e-002
      8.22320506e-002 7.18809664e-003 -4.45938110e-002 -3.06566320e-002
      2.12328825e-002 4.53430116e-002 5.39921932e-002 -1.78936757e-002
      -7.22857844e-003 -1.88835245e-002 1.90295093e-002 -8.53405613e-003
      1.54130589e-002 1.60713885e-002 2.24017259e-002 3.07854414e-002
      -3.31768282e-002 7.44038378e-004 1.44143961e-002 -4.44758385e-002
      -2.58940626e-002 -2.00031977e-002 1.50195099e-002 1.24803511e-002
      -9.15590748e-002 -6.41528284e-003 -3.17461346e-003 4.86563630e-002
      2.14854535e-002 -1.60208270e-001 -8.25545490e-002 -3.14399935e-002
      2.16687005e-002 -4.95316163e-002 -2.28089630e-003 -6.34750947e-002
      -3.37230694e-003 -1.39613837e-001 -1.57602050e-003 5.22418693e-002
      2.74742320e-002 -3.81068215e-002 -5.82863577e-002 -2.38084998e-002
      -1.00282114e-002 5.75682782e-002 8.30284879e-003 3.73360626e-002
      6.21818267e-002 -1.10365059e-002 -6.66337973e-003 3.71305794e-002
      1.83361899e-002 -9.46687236e-002 -3.17871608e-002 6.02788180e-002
      -1.54827967e-001 -1.08234607e-001 -2.80187372e-002 3.99940386e-002
      4.33286168e-002 7.05368677e-003 -5.03394082e-002 8.19932390e-003
      -5.86034246e-002 -7.95262083e-002 5.52317500e-002 -7.71229016e-003
      -2.36737286e-003 -1.30618643e-002 -2.84095164e-002 2.09410693e-002
      4.68410328e-002 9.87977907e-002 4.59292606e-002 4.98830676e-002
      -1.13573102e-002 5.94631098e-002 7.61632770e-002 2.21645124e-002
      -1.46805737e-002 -1.34094367e-002 -7.53400475e-003
      -3.20253335e-002 1.14805259e-001 1.70986522e-002 -8.37571081e-003
      6.22122549e-002 2.59952471e-002 5.77070601e-002 7.20295012e-002
      -7.10729212e-002 -2.04704240e-001 1.45799471e-002 -3.12101468e-002
      -5.88811748e-002 -1.31521020e-002 1.60892550e-002 4.32691500e-002
      4.61394452e-002 1.55061716e-002 1.19299833e-002 7.44576892e-003
      5.98339401e-002 3.16211693e-002 5.32797240e-002 6.90305978e-002
      3.68672758e-002 -6.46616193e-003 4.98298630e-002 -1.04824923e-001
      6.90822974e-002 1.52237937e-002 -4.78867330e-002 7.85875171e-002
      6.75280839e-002 4.26382832e-002 1.94579605e-002 -1.50804058e-001
      -4.08943966e-002 1.09670043e-001 1.02938488e-001 6.15312047e-002
      4.88360301e-002 4.47455421e-002 7.26871490e-002 -1.26175804e-003
      -4.60967720e-002 -4.62838821e-003 -3.24552767e-002 3.06851063e-002
      -9.35479999e-003 -1.30352288e-001 4.54810821e-003 -1.57982297e-002
      2.28310451e-002 1.06248915e-001 1.14887230e-001 -1.39203845e-002
      8.03569984e-003 -7.05394414e-005 -8.25693086e-002 3.58164981e-002
      7.62631930e-003 5.45835979e-002 9.43704769e-002 -6.81561744e-003
      9.40584987e-002 3.31290290e-002 2.43664011e-002 -8.11468512e-002
      -3.45889898e-003 -1.40263895e-002 1.70220416e-002 2.45454684e-002
      -5.47658503e-002 3.25865634e-002 -1.43805500e-002 1.77560691e-002
      8.34971666e-002 3.51220854e-002 -4.45804670e-002 4.19607796e-002
      -6.74026608e-002 5.43121248e-003 -7.15226308e-002 -7.42071075e-004
      2.27200892e-003 3.72633301e-002 1.85563322e-002 1.68529842e-002
      8.86201188e-002 8.63811281e-003 -1.77160818e-002 1.77965406e-002
      1.21314442e-002 1.49353212e-002 5.04245684e-002 2.02304497e-002
      7.60936737e-002 2.86408849e-002 -8.88359398e-002 -3.49068791e-002
      -5.93577847e-002 -6.19047880e-002 2.41633523e-002 1.13330051e-001
      4.02316311e-003 -3.00926361e-002 4.50140461e-002 -6.77157845e-003
      -5.95820025e-002 3.79818752e-002 -5.97362816e-002 2.15243101e-002
      1.83264224e-003 1.32810287e-002 -1.30895516e-002 -6.37236331e-003
      -2.01385990e-002 8.12850296e-002 5.50983772e-002 4.04333323e-002
      1.49358530e-002 2.15052143e-002 -2.20798291e-002 4.47530262e-002
      1.52421556e-003 -7.66262934e-002 -3.54935080e-002 -6.58663288e-002
      -3.07844095e-002 -5.99469198e-003 1.16572743e-002 -5.28219230e-002
      5.68086579e-002 8.15993734e-003 5.94061986e-003 -7.96483364e-003
      5.17036617e-002 1.40876202e-002 1.11630872e-001 5.38123026e-002
      3.42242257e-003 -4.06781724e-003 -2.14243066e-002 -7.16295838e-003
      -2.72022188e-003 3.03353388e-002 -4.86407056e-002 5.03767692e-002
      8.89482722e-003 -1.83946770e-002 2.97051482e-002 -5.09690121e-003
      1.86453797e-002 -4.21762802e-002 -6.02547824e-002 -5.81471473e-002
      -4.41829003e-002 1.13826748e-002 -5.78690059e-002 4.85396944e-002
      6.56730607e-002 -3.97455171e-002 -1.25343748e-003 -3.88764925e-002
      -8.54330510e-002 1.84886083e-002 -1.95635445e-002 -1.06190052e-002
      -4.80851717e-003 -3.07793897e-002 -2.76709609e-002 1.87556446e-002
      8.84115044e-003 -8.84791762e-002 3.30169834e-002 8.81233960e-002
      -3.89661849e-003 7.83527344e-002 7.70778805e-002 9.69435498e-002
      3.06664482e-002 7.01813251e-002 1.53036835e-002 8.40951800e-002
      4.92163785e-002 -2.28779670e-002 8.40915069e-002 1.06180862e-001
      5.33058681e-002 5.99219045e-003 -1.63061023e-002 -2.25655902e-002
      8.76391307e-003 -2.70812120e-002 -2.45954152e-002 -1.87711623e-002
      1.63422374e-003 -5.96200451e-002 3.01894397e-002 -5.24272062e-002
      -3.01650669e-002 -2.07046978e-002 -3.21280840e-003 2.62155663e-002
      2.90339589e-002 1.66105665e-002 -3.06694545e-002 -4.32261787e-002
      2.76602488e-002 1.72310299e-003 6.89796731e-002 -3.94897535e-002
      7.40494346e-003 -3.48463058e-002 2.15131836e-003 8.97498801e-003
      1.72014050e-002 -1.72942504e-003 -6.38150424e-002 3.80962566e-002
      1.11312814e-001 3.34794819e-002 4.56545912e-002 5.17025329e-002
      1.23950383e-002 -2.31557805e-002 -8.19446072e-002 8.74881539e-003
      -3.09152920e-002 -6.18153103e-002 2.83274446e-002 -5.00485227e-002
      1.91928949e-002 1.60196461e-002 -6.00927323e-003 -1.03961127e-002
      9.23683718e-002 4.58511636e-002 1.23205585e-002 3.87642980e-002
      8.82401224e-003 2.30934434e-002 2.18718685e-002 -4.86461595e-002
      -3.70606519e-002 -5.77370897e-002 -2.57570706e-002 3.55390534e-002
      4.07717451e-002 1.44982971e-002 5.10301255e-002 -8.45040008e-003
      -1.88188516e-002 -3.46873030e-002 2.21295897e-002 4.81087156e-003
      6.61239028e-002 1.22988746e-002 -3.27854268e-002 1.60563213e-003
      -4.03216528e-003 3.56249437e-002 -1.05917081e-002 4.29499336e-002
      -9.13317036e-003 -5.83239459e-003 4.42474633e-002 3.53204012e-002
      1.00346152e-002 3.09606753e-002 7.51630031e-003 -1.19667789e-002
      1.96893811e-002 8.05345699e-002 3.22645605e-002 1.87196001e-001
      -1.87432319e-002 2.45623235e-002 8.47410038e-003 -1.12747468e-001
      -5.85363396e-002 -1.19880689e-002 -3.99043187e-002 2.33423989e-003
      4.96026268e-003 1.69922691e-002 1.07642193e-003 7.80965947e-003
      -5.24734259e-002 -4.35909852e-002 -2.04265472e-002 4.18821955e-003
      -1.39235344e-003 1.18487529e-001 -1.71523243e-002 -3.15296347e-003
      4.54024458e-003 -3.14141884e-002 4.56893407e-002 -3.40057490e-003
      3.14058363e-002 7.35602900e-002 5.15124165e-002 -3.32893133e-002
      5.09504527e-002 -6.29804330e-003 3.68839949e-002 1.11455359e-001
      2.45679822e-002 -4.58500758e-002 -1.12232668e-002 -4.97470126e-002
      8.65845382e-003 -3.31657822e-003 5.22633828e-002 -2.03052070e-002
      3.39265466e-002 3.58651802e-002 4.86370362e-002 -3.85871567e-002
      4.27340157e-002 -3.30801010e-002 -9.79876891e-003 5.53134177e-003
      1.06932156e-001 3.36782522e-002 5.33105358e-002 1.28653590e-002
      -8.62583667e-002 1.80534599e-003 1.72370858e-002 1.59354489e-002
      7.73530155e-002 6.37812316e-002 6.72739670e-002 1.80742722e-002
      1.82488803e-002 -3.56870852e-002 1.99731551e-002 5.54888882e-002
      -4.48843762e-002 5.42823924e-003 3.23096067e-002 4.00862750e-003
      3.83056700e-002 2.54224893e-002 -3.18330638e-002 2.95332056e-002
      -9.39948391e-003 -2.68408228e-002 -6.86831772e-002 1.16757438e-001
      -1.80874160e-003 -8.12797248e-003 2.26633921e-002 -1.04670644e-001
      4.17747796e-002 -6.64170785e-003 -6.01049326e-003 8.23037475e-002
      7.48817697e-002 3.27460244e-002 4.33304459e-002 2.18665358e-002
      -1.68087155e-001 1.96262319e-002 7.26708863e-003 3.53597244e-003
      5.97597957e-002 9.41641536e-003 -9.69356764e-003 2.54119448e-002
      1.20419590e-002 -1.58840865e-002 2.34556347e-002 -4.94859740e-002
      7.21630221e-003 -1.47314789e-002 3.95146869e-002 1.57982707e-002
      5.92946336e-002 2.27020904e-002 7.29996040e-002 -2.79805646e-003
      -1.31882848e-002 4.84880246e-002 1.70947872e-002 4.30824161e-002
      3.05492487e-002 7.13354796e-002 -3.80639322e-002 -9.80043113e-002
      -1.17030349e-002 1.00346729e-002 3.67933251e-002 7.30206594e-002
      -8.43565678e-004 -1.58128440e-002 5.80105670e-002 1.19310420e-003
      -2.59071235e-002 1.66073870e-002 4.05525863e-002 5.93979061e-002
      4.84049357e-002 6.75315112e-002 -1.09006930e-002 -5.31047676e-003
      3.34966066e-003 4.99317534e-002 -2.54870392e-002 -3.82825290e-003
      7.34030688e-003 5.76839857e-002 9.49207414e-003 -2.39236634e-002
      -4.96360697e-002 -4.19763988e-003 8.08003172e-002 5.69185950e-002
      -6.46425709e-002 -2.37665959e-002 2.71998215e-002 -1.61016881e-002
      7.67339095e-002 1.58423334e-002 1.95532478e-002 -3.38946581e-002
      -2.51440867e-003 5.83470203e-002 -3.01740598e-002 -2.19722595e-002
      -3.14986929e-002 6.30142987e-002 -2.89701428e-002 -5.92152700e-002
      -7.54019544e-002 -1.02722330e-003 1.10383639e-002 -5.63272201e-002
      -2.80360207e-002 -2.85389591e-002 -5.88123612e-002
      -3.52561809e-002 3.58045958e-002 6.01412766e-002 -6.41464430e-004
      -4.30556089e-002 6.00719766e-004 -1.39824348e-002 5.92870414e-002
      -2.08090083e-003 -3.37807112e-003 5.17789461e-002 1.23497449e-001
      -7.07293898e-002 -3.77801806e-003 5.03741950e-002 6.98857754e-003
      -1.09379683e-002 -2.31241416e-002 5.98776154e-003 -2.00573504e-002
      1.21591426e-002 -3.49334814e-002 -1.32595832e-002 4.86142701e-003
      -3.58263589e-002 9.75331105e-003 -1.86221935e-002 3.76258790e-003
      -2.52158716e-002 6.76117167e-002 -4.92146648e-002 -4.25831452e-002
      2.05413345e-002 -4.82387934e-003 3.04921512e-002 2.96001993e-002
      -6.69148576e-004 -4.55382140e-003 6.37544831e-003 -6.61659241e-002
      -1.41983563e-002 8.96548405e-002 1.09843880e-001 4.70116399e-002
      2.24288125e-002 -4.19130921e-002 3.99193820e-003 2.10199989e-002
      -1.77527238e-002 -5.21376021e-002 2.59932615e-002 1.69990107e-001
      4.59640510e-002 5.14011644e-003 -2.70523746e-002 -1.59624591e-003
      1.82588734e-002 -6.74335510e-002 -2.66095418e-002 4.01138216e-002
      3.59213958e-003 2.25545019e-002 5.50104342e-002 -9.58327278e-002
      -1.63741745e-002 -1.53340911e-002 5.94688579e-003 -5.08075301e-003
      3.21783572e-002 8.19339138e-003 5.63566992e-003 2.12249048e-002
      -1.38810985e-002 6.02568723e-002 2.79016607e-002 -1.66650694e-002
      1.72377191e-002 -9.86201875e-003 1.12687342e-001 -1.06107466e-001
      1.46342022e-002 3.97007726e-002 3.54015902e-002 5.95073327e-002
      3.37746963e-002 2.79601123e-002 4.03481536e-002 -5.92153938e-003
      1.04160495e-001 6.88436702e-002 -3.70118134e-002 7.89131224e-002
      -3.03002484e-002 6.17369860e-002 4.40170467e-002 1.89194828e-002
      1.04652554e-001 8.26873183e-002 6.65942356e-002 4.69549596e-002
      5.01898006e-002 -7.22308457e-002 1.96271166e-002 7.46759307e-003
      6.98790476e-002 6.89227581e-002 -1.28776267e-001 -1.29471999e-003
      6.02993779e-002 1.92784220e-002 9.32579339e-002 8.00365582e-002
      2.08424479e-002 4.45364527e-002 -7.09145516e-002 -6.64144009e-002
      7.66545832e-002 1.03532381e-001 3.36816832e-002 2.84427255e-002
      2.41379868e-002 7.43203983e-002 7.69023672e-002 -1.82149857e-002
      6.03451813e-003 -2.99369264e-002 4.48871255e-002 3.66500653e-002
      1.10294959e-002 -9.69199277e-003 1.78339873e-002 9.21908766e-002
      3.20978388e-002 -3.04461997e-002 3.64428610e-002 1.53344840e-001
      5.71211278e-002 8.61401781e-002 1.33843487e-003 5.18545276e-003
      1.55146927e-001 8.53256211e-002 1.39853898e-002 5.69202751e-002
      3.98063064e-002 1.21944835e-002 2.01218110e-002 5.80763258e-003
      7.57382857e-003 9.30915400e-002 3.46183293e-002 -6.44101873e-002
      2.73184814e-002 -7.15640709e-002 1.14038745e-002 1.76274896e-001
      5.78694418e-002 -6.09280057e-002 4.53424975e-002 -5.91488648e-003
      3.16509195e-002 -9.87615902e-003 6.08442798e-002 6.33054413e-003
      7.14582205e-002 2.18219757e-002 -7.81401712e-003 1.24743357e-001
      1.37233496e-001 7.20422268e-002 -1.27645833e-002 -2.39251815e-002
      -4.62712236e-002 4.26974744e-002 2.31625699e-002 9.72776208e-003
      2.91791633e-002 8.85010660e-002 -3.31249759e-002 1.80027671e-002
      -3.90737504e-002 4.93632406e-002 1.53062969e-001 1.58103816e-002
      -1.39527693e-002 1.83893740e-002 3.66455987e-002 -2.89763864e-002
      2.70647146e-002 2.37356238e-002 8.02080855e-002 4.92072403e-002
      -3.35545774e-004 -5.03293686e-002 5.29107451e-003 6.69237599e-002
      -2.10631955e-002 3.73568088e-002 -4.46471618e-003 -5.32475002e-002
      -5.04999124e-002 -8.40467587e-002 -1.75138880e-002 1.83745299e-003
      1.22281751e-002 -5.75290062e-003 7.36068562e-002 7.99981970e-003
      6.80185780e-002 6.59943894e-002 -3.59199494e-002 -8.76801740e-003
      4.71839607e-002 3.32384855e-002 -4.24868092e-002 -4.74555604e-002
      3.75272930e-002 8.21627229e-002 4.89602890e-003 -3.21936831e-002
      -6.25656620e-002 -5.04635386e-002 1.90160051e-002 -1.19260803e-001
      -1.78052559e-002 -3.02035958e-002 -4.93386667e-003
      -1.09637398e-002 7.07997335e-003 -8.97003617e-003 -3.10350079e-002
      -7.71568716e-002 -5.54078929e-002 -1.08609423e-001 5.01515763e-003
      7.48928562e-002 1.29373269e-002 7.33355619e-003 2.16985196e-002
      2.77497303e-002 5.24557456e-002 -3.97662036e-002 -4.05317657e-002
      4.84346785e-002 6.86316863e-002 -3.57733704e-002 4.49543372e-002
      5.27289137e-002 5.11699617e-002 4.34908830e-002 -1.13826282e-001
      4.75788899e-002 2.39297822e-002 -2.92510656e-003 -2.12403387e-003
      2.34758053e-002 4.34800982e-002 5.75377897e-004 -7.43248165e-002
      -8.44989643e-002 7.56167471e-002 4.39530164e-002 3.16237472e-002
      1.81264523e-002 2.67339312e-002 5.52122183e-002 -4.41636331e-002
      -7.80373961e-002 3.27779278e-002 9.93888900e-002 -2.68579442e-002
      5.01241954e-003 2.41364930e-002 2.88924500e-002 9.21561196e-002
      3.19452249e-002 3.32849696e-002 5.05080186e-002 1.15304083e-001
      -8.31316188e-002 -5.13592698e-002 -6.69110045e-002 2.78261304e-002
      6.65906966e-002 1.99941806e-002 1.30585924e-001</_>
    <_>
      -1.30339144e-002 1.70110865e-003 4.51523485e-003 -3.76313715e-003
      3.49344648e-002 1.85585544e-002 2.92995223e-003 3.34302732e-003
      -1.19327456e-002 7.22533511e-003 7.80865131e-003 8.00318550e-003
      1.97663481e-004 -3.39543168e-003 9.62550752e-003 -1.03120203e-003
      -9.06697568e-003 -4.65218304e-003 -1.20433299e-002 2.74716057e-002
      6.53508538e-003 5.26438374e-003 4.66542654e-002 3.38187404e-002
      2.05830415e-003 2.57025398e-002 -9.15385876e-003 -8.16888083e-003
      1.45335756e-002 7.94879999e-003 1.14088524e-002 8.44838156e-004
      2.86216568e-002 1.17654679e-002 2.69058328e-002 -1.13613810e-002
      1.36852702e-002 9.25783347e-003 2.99375417e-004 -1.36885792e-003
      -1.82834193e-002 1.61329433e-002 9.31831449e-003 4.49748943e-004
      1.02270069e-002 2.90824082e-002 1.62968989e-002 7.26873800e-003
      1.10941846e-003 -9.61038936e-003 4.63622203e-003 6.76017813e-003
      1.92704275e-002 2.49178912e-002 1.40946321e-002 2.44706403e-002
      1.52683863e-002 1.21484855e-002 -1.28970873e-002 3.17414254e-002
      2.09563412e-002 2.29652319e-002 9.14922915e-003 3.22538465e-002
      2.43402049e-002 1.15353540e-002 -9.11635999e-003 -3.33297178e-002
      1.28722396e-002 6.93664770e-004 2.57962029e-002 2.59518996e-002
      -9.44701862e-003 7.60788750e-003 1.10538900e-002 7.42796808e-003
      1.82389487e-002 4.28188732e-003 2.24348949e-003 -7.30838953e-003
      -1.99716017e-002 -8.17807391e-003 1.34655321e-002 2.25259326e-002
      1.13907708e-002 3.98884006e-002 2.11910307e-002 1.68937948e-002
      -5.60201297e-004 -2.36445758e-002 1.31289931e-002 7.63415173e-003
      -7.15461327e-004 -4.36309865e-003 -7.01016886e-003 5.40757501e-005
      -2.05011296e-004 1.53221376e-002 5.41456277e-003 9.47184104e-004
      1.20680537e-002 3.10624554e-003 7.91512709e-003 2.31667906e-002
      1.52572095e-002 6.68229908e-003 2.53961179e-002 -1.35204345e-002
      1.84515137e-002 -1.29810371e-003 8.27677082e-003 -1.14766741e-003
      2.08291356e-002 2.01457180e-002 9.49742645e-003 6.74277963e-003
      7.53773144e-003 2.25681625e-003 -1.38638727e-003 6.42154319e-003
      1.02604423e-002 2.18255781e-002 2.45491508e-002 6.92966627e-003
      1.34763392e-002 1.77286156e-002 -1.42641747e-002 2.92456103e-003
      -2.62975530e-003 -1.70708429e-002 -7.19251856e-003 2.23521376e-003
      -6.25581667e-003 2.53446214e-003 -2.30905414e-002 -1.16152214e-002
      4.32521524e-003 1.20449541e-002 2.66112125e-004 -7.26971496e-003
      8.80017318e-003 5.10032522e-003 7.64156925e-003 -5.35478257e-003
      2.23429757e-004 3.51077528e-003 9.03695542e-003 1.39697623e-002
      1.35523835e-002 8.20246339e-003 6.36553532e-003 -1.11943856e-003
      2.05626599e-002 -8.45620781e-003 5.99355553e-004 -8.93079210e-003
      7.54955364e-003 -6.04397152e-003 -1.11930119e-002 -1.15537643e-002
      -1.52586531e-002 2.65469891e-003 2.47151242e-003 2.01576902e-003
      1.26276221e-002 -5.48599008e-003 -2.40870547e-002 8.31138249e-003
      1.05621982e-002 9.61171929e-003 6.55573094e-003 6.73572393e-003
      1.86544377e-002 4.43872018e-003 -1.74313970e-003 -9.97181889e-003
      6.68720761e-003 2.10149027e-002 1.44556994e-002 -5.50974859e-003
      1.36805130e-002 4.91027674e-003 -1.55861210e-003 5.76630421e-003
      -8.16393923e-003 -3.54141928e-003 -4.56677657e-003 2.51418329e-003
      1.84019655e-002 1.06621580e-002 -5.47399838e-003 -1.09820310e-002
      -1.51832076e-002 -1.89150814e-002 -5.42169251e-003
      -4.93926834e-003 1.28898127e-002 1.27821201e-002 1.84799042e-002
      2.92767156e-002 1.74855702e-002 2.33373791e-003 -5.81528945e-003
      5.39699662e-003 1.02883996e-002 1.48310745e-002 2.94529833e-004
      2.75575160e-003 1.71440374e-002 4.20280593e-003 5.56245795e-004
      -2.98563186e-002 -5.83421579e-003 1.07958978e-002 2.24395432e-002
      -5.58110280e-003 -8.41213018e-003 -1.08446376e-002
      -2.49014283e-003 -1.02570225e-002 2.66593900e-002 1.05814859e-002
      1.05829807e-002 2.04968266e-002 7.09905010e-003 -7.05722626e-003
      -9.71717294e-003 -1.54427835e-003 -7.80005660e-003 2.88838670e-002
      1.25775002e-002 -5.58903255e-003 2.71145545e-004 -7.22951349e-003
      -1.27544831e-002 1.56644231e-003 4.02663974e-003 1.59558039e-002
      2.59496849e-002 9.37820598e-003 1.68589801e-002 2.10209209e-002
      1.33890274e-003 7.07239052e-003 1.70188341e-002 1.13881202e-002
      9.72505566e-003 2.28493847e-002 7.12989923e-003 -4.80486732e-003
      -7.17166765e-003 -3.42110894e-003 -1.39387930e-002
      -8.13006517e-003 1.17298402e-003 3.23089911e-003 3.29870209e-002
      1.21194748e-002 -9.90545098e-003 -1.31802326e-002 -2.88879056e-003
      8.03506467e-003 5.18010091e-003 5.62000135e-003 1.86779746e-003
      -1.75279882e-002 -7.16597307e-003 -5.47970273e-003
      -1.29658990e-002 7.41131883e-003 2.32192837e-002 2.40834225e-002
      1.23103308e-002 -3.42686428e-004 3.01454440e-002 1.36570027e-002
      2.98828096e-003 8.13338440e-003 6.44963374e-003 1.98878422e-002
      3.62591259e-002 -2.20480748e-003 -2.42316313e-002 -1.50905270e-002
      -3.56347737e-004 -7.41269789e-004 1.19553711e-002 7.73747405e-003
      9.83551517e-003 4.52700863e-003 3.68010998e-003 -6.34622469e-004
      -1.28273303e-002 -1.06527074e-003 -2.89942627e-003
      -4.13251016e-003 9.52778035e-004 1.28173567e-002 1.27560329e-002
      3.57218320e-003 -3.32632218e-003 -6.87548798e-003 1.13920104e-002
      1.12000899e-003 1.74344014e-002 1.58971082e-002 6.77219452e-003
      2.46082898e-002 -6.04143040e-003 -1.12371044e-002 -6.31545298e-003
      2.72953566e-002 -3.57156328e-004 1.10040018e-002 8.46653990e-003
      -1.30812051e-002 2.27995813e-002 1.51810413e-002 2.17041411e-002
      1.33458506e-002 1.71512570e-002 -2.23796535e-003 1.25007546e-002
      -7.82133266e-003 7.02212332e-003 1.98814948e-003 4.26521711e-003
      -6.15832862e-003 1.54205058e-002 2.57256553e-002 3.90662532e-003
      1.75222568e-002 3.04762628e-002 7.55028846e-003 -9.57577722e-004
      6.78764656e-003 5.35084633e-003 1.43519714e-002 3.09157353e-002
      1.57853812e-002 9.35437903e-003 2.62991544e-002 -2.64295805e-002
      -1.42604234e-002 1.94659866e-002 2.37429477e-002 6.87746052e-003
      2.74472702e-002 -1.04375847e-003 2.75555393e-003 2.95871519e-003
      -2.44562961e-002 -1.80049576e-002 8.65900144e-003 5.37265278e-003
      3.42843099e-003 2.44929902e-002 -9.03441291e-003 -1.79903936e-002
      -2.16695927e-002 1.22237280e-002 -7.64604565e-003 -3.66825075e-003
      1.63302701e-002 6.34521572e-003 9.77662671e-003 3.59325437e-003
      3.97179835e-003 1.21608311e-002 -1.93005577e-002 -2.47798339e-002
      -4.35212720e-003 1.00197764e-002 2.32285261e-003 2.43448541e-002
      1.80501927e-004 -1.28202562e-004 -3.78099666e-003 -4.89238575e-002
      -2.68733297e-002 1.60132477e-004 6.56226650e-003 1.17618199e-002
      1.39090167e-002 -2.41513271e-002 -2.02834737e-002 -2.51967441e-002
      -2.47588586e-002 -1.34838745e-002 2.88214348e-002 3.39752920e-002
      -4.87215846e-004 1.50965787e-002 -2.47570127e-002 -7.76383840e-003
      5.59521560e-003 -2.72324141e-002 -2.39196476e-002 -2.62767659e-003
      1.58949906e-003 9.47755016e-003 2.29253415e-002 2.81575113e-003
      -1.13168289e-003 8.09511356e-003 -1.26423668e-002 -2.12105606e-002
      -7.08148815e-003 4.90184175e-003 1.73010621e-002 -2.46786440e-005
      -1.56926326e-002 -2.32366696e-002 1.56740863e-002 -3.02797854e-002
      -1.24625778e-002 1.68031435e-002 2.53526159e-002 2.41913386e-002
      1.51816085e-002 -2.88217608e-003 6.08469883e-004 6.11623935e-003
      -7.71526946e-003 -2.59297099e-002 -4.67869919e-004 2.16946956e-002
      2.40716171e-002 -9.50965937e-003 -1.79243628e-002 -2.20521912e-002
      -2.70734765e-002 2.97059515e-003 -1.44959847e-002 -8.26839264e-003
      -1.14584844e-004 -5.31528727e-004 -3.18250549e-003
      -1.18172318e-002 -1.89645402e-002 2.52371822e-002 6.30869623e-003
      1.11237150e-002 -9.87046584e-003 -7.21028633e-003 2.44086492e-003
      3.30619561e-003 -6.04870217e-003 -1.92915704e-002 1.51862595e-002
      3.50630358e-002 -2.43916344e-002 -9.70727205e-003 2.30714516e-003
      -1.19979931e-002 -7.45296804e-003 -1.70246717e-002
      -1.33642443e-002 1.02975108e-002 2.26907358e-002 1.91546809e-002
      -2.86982153e-002 -1.68563128e-002 -1.30421738e-003
      -8.38359725e-003 -2.53820475e-002 -3.91127961e-003
      -7.35195214e-003 -1.12963151e-002 2.79384162e-002 -4.76750871e-003
      7.38396356e-003 3.24272513e-002 1.97366308e-002 6.36704778e-003
      -3.11352988e-003 1.20112346e-002 -7.65356654e-003 5.37564605e-002
      3.95530323e-003 2.48752069e-002 2.51860321e-002 1.21964645e-002
      2.23077973e-003 2.46709422e-003 -9.88237653e-003 -2.24629664e-004
      4.65565510e-002 -5.08689182e-003 4.08848748e-003 1.42178107e-002
      8.02113581e-003 -1.20565910e-002 1.95462834e-002 -3.43581997e-002
      -1.60935465e-002 3.35534029e-002 1.79541074e-002 1.47212436e-002
      -2.44220090e-003 -1.24608520e-002 -8.06060527e-003 1.17786415e-002
      -7.03089461e-002 2.74774921e-003 7.08151683e-002 1.76117066e-002
      4.69982438e-002 2.91088112e-002 2.41235476e-002 2.57523498e-004
      1.77753461e-003 -1.56619754e-002 1.83473062e-002 5.97662106e-002
      1.64961610e-002 2.76269838e-002 4.05708142e-003 1.51429530e-002
      2.40681064e-003 -9.85471718e-003 -4.25785929e-002 -1.58892870e-002
      4.57452387e-002 5.84029360e-003 1.99025478e-002 2.40478851e-003
      -1.32265524e-003 7.10760243e-003 1.50432149e-002 -7.51670972e-002
      -2.68820804e-002 4.75314632e-002 1.15692001e-002 4.55910340e-003
      -7.58384075e-003 -1.28428306e-004 5.43977506e-003 1.99285205e-002
      -6.44590557e-002 1.58359041e-003 1.00405188e-002 1.82657197e-004
      -6.34746533e-003 3.18439081e-002 2.79488657e-002 8.93966109e-003
      2.24421397e-002 1.40104135e-002 -3.88563378e-003 2.54468789e-004
      1.51082699e-003 7.88274314e-003 -2.76775885e-004 5.82519360e-003
      9.13436990e-003 2.49375142e-002 2.32442026e-003 -1.43078649e-002
      -1.70144197e-002 -1.32797686e-002 -3.48363295e-002 1.27182379e-002
      1.78322997e-002 -8.85099545e-003 -3.52805248e-004 -7.84425344e-003
      -1.89264324e-002 -1.45923793e-002 -2.34273216e-003
      -9.47410800e-003 4.35660733e-003 2.07857369e-003 -1.33600617e-002
      7.45656947e-003 -4.51076031e-003 8.77676430e-005 2.12975778e-002
      8.36145319e-003 2.04542652e-002 -2.57407073e-002 2.37909127e-002
      4.36446164e-003 2.31560227e-002 -6.32723561e-003 2.39099544e-002
      1.31521299e-002 3.53052141e-003 -3.51297925e-003 -4.13814299e-002
      9.77099687e-003 2.66345427e-003 1.51552772e-002 1.72684193e-002
      -6.12826599e-003 1.86743159e-002 1.19895944e-002 2.21271981e-002
      -4.55100508e-003 3.33694071e-002 4.12709964e-003 3.00380569e-002
      5.72936959e-004 9.41524561e-003 2.67174374e-002 -5.53925382e-003
      -4.08314494e-003 -2.50154305e-002 1.63449645e-002 1.82855856e-002
      2.76394393e-002 7.99767487e-003 1.68935806e-002 6.36332249e-003
      -5.31310169e-003 -1.48921218e-002 -2.95960642e-002
      -3.44133214e-003 1.50614546e-003 1.25105809e-002 2.53124675e-003
      -1.43858243e-003 7.14728329e-003 -6.07633684e-003 2.56829103e-003
      1.99601203e-002 1.27563905e-002 1.03966659e-002 1.67601258e-002
      -8.37156828e-003 1.65435765e-003 4.98508476e-003 -2.49418039e-002
      -1.97991468e-002 -1.68292727e-002 -5.94883133e-003 1.49396462e-002
      2.15508044e-002 -1.30500318e-002 -1.24608446e-002 -9.41129588e-003
      -1.75808724e-002 2.15088483e-003 1.94186307e-002 3.14131528e-002
      1.51994498e-002 1.72626916e-002 -3.86302330e-004 -1.77244190e-002
      -5.60277421e-003 -1.12069156e-002 -9.93050914e-003 1.27443187e-002
      1.52060231e-002 5.07650478e-003 -1.94931077e-003 -1.68346912e-002
      3.55686597e-003 -2.36531370e-003 -3.16170626e-003 3.83339619e-004
      6.20397972e-003 2.25348510e-002 5.14381053e-003 1.83011452e-003
      1.52817406e-002 -2.71836184e-002 -2.35136189e-002 -1.54361473e-002
      -6.98573142e-003 6.15137117e-003 1.12341167e-002 -2.88365013e-003
      7.92052539e-004 -8.16291757e-003 -7.72822695e-003 -4.59611230e-003
      -8.96308944e-003 -1.87648255e-002 -9.63765383e-003 1.19049931e-002
      -8.20209924e-003 5.37529774e-003 -2.54000584e-003 1.11330086e-002
      1.06875887e-002 9.00154095e-003 2.36241193e-003 -7.72178452e-003
      1.15513681e-002 8.05937033e-003 2.30729822e-002 1.22861033e-002
      9.94352251e-003 2.23991200e-002 1.37241762e-002 -8.04724637e-003
      -6.99702837e-003 1.24233253e-002 1.88466571e-002 3.11346762e-002
      1.44509058e-002 1.41976885e-002 1.01427492e-002 1.35196111e-004
      -1.00026121e-002 -1.04337959e-002 -7.51731079e-003
      -1.55449444e-002 1.46592604e-002 7.28883687e-003 3.39264097e-003
      -1.44591480e-002 -1.47462334e-003 -2.19531823e-002
      -1.33328754e-002 -1.20154358e-002 -1.91548970e-002 9.46635660e-003
      6.14229171e-003 1.31969769e-002 1.71072930e-002 1.70373246e-002
      -2.54027010e-003 3.74379638e-003 8.58355407e-003 1.12703610e-002
      5.54466480e-003 -2.23573111e-003 -1.13664065e-002 1.74929015e-002
      1.21170050e-002 5.17023553e-004 -1.46742780e-002 -2.34122912e-004
      1.13832336e-002 4.42092586e-003 -3.27624613e-003 -2.01345142e-002
      -7.20077567e-003 7.60940928e-003 -1.37956124e-002 8.17273464e-003
      3.42665613e-003 3.18059232e-004 -1.47106335e-003 -4.06063208e-003
      -1.20437304e-002 2.39302535e-002 2.04536226e-002 -2.28861570e-002
      -1.84402335e-002 -1.54677697e-003 5.12701878e-003 -1.18082599e-003
      9.66279476e-004 -1.10937031e-002 -8.53071176e-003 1.92266423e-003
      -1.16497569e-003 -4.95171268e-003 2.78946455e-003 4.62673372e-003
      4.14976897e-003 -2.35952064e-003 1.12247393e-002 1.72352663e-003
      1.15994317e-003 1.17313992e-002 1.67243052e-002 -9.48639214e-003
      -1.69390943e-002 -1.34463143e-002 5.12108672e-003 9.51805245e-003
      4.55500931e-003 9.84230917e-003 -2.90246308e-002 -1.33518279e-002
      -9.37918574e-003 -5.11440914e-003 3.27809714e-003 7.53706740e-003
      9.70464258e-004 -9.59002506e-003 -1.38826845e-002 5.33151557e-004
      2.37791855e-002 -9.74692497e-003 -2.45560929e-002 1.31880736e-003
      3.79006043e-002 2.99396086e-003 6.34732144e-003 7.53119122e-003
      1.37277413e-002 4.49969396e-002 1.43404882e-002 4.63587604e-003
      -2.62747356e-003 8.08445970e-004 -1.19770225e-002 -1.31256878e-003
      -1.48594957e-002 -1.85408015e-002 -2.89656082e-003
      -2.57038191e-005 4.99424292e-003 2.76791444e-003 -1.80750564e-002
      -1.08146230e-002 -3.25219668e-002 -2.50886753e-003 2.92541776e-002
      2.57271081e-002 1.84512604e-002 -8.31755903e-003 -1.88387756e-003
      3.66576053e-002 -3.55416886e-003 -2.70292088e-002 -1.78639893e-003
      -6.27429225e-003 -4.59579471e-003 1.67881162e-003 -1.37391295e-002
      7.44487101e-004 4.09564152e-002 -1.80624742e-002 7.69378571e-003
      -1.63885932e-002 -1.45922531e-003 2.09047738e-002 9.68095288e-003
      2.68313824e-003 7.07454234e-003 -1.11943455e-002 7.70865753e-003
      -1.65434442e-002 -8.04955140e-003 2.09674966e-002 2.62720734e-002
      7.55204819e-003 -1.36557305e-002 -4.47555725e-003 9.04516224e-003
      -2.67007435e-003 -1.72822643e-002 -2.26078518e-002
      -1.00155203e-002 -9.20720492e-003 1.89950166e-003 -9.84541047e-003
      1.11691663e-002 2.40318757e-002 -1.71762295e-002 -3.05064209e-002
      -3.41920070e-002 -6.14226935e-003 2.31190007e-002 5.92008606e-003
      -2.87051294e-002 1.34402877e-002 1.95403472e-002 1.84442028e-002
      -3.90386209e-002 9.35630174e-004 1.97706092e-002 3.30620036e-002
      7.94552825e-003 -1.30047994e-002 -7.13358494e-003 3.66118066e-002
      1.07992105e-002 -2.89806593e-002 7.95973279e-003 -1.20674726e-002
      1.24584436e-002 1.65284611e-002 -8.17455351e-003 -2.54781395e-002
      2.19068304e-002 -4.73571606e-002 -3.46332863e-002 5.34850545e-003
      1.92257576e-002 3.13838013e-002 6.79769041e-003 -4.96079475e-002
      1.19904215e-002 4.01837286e-003 -3.65361497e-002 -1.38930138e-002
      4.89793122e-002 6.44733524e-003 4.85762693e-002 1.96056571e-002
      -3.56375910e-002 1.53000437e-004 8.64510331e-003 -2.59006657e-002
      -3.83822247e-002 3.35457386e-003 -4.80532320e-003 1.30835744e-002
      8.02736450e-003 -2.24255435e-002 -3.41585129e-002 7.91127514e-003
      -4.16771472e-002 -6.10819273e-002 1.06956484e-002 1.70919765e-002
      4.31336835e-002 7.52959121e-003 -2.87614185e-002 -1.48436045e-002
      4.08189110e-002 -3.77259888e-002 3.13128112e-003 4.39013056e-002
      5.69552789e-003 2.60933116e-002 1.04930135e-003 -3.13035548e-002
      5.64757502e-004 1.67545546e-002 -4.54382692e-003 -1.46347275e-002
      3.16889286e-002 2.55374983e-003 1.58047434e-002 -1.81600321e-002
      -2.89313849e-002 4.34430912e-002 2.68767700e-002 -1.39662232e-002
      -3.16612907e-002 6.29492477e-003 1.50467549e-002 4.14125659e-002
      -6.70670113e-003 -1.74259190e-002 -6.21572649e-003 2.29136813e-002
      -7.21956277e-003 -1.93465613e-002 -1.09759858e-002 1.49739943e-002
      1.87676325e-002 -2.69975909e-003 -1.97792873e-002 -1.88809261e-002
      -3.38859931e-002 5.00137545e-003 -1.01682469e-002 1.89523515e-003
      -8.25739373e-003 -1.45959323e-002 -4.77616936e-002
      -1.98925100e-002 1.91546027e-002 4.52255830e-003 -1.20324902e-002
      -2.67908853e-002 -3.73590738e-002 -9.02347639e-003
      -2.96627916e-002 -5.46035990e-002 -3.07704322e-002
      -2.02195458e-002 -1.38443485e-002 3.33515294e-002 -6.16293726e-003
      -9.69104562e-003 9.80778504e-003 2.69905105e-002 1.28285782e-002
      -1.41688006e-005 4.58399160e-003 -8.57801735e-003 2.57755313e-002
      -1.03685576e-002 -1.90901533e-002 -1.94150605e-003 1.94984153e-002
      -3.66979721e-003 -4.72810073e-003 2.24852618e-002 -1.59932952e-002
      -1.72191653e-002 -1.45821860e-002 8.32835649e-005 -1.89901926e-004
      -1.30000571e-002 -3.37132737e-002 -1.13196997e-002
      -2.01501441e-003 -5.02566481e-003 -4.45603989e-002
      -3.99844088e-002 -3.97287961e-003 -2.88866134e-003
      -7.67737580e-003 -2.76786648e-002 -3.67169012e-003 2.47079553e-003
      -1.73554588e-002 -1.34263746e-003 -1.84854921e-002
      -1.28851375e-002 2.86622113e-003 2.02202182e-002 -1.00009013e-002
      -1.01706916e-002 1.93692241e-002 -1.26372436e-002 5.23193507e-003
      -1.52153941e-002 6.72845449e-003 7.90201873e-003 2.13713087e-002
      -1.00839799e-002 -7.62579264e-003 5.17493347e-003 -2.27477308e-002
      -6.69538006e-002 -3.34379412e-002 1.09798685e-002 2.28812303e-002
      8.11930653e-003 -7.08668819e-003 1.56202344e-002 2.06276421e-002
      -3.34423818e-002 -3.26585509e-002 2.88222276e-004 3.43698077e-002
      2.75460109e-002 4.82757296e-003 -1.55801093e-002 -8.49640742e-003
      -1.28123965e-002 -4.35477681e-002 -2.55337097e-002
      -8.94054491e-003 -1.79991173e-003 -1.97676840e-004
      -4.93884180e-003 -9.77629889e-003 -4.45089908e-003 5.68404514e-003
      -3.49024907e-002 -1.08234296e-002 -4.03495580e-002
      -8.79276451e-003 -1.00825597e-002 -2.29096524e-002 5.14454255e-003
      1.20704044e-002 2.21758913e-002 -2.64877118e-002 -1.77823305e-002
      2.16300339e-002 4.02965024e-002 2.00515310e-003 -1.33470716e-002
      -1.94831342e-002 -2.05948222e-002 -2.12811828e-002
      -5.03969602e-002 3.22375819e-003 -2.79342216e-002 2.54239910e-003
      5.12854103e-003 -1.54879950e-002 -1.26845166e-002 -1.89824570e-002
      -1.71918571e-002 -1.95733123e-002 1.85282137e-002 1.74144458e-003
      6.09829742e-003 -2.00867895e-002 -1.09886257e-002 2.06524730e-002
      8.07604659e-003 1.77306533e-002 2.62435954e-002 7.50355539e-004
      -7.09125213e-003 3.81553709e-003 -1.93870906e-002 -1.07779643e-002
      1.44751566e-002 6.04610704e-003 2.76338346e-002 2.00571660e-002
      3.80630605e-002 1.56731792e-002 1.50097748e-002 -3.17167677e-002
      -1.78530533e-002 2.01571230e-002 2.36065984e-002 2.83622257e-002
      4.06787544e-002 7.28507293e-003 4.39933315e-003 -5.97790536e-003
      -3.59359160e-002 1.52982853e-003 1.10355783e-002 1.91975515e-002
      3.87010239e-002 2.13518981e-002 1.52743785e-002 1.48637313e-002
      1.25018880e-002 1.32778962e-003 1.72860939e-002 3.59744206e-002
      1.49710644e-002 3.47539559e-002 2.08848361e-002 3.07907462e-002
      2.52529904e-002 -1.31814857e-003 -1.05837248e-002 -1.37726963e-002
      1.47931604e-002 1.98348369e-002 3.33329178e-002 2.05559395e-002
      -1.63459743e-003 9.31778457e-003 1.48064981e-003 -1.85200199e-002
      -1.28861601e-002 2.13768315e-002 2.08163746e-002 2.87847910e-002
      8.00955109e-003 1.69287454e-002 1.46266324e-002 7.61971530e-003
      -4.81619267e-003 -1.49591193e-002 -2.18888232e-003 2.08102982e-003
      1.86992660e-002 -4.54872474e-003 2.03774613e-003 1.76278502e-002
      -1.47265317e-002 6.10698364e-004 -3.60489939e-003 3.27451527e-003
      1.49085252e-002 3.08663957e-002 3.56024224e-003 -2.67564543e-002
      6.82718586e-003 6.19079627e-004 8.42447020e-003 1.46776428e-002
      3.39702405e-002 8.82584322e-003 2.13474855e-002 -1.63858552e-002
      1.41739165e-002 4.00937907e-003 -1.48536265e-002 -5.65176038e-003
      -3.57473764e-004 -1.35043934e-002 -2.35508126e-003 3.01900543e-002
      2.05263644e-002 -1.03398990e-002 3.44125350e-004 -1.62407681e-002
      -1.26792956e-002 -1.09931622e-002 -3.36358510e-003 8.73660203e-003
      3.01391985e-002 1.75855774e-002 1.50207514e-002 2.33266689e-003
      3.76484124e-004 1.44246742e-002 2.85747014e-002 1.94911696e-002
      -1.78912387e-003 1.36719532e-002 2.14361139e-002 1.38952155e-002
      -3.27014066e-002 -1.97948478e-002 -7.55666243e-003
      -8.91249254e-003 -3.42342653e-003 -8.73681623e-003 1.23080146e-002
      3.00414041e-002 -4.39755712e-003 -2.32979227e-002 -1.39185702e-002
      -1.92166977e-002 8.26416258e-003 -6.53275638e-004 1.15801739e-002
      2.18758080e-002 3.16976272e-002 -2.04160437e-002 -9.26873460e-002
      -7.07684159e-002 -3.61788087e-002 -7.68485665e-003
      -1.35694128e-002 8.05648044e-004 1.50954789e-002 5.94408028e-002
      6.20516017e-002 -1.48846926e-002 -6.73130667e-003 7.71296152e-004
      2.00634617e-002 3.09555978e-003 1.55645132e-003 2.93095987e-002
      8.42143372e-002 3.04907877e-002 -2.27432977e-002 1.46626281e-002
      1.02237600e-003 3.54134012e-003 3.60284629e-003 -1.79279421e-003
      2.23350301e-002 8.38799402e-002 -2.06460897e-002 -1.18104823e-001
      -6.10734671e-002 -3.64186428e-002 5.32177463e-003 1.40862521e-002
      1.23900175e-002 3.46789546e-002 5.83117269e-002 -4.84739393e-002
      -8.49304274e-002 -5.47315867e-004 -1.60213038e-002 4.29770583e-003
      2.24395413e-002 2.28963401e-002 3.31202298e-002 3.91987972e-002
      -1.40551971e-002 -7.78554520e-003 2.34077852e-002 1.81448162e-002
      1.96892563e-002 6.95836451e-003 2.47266865e-003 1.55039439e-002
      2.82456074e-002 -9.57027264e-003 -4.48036380e-003 5.64476997e-002
      3.61167081e-002 1.63570829e-002 7.92437792e-003 1.10946279e-002
      2.55941823e-002 1.39954919e-002 -6.08301163e-002 -5.93235046e-002
      -3.47470376e-003 1.68968309e-002 1.34649323e-002 9.50734597e-003
      1.70053449e-002 2.93621998e-002 1.43040782e-002 -2.66002342e-002
      -3.71255577e-002 2.98601147e-002 5.78842461e-002 6.45507574e-002
      8.22708942e-003 3.79284173e-002 7.81277344e-002 5.59762307e-002
      -2.93326341e-002 -2.11187676e-002 3.46133374e-002 3.37142660e-003
      1.45464763e-002 7.99153990e-004 1.25664216e-003 1.43645322e-002
      2.37247557e-003 -3.61220166e-002 -2.07681358e-002 2.63120700e-002
      2.51370873e-002 3.04842070e-002 8.99168663e-003 5.06263925e-003
      4.45819013e-002 4.82080430e-002 -5.93371093e-002 -9.24976617e-002
      9.17579141e-003 3.59357223e-002 4.73789722e-002 1.31310876e-002
      6.45759329e-002 1.00056939e-001 3.09149586e-002 -7.36247823e-002
      -1.08873866e-001 2.26843506e-002 6.37521744e-002 8.42716023e-002
      8.74947831e-002 1.34223491e-001 1.60511255e-001 6.03635199e-002
      -6.03426583e-002 -9.92788672e-002 -4.74710576e-003 2.33649425e-002
      1.77240409e-002 3.55084846e-003 8.73935688e-003 5.31815216e-002
      5.82044795e-002 -6.18879721e-002 -1.19542085e-001 2.73244432e-003
      7.05455616e-003 5.01489826e-003 1.90177914e-002 2.84410566e-002
      4.19190638e-002 6.82308748e-002 -1.24909677e-001 -1.56375974e-001
      1.20588308e-002 8.31240118e-002 9.23707783e-002 1.01446800e-001
      1.19339421e-001 1.49057582e-001 3.19812223e-002 -1.06361426e-001
      -1.37652010e-001 8.63536224e-002 1.09154657e-001 1.20641030e-001
      1.29133835e-001 1.61806419e-001 1.10680550e-001 4.31945510e-002
      -5.00641763e-002 -8.60473886e-002 2.67242867e-004 -4.24800487e-003
      7.54554104e-003 1.61175933e-002 2.66461689e-002 4.86448146e-002
      8.11771378e-002 -5.35456315e-002 -6.84996247e-002 -5.73236821e-003
      -4.23233537e-003 1.72441974e-002 2.27824934e-002 2.86457557e-002
      5.81421480e-002 3.28671224e-002 -1.10173866e-001 -6.22716174e-002
      9.27586779e-002 9.49603766e-002 7.91888013e-002 8.29528123e-002
      1.33021668e-001 7.17396811e-002 3.38656083e-002 -1.20020732e-001
      -4.62407023e-002 4.72776294e-002 3.41337211e-002 3.68685722e-002
      8.49100649e-002 1.10029846e-001 3.65368947e-002 -7.49353180e-003
      -1.91066582e-002 -3.22583392e-002 2.15426665e-002 2.32510008e-002
      1.53662330e-002 1.03483582e-002 -1.68324448e-002 2.24407259e-002
      1.14058480e-002 -4.72508883e-003 8.22541118e-003 6.37022033e-002
      3.71524841e-002 5.33090681e-002 1.77436465e-004 3.11054774e-002
      2.87867971e-002 1.86614841e-002 -4.62556817e-002 -5.97186340e-003
      1.81881599e-002 8.30026809e-004 -1.08326238e-003 2.24372782e-002
      4.96984385e-002 2.18579061e-002 -6.74024737e-003 -6.66132942e-002
      -9.91785713e-003 -8.15055612e-003 -1.64093226e-002 1.62876043e-002
      1.27816536e-002 1.00249097e-001 3.16675715e-002 -4.61917594e-002
      -4.92865928e-002 9.39291157e-003 3.71433608e-002 5.27718011e-003
      1.99688841e-002 6.03819219e-003 4.47302498e-002 5.42525202e-002
      -1.54377194e-002 -3.60105298e-002 -2.72054747e-002 1.66099463e-002
      -6.68555265e-003 -1.14728957e-002 -2.02613790e-002 2.99420003e-002
      3.24550346e-002 1.29848032e-003 -6.18223175e-002 1.28472820e-002
      -1.63144054e-004 -1.54941995e-003 3.82760540e-002 5.07492460e-002
      9.55692828e-002 1.27033126e-002 -8.52086022e-002 -8.43579471e-002
      5.40558016e-003 -1.27000576e-002 -1.90452542e-002 3.12375929e-002
      5.60092814e-002 8.79928321e-002 -4.13733609e-002 -7.48962536e-002
      -4.88268305e-003 -6.50244206e-003 8.99853837e-003 -1.02245016e-002
      -2.28272323e-002 -1.91782471e-002 3.95854115e-002 3.48529443e-002
      1.33887576e-002 7.67573668e-003 -2.47815028e-002 -2.44015884e-002
      -4.14632596e-002 -5.03012873e-002 -4.64733951e-002
      -3.93510284e-003 1.55490991e-002 -3.23792407e-003 -5.73554402e-003
      -2.68194452e-003 -3.01816296e-002 -8.98041483e-003 3.08202542e-002
      6.68482855e-002 6.55867681e-002 -1.19459443e-002 -5.77955768e-002
      7.60185020e-003 -5.55932410e-002 -5.56366183e-002 -4.39969636e-002
      -1.56406555e-002 2.05011461e-002 2.77499054e-002 7.97265209e-004
      3.21263680e-003 1.54851405e-002 7.10978638e-003 -1.53864427e-002
      -4.45692576e-002 -6.56513423e-002 -5.90131134e-002
      -1.87009517e-002 -2.34766025e-003 3.55972983e-002 2.26190384e-003
      -1.32117206e-002 -1.37131633e-002 -2.85243355e-002
      -5.91183901e-002 -5.58017716e-002 2.12444429e-004 1.45489927e-002
      5.52016124e-003 9.40057356e-003 -2.07066592e-002 -3.65403704e-002
      -3.10220830e-002 -2.53875181e-002 -6.80016680e-003 1.63878091e-002
      2.35793162e-002 4.02718894e-002 3.01091429e-002 1.84141137e-002
      -1.37791215e-002 -2.26571765e-002 -4.85422686e-002
      -5.10056922e-003 3.32082435e-002 3.72714140e-002 4.93766479e-002
      1.69437705e-003 -3.03563680e-002 -2.26072147e-002 -2.11663339e-002
      -3.03626433e-002 -4.23718840e-002 6.57409523e-003 1.58495586e-002
      -3.39684933e-002 4.67860401e-002 1.71639435e-002 2.86384509e-003
      -3.13743483e-003 -8.43031239e-003 -1.88710634e-002
      -8.46275967e-003 -2.90500131e-002 -3.77800018e-002 4.72064614e-002
      8.01644940e-003 -1.71223897e-002 -3.75429019e-002 -3.45622860e-002
      -3.81652825e-003 4.81824800e-002 3.75096053e-002 2.07073428e-002
      4.10655886e-002 3.35049331e-002 -3.08234822e-002 -2.08653342e-002
      1.37369921e-002 3.13054286e-002 3.41478437e-002 -1.07562523e-002
      -6.20251196e-003 5.76032065e-002 3.56098190e-002 2.39412347e-003
      -1.65762063e-002 -1.77490935e-002 -3.17952596e-002
      -3.20866555e-002 -4.13369499e-002 -4.34007347e-002 4.69393879e-002
      1.50261344e-002 5.22517785e-003 9.88430460e-004 -1.74136274e-002
      -3.17563675e-002 -3.88919525e-002 -2.97452305e-002
      -3.71868238e-002 5.31847291e-002 1.47364354e-002 -4.65175919e-002
      -3.27605195e-002 7.73886265e-003 -5.77412546e-003 -2.96945013e-002
      -2.52149887e-002 5.31587144e-003 4.29152548e-002 -1.35831553e-002
      -2.66024861e-002 -1.92762427e-002 -2.04333924e-002
      -1.43263983e-002 -2.74920855e-002 -1.55226672e-002
      -1.99542213e-002 4.40603010e-002 1.99259073e-002 2.07978040e-002
      -9.59033892e-003 -1.04176290e-002 1.94350276e-002 2.87148319e-002
      3.44846435e-002 4.64852601e-002 1.36033976e-002 -4.95018612e-004
      4.12703631e-003 -1.53361736e-002 -3.14290723e-004 4.62623592e-003
      2.59956419e-002 3.32079530e-002 3.15512419e-002 -4.32104850e-003
      1.70434937e-002 1.08419266e-002 -5.92800556e-003 3.02732643e-002
      1.81216393e-002 3.51769067e-002 3.01469434e-002 -2.02464368e-002
      -2.44959593e-002 2.86281835e-002 -3.57332290e-003 -1.70614813e-002
      1.41714979e-002 -3.99821671e-003 1.99269392e-002 1.84777956e-002
      -1.67794023e-002 1.19553106e-002 1.22178951e-002 9.65351146e-003
      -4.38649300e-003 1.14960130e-002 2.99836160e-003 2.14922279e-002
