<?xml version="1.0"?>
<opencv_storage>
<my_svm type_id="opencv-ml-svm">
  <svm_type>C_SVC</svm_type>
  <kernel><type>LINEAR</type></kernel>
  <C>5.0000000000000000e-001</C>
  <term_criteria><epsilon>1.1920928955078125e-007</epsilon>
    <iterations>1000</iterations></term_criteria>
  <var_all>3780</var_all>
  <var_count>3780</var_count>
  <class_count>5</class_count>
  <class_labels type_id="opencv-matrix">
    <rows>1</rows>
    <cols>5</cols>
    <dt>i</dt>
    <data>
      0 1 2 3 4</data></class_labels>
  <sv_total>10</sv_total>
  <support_vectors>
    <_>
      -3.81368510e-002 5.87117299e-003 3.00860293e-002 5.39441444e-002
      3.62749100e-002 -4.78821993e-002 -1.64272974e-003 -1.17561454e-002
      -5.81966117e-002 -1.17044188e-002 -1.43976789e-002
      -1.27781155e-002 4.90425229e-002 5.87036833e-002 -1.66169871e-002
      1.39634814e-002 -1.68206766e-002 -7.36108888e-003 -9.81160402e-002
      4.18787040e-002 2.05676965e-002 9.31593627e-002 5.33792097e-003
      6.95427358e-002 -1.00590149e-002 -1.71637554e-002 -1.16747059e-001
      -1.34061752e-002 3.58728431e-002 5.38753998e-003 8.34326223e-002
      3.22377793e-002 -3.68460715e-002 6.69056028e-002 3.16650495e-002
      5.61475288e-003 -1.99791417e-002 -4.65295054e-002 -5.59140146e-002
      1.08712735e-002 3.51764411e-002 -2.51531601e-002 1.23935072e-002
      -1.76817402e-002 4.40497100e-002 5.27774841e-002 4.11361419e-002
      -9.10011772e-003 -2.47110631e-002 -6.75912797e-002
      -8.75406489e-002 -5.88376001e-002 3.98945808e-003 4.11666632e-002
      1.36958039e-003 2.19257195e-002 -5.73227070e-002 5.91872409e-002
      2.73683537e-002 -1.82988625e-002 4.07415442e-002 -4.20020260e-002
      3.74776162e-002 3.20118926e-002 4.42850143e-002 -1.93836875e-002
      -4.14855219e-002 -4.56671454e-002 -2.97955815e-002
      -4.34463918e-002 -5.70425056e-002 4.51383106e-002 5.76632582e-002
      4.05159071e-002 3.29585336e-002 -6.78525940e-002 -7.12202340e-002
      -1.19481176e-001 -3.63840200e-002 -7.72191957e-002 3.87959648e-003
      4.18132171e-002 3.63237225e-002 5.72229363e-002 -3.46314944e-002
      5.98806441e-002 -1.89999323e-002 4.31564748e-002 -3.74389887e-002
      -1.81199666e-002 5.32853138e-003 -4.34162701e-003 2.48060729e-002
      -2.40867902e-002 -3.66126597e-002 -1.19989216e-001
      -2.57740803e-002 -1.25326868e-002 -6.05525672e-002
      -1.41621884e-002 6.33892119e-002 5.09929992e-002 4.94754612e-002
      1.18787149e-002 -3.44088599e-002 4.55895253e-002 5.15286177e-002
      -4.38339747e-002 -2.46449057e-002 -5.00467718e-002
      -3.27487588e-002 4.21448704e-003 8.88125896e-002 9.52899605e-002
      3.00054513e-002 -3.15318629e-002 -3.64687964e-002 -3.80109041e-003
      -1.74158543e-001 -6.93354756e-002 1.98919550e-002 2.77504809e-002
      4.43493389e-003 -2.21772455e-002 -6.64189905e-002 2.09449138e-003
      -9.85007733e-003 6.92007914e-002 -4.13380228e-002 3.30984913e-004
      -2.35728249e-002 -1.95691157e-002 2.64226533e-002 -7.22123077e-003
      -8.24172795e-003 -2.50725355e-002 -5.04737766e-003
      -1.77609436e-002 4.55052033e-003 3.70740108e-002 1.05711271e-003
      -2.21900642e-002 -3.29438187e-002 -2.36817561e-002 8.43408238e-003
      -1.35947645e-001 -1.00607630e-002 3.27157527e-002 2.81751938e-002
      1.08727291e-002 -2.77270824e-002 -2.95331609e-002 2.93596648e-002
      -1.09427515e-003 -1.09950788e-001 -4.28204909e-002
      -1.69695150e-002 -6.01895154e-002 -4.55277786e-002
      -5.72889857e-002 -6.77868444e-003 -4.15774994e-002
      -4.66416124e-003 -3.56979407e-002 5.46879210e-002 1.72764137e-002
      1.24876760e-002 3.54664065e-002 -1.65283643e-002 8.34829360e-003
      1.78967908e-004 7.64954556e-003 6.98166117e-002 3.84618528e-002
      -6.17641537e-003 1.23646297e-002 9.27514222e-004 1.53669780e-002
      5.89202605e-002 -3.84296998e-002 4.07318808e-002 -7.37739801e-002
      -7.23436028e-002 -3.93647142e-002 -1.12345956e-001
      -1.02803521e-002 2.95872018e-002 5.58625869e-002 2.61420999e-002
      7.27050193e-003 -9.37855691e-002 -5.35115525e-002 3.78256924e-002
      -6.58646785e-003 5.23745120e-002 4.58995812e-002 -9.72519629e-003
      -1.63719598e-002 5.35914712e-002 1.22304834e-001 1.89126115e-002
      6.40506297e-003 -5.73177896e-002 3.39356214e-002 5.77131622e-002
      7.94598088e-002 3.20428908e-002 4.78957109e-002 4.94003631e-002
      1.46243265e-002 2.84015853e-002 -9.68011767e-002 4.00825217e-002
      1.00988008e-001 6.89008608e-002 4.33811508e-002 -1.27909873e-002
      -4.62680943e-002 -1.01524387e-002 2.52785869e-002 3.48858386e-002
      -2.87516359e-002 -3.01097315e-002 -5.88541552e-002
      -2.85381898e-002 -5.78200677e-003 -4.86363843e-002
      -4.33654524e-002 2.16748286e-002 3.04867402e-002 -3.67982015e-002
      -1.54889212e-003 -1.11456309e-002 -4.86814305e-002 1.07538998e-001
      4.80966233e-002 5.04598022e-002 2.00633146e-003 -4.05930355e-002
      -7.38672167e-002 6.88038673e-003 6.32028878e-002 9.64445397e-002
      1.29752055e-001 7.12122209e-003 3.68882678e-002 -2.75505222e-002
      4.50437218e-002 -2.20636670e-002 1.05746221e-002 7.99746588e-002
      5.52560985e-002 -4.91631255e-002 -4.77457121e-002 1.72020961e-002
      1.87764615e-002 -2.47337893e-002 -2.67638676e-002 4.44406318e-003
      -4.83626202e-002 -6.16405532e-002 -2.41161883e-002
      -5.03709167e-002 2.25056913e-002 -3.30502987e-002 -3.53501625e-002
      -1.60358474e-002 -3.72017026e-002 -2.94916872e-002
      -7.78533667e-002 1.67472064e-001 -1.30657607e-003 4.19320613e-002
      2.49574464e-002 9.61349979e-002 2.08607558e-002 7.19754621e-002
      9.45530981e-002 7.79789239e-002 6.49097711e-002 -1.66490301e-002
      4.88754436e-002 5.79818375e-002 2.32798941e-002 -3.87569238e-003
      3.68294753e-002 2.71325596e-002 3.19901705e-002 6.17945045e-002
      -2.62852311e-002 -1.06542455e-002 -4.51759361e-002
      -2.89020911e-002 -7.45116621e-002 2.64586037e-004 3.97122744e-003
      1.23059656e-003 1.17634438e-001 5.84240519e-002 4.35657352e-002
      8.67384821e-002 1.81637425e-002 -7.81196132e-002 -1.46138947e-002
      -3.25305499e-002 5.32402471e-002 -3.15472335e-002 -4.61865030e-002
      1.75912622e-002 -3.38348211e-003 -3.25877219e-002 -7.95374364e-002
      3.32909264e-002 8.69561546e-003 -6.00297861e-002 1.13099813e-001
      3.24501544e-002 3.77831347e-002 7.18409717e-002 8.07909071e-002
      2.14829855e-002 8.94843712e-002 7.30900019e-002 3.30688320e-002
      3.82124819e-002 7.74593698e-003 1.16549619e-002 4.48876508e-002
      8.81901302e-004 5.08879647e-002 8.48387182e-003 2.26270221e-002
      4.39682640e-002 -2.06961250e-003 -8.33459869e-002 -3.01034432e-002
      1.66821033e-002 3.93222570e-002 7.64695182e-002 9.57790688e-002
      5.89151159e-002 -6.81870384e-003 -2.90707918e-003 7.95354769e-002
      6.14853166e-002 5.01738153e-002 8.55779089e-003 1.49290532e-001
      5.98684922e-002 8.26542005e-002 -1.40896896e-002 -3.62124778e-002
      7.27534145e-002 5.19682020e-002 2.89175324e-002 8.40442441e-003
      4.68057543e-002 6.76149279e-002 4.78523485e-002 -1.07926298e-002
      -7.37459213e-003 -7.78057501e-002 -1.30173471e-002 2.51740701e-002
      1.87389012e-002 -5.50741069e-002 3.15095522e-002 8.82880855e-003
      -6.04159087e-002 7.28092901e-003 -7.69743472e-002 -1.21322768e-002
      2.18249504e-002 5.09188734e-002 -1.65065750e-002 6.13259850e-003
      -5.07349090e-004 2.58109737e-002 3.31972949e-002 8.98390636e-003
      6.13209903e-002 3.76913138e-002 -3.29319127e-002 -9.18339565e-002
      -3.94574255e-002 -6.17203414e-002 3.97648104e-002 1.20829545e-001
      5.26358746e-002 5.51260710e-002 -1.10567166e-002 2.73122527e-002
      1.54592041e-002 -1.37035679e-002 -5.28695323e-002 1.46832362e-001
      -1.03179365e-002 -1.24538869e-001 1.36373201e-002 2.34817378e-002
      -3.27634811e-002 -3.61396521e-002 -1.03023984e-002 3.91894020e-003
      -1.06626172e-002 5.48674390e-002 -7.14535341e-002 6.25113323e-002
      3.80303264e-002 -5.44692539e-002 -5.61101474e-002 -2.68412698e-002
      -2.11984254e-002 -1.79243833e-002 4.18883450e-002 1.11937756e-002
      5.31156771e-002 -1.40600670e-002 -6.01264797e-002 -1.06930500e-002
      2.61415057e-002 -2.14547701e-002 6.36791289e-002 1.09523267e-001
      -2.61404235e-002 6.82794377e-002 1.39183234e-002 -6.28656745e-002
      -4.78843190e-002 -1.28812054e-002 5.85585320e-003 3.87567244e-002
      1.14029765e-001 -4.51647229e-002 4.52571809e-002 1.35805281e-002
      -1.51129197e-002 3.98535132e-002 5.22202477e-002 -7.35139381e-003
      -1.15201790e-002 1.61087024e-003 -9.42666829e-002 -5.66228330e-002
      2.10010689e-002 -1.67463347e-002 -9.31902975e-003 3.48365419e-002
      -2.13218872e-002 -2.40028817e-002 6.59959316e-002 2.09687892e-002
      3.39001901e-002 -3.19866027e-004 -6.88291267e-002 1.67514030e-002
      1.62920263e-003 2.25608572e-002 6.93984628e-002 -4.01801877e-002
      -5.42219281e-002 2.27751415e-002 4.61735502e-002 1.26115635e-001
      -1.25863086e-002 -3.37063186e-002 6.55278340e-002 2.63771359e-002
      -4.32302244e-002 5.05831186e-003 1.22105572e-004 3.56043242e-002
      4.29047309e-002 -2.86283232e-002 -8.12895317e-003 -4.36282419e-002
      -2.67703533e-002 -1.35742143e-001 -1.94969345e-002
      -7.46859759e-002 1.06395846e-002 4.43807393e-002 -6.54082522e-002
      -7.45608136e-002 -6.65015951e-002 -5.60679771e-002
      -3.19194049e-002 1.42214457e-002 3.67471762e-002 3.64976302e-002
      3.09296306e-002 -9.77617037e-003 -8.54246039e-003 6.73881844e-002
      1.06873289e-002 -5.16444184e-002 -6.08693954e-005 -2.67830631e-003
      -2.86300154e-003 4.45240997e-002 -9.94198769e-002 -3.86810638e-002
      3.15496959e-002 -8.11221227e-002 -8.50097537e-002 -4.69862521e-002
      -7.06374049e-002 5.26373554e-003 4.62135077e-002 6.49035815e-003
      -9.86295566e-002 -3.07967085e-002 -2.57395506e-002 1.86341591e-002
      -4.32579890e-002 2.22464092e-002 5.95972314e-003 2.43637315e-003
      -2.51386838e-004 -8.44710506e-003 -2.31390707e-002 6.24107160e-002
      3.40327364e-003 3.94626800e-003 -4.48877737e-002 -2.40090676e-002
      7.13168830e-002 -4.49569114e-002 -2.59185899e-002 6.88556433e-002
      3.62129696e-003 -1.45105096e-002 4.48416658e-002 4.55622897e-002
      -4.57035787e-002 -1.10531682e-002 -6.93507344e-002
      -7.13801652e-004 9.12527069e-002 3.25622112e-002 -7.36501291e-002
      -3.44246328e-002 8.48124083e-003 4.03557979e-002 -3.76869142e-002
      9.01382267e-002 -2.51890011e-002 -4.25965674e-002 -1.31591871e-001
      2.82416679e-002 -2.87147518e-002 -2.70095635e-002 3.12651135e-002
      -7.97461439e-003 -6.76103681e-002 6.90490147e-003 2.68539228e-002
      5.26239239e-002 3.24814883e-003 -3.40378955e-002 -5.44621143e-003
      2.09431741e-002 4.54681972e-003 3.22943889e-002 -2.36872416e-002
      -3.28064337e-002 -4.10242416e-002 5.27310148e-002 1.06584933e-003
      -2.05340143e-002 -1.44870365e-002 -2.26096902e-002
      -2.23968402e-002 -2.08850708e-002 -3.42729734e-003
      -4.63017542e-003 -3.54720396e-003 -1.01107769e-002
      -3.02577987e-002 3.16108800e-002 1.87790226e-002 -2.08556764e-002
      1.03126103e-002 -3.97878177e-002 -1.18481508e-002 6.63636327e-002
      1.76191218e-002 6.44273707e-004 -3.31318043e-002 -7.76366368e-002
      2.05771551e-002 -1.12437643e-002 -8.24643821e-002 -3.20775881e-002
      2.81755738e-002 -2.90299989e-002 -1.05063403e-002 1.25953145e-002
      2.68290285e-003 1.08639367e-001 4.84656077e-003 -2.77243275e-002
      -7.13809133e-002 -5.40593974e-002 2.25202981e-002 -2.47529093e-002
      9.95787443e-004 -3.71535216e-003 4.85836156e-002 -6.11466635e-003
      -7.40117952e-002 -9.59787369e-002 -1.22108380e-003
      -2.34131683e-002 -3.66441993e-004 4.69383365e-003 -3.12520415e-002
      -3.98374647e-002 1.12514384e-003 -1.56153012e-002 -1.05298534e-001
      -2.72204597e-002 9.07203462e-003 3.94166820e-002 5.03771715e-002
      -1.84950158e-002 -7.65447319e-003 4.52146940e-002 4.28703055e-002
      -6.32849783e-002 2.73412336e-002 3.55177489e-003 -1.23086583e-003
      1.83251742e-002 3.75584373e-003 1.87077727e-002 2.32143831e-002
      -1.14063537e-002 -1.40265916e-002 -4.06250581e-002
      -6.54635578e-002 6.21194355e-002 9.41470847e-004 3.66638340e-002
      1.83980707e-002 8.61589313e-002 5.44364117e-002 3.08881439e-002
      1.34661291e-002 4.24109213e-002 -2.61760261e-002 -1.11284219e-002
      -6.08107895e-002 -7.92981312e-002 3.31546776e-002 2.26576142e-002
      1.50849437e-003 1.12668000e-001 2.18982361e-002 -5.57419918e-002
      -3.29491857e-004 7.28965178e-002 -4.71726395e-002 -4.24849577e-002
      1.71691726e-003 3.94683033e-002 -9.40913986e-003 -4.34320644e-002
      -1.32380044e-002 -1.13400472e-002 -2.14689765e-002
      -5.35175428e-002 1.25101116e-002 4.09716293e-002 2.07560621e-002
      -2.96841767e-002 -1.40280008e-001 -1.23866849e-001 3.29292640e-002
      -1.78191792e-002 -4.30705138e-002 -6.38271868e-002
      -4.91678603e-002 -3.42484936e-002 1.68526083e-001 3.79873812e-002
      -7.98078347e-003 5.43295685e-003 2.34759543e-002 -1.45892734e-002
      -4.26324345e-002 -4.66922857e-003 7.43950978e-002 8.37605000e-002
      8.57318565e-002 5.38273342e-003 -8.56229570e-003 6.66897651e-003
      -4.29183990e-002 -1.95259042e-002 -1.62051450e-002 1.49178132e-002
      4.35011722e-002 -9.80665609e-002 -5.55076078e-002 -4.78487881e-003
      -5.70431352e-003 -3.31291445e-002 -4.74169850e-002
      -3.70622389e-002 6.98501477e-003 -9.12221614e-003 -7.84725696e-002
      -6.92880079e-002 1.42758498e-002 -6.49742708e-002 4.66258824e-002
      -1.94943678e-002 -2.70615537e-002 -6.79370910e-002 6.58416152e-002
      7.05023035e-002 5.67175495e-003 -3.08826566e-002 -1.08215757e-001
      -4.14049849e-002 5.30864857e-002 3.07491235e-002 2.99588628e-002
      5.70301376e-002 2.64695715e-002 -9.48021468e-003 -6.07138835e-002
      -9.30642188e-002 5.00590652e-002 1.33431330e-001 6.19415641e-002
      4.82253209e-002 -3.85597423e-002 -7.00589176e-003 -6.04133569e-002
      -2.33480390e-002 -1.22066230e-001 -7.22019793e-003
      -2.65673758e-003 -3.15413103e-002 -7.98476785e-002 7.02116452e-003
      2.19403245e-002 -3.07283510e-004 -2.98167188e-002 -4.56455722e-002
      1.02181301e-001 4.67630662e-002 -4.11848500e-002 -6.31019995e-002
      7.32998401e-002 -1.23224556e-002 -4.28933091e-002 -5.74949831e-002
      -9.29846689e-002 -6.17711656e-002 4.00880724e-002 1.15381116e-002
      5.37305698e-002 5.15863188e-002 1.47783840e-002 2.82152090e-003
      -9.15182871e-004 -5.94376810e-002 -1.78139023e-002 3.10045644e-003
      4.13341671e-002 -3.36612342e-003 1.69820245e-002 -4.58540432e-002
      -5.50728999e-002 -1.65127777e-002 -2.94499658e-002 7.16220215e-003
      -3.10164876e-002 -4.56875376e-002 -4.20718156e-002 4.65214439e-003
      -1.14554157e-002 -5.38156787e-003 4.92487662e-002 1.30983619e-002
      1.25393281e-002 -5.39999418e-002 1.99049003e-002 -4.49191704e-002
      5.52552305e-002 5.38725853e-002 4.15353626e-002 4.91123013e-002
      2.82015596e-002 2.44652145e-002 2.00492665e-002 3.34201567e-002
      -1.85498074e-002 -4.23506051e-002 1.53982406e-002 3.66663896e-002
      9.82030854e-003 -1.83567908e-002 5.78484451e-003 -2.68589798e-002
      -4.43201698e-002 -1.34853601e-001 -3.59667093e-002
      -4.48318906e-002 2.40290258e-002 4.05238196e-002 5.54306693e-002
      5.33483811e-002 -1.23171657e-002 1.93455704e-002 2.51849066e-003
      -3.05289105e-002 -3.03063411e-002 6.71555474e-002 1.21546732e-002
      4.71545085e-002 2.11496130e-002 -3.02408151e-002 -2.39891224e-002
      1.99398752e-002 -4.68395352e-002 -4.00181338e-002 -1.30484067e-002
      -3.70794646e-002 -5.70170507e-002 -2.21488345e-002
      -5.46822548e-002 -5.96682280e-002 -1.16811052e-001 8.52275789e-002
      -2.60172002e-002 9.50768124e-003 5.17203398e-002 -4.52816598e-002
      1.91683657e-002 4.70179543e-002 4.42144126e-002 7.65145868e-002
      -8.50721672e-002 -7.41967186e-002 2.65316144e-002 -5.60271442e-002
      2.28948202e-002 5.59630571e-003 -5.92105016e-002 -2.35230494e-002
      -6.05583414e-002 3.51369828e-002 7.84855038e-002 1.03746742e-001
      -2.00222209e-002 -1.06673747e-001 -2.45441999e-002
      -1.51200118e-002 -4.44153436e-002 3.16109955e-002 -5.25892852e-003
      -1.93244696e-003 -2.49617011e-003 1.35096787e-002 -1.42277464e-001
      1.17679164e-001 5.43391183e-002 7.22426623e-002 4.07996140e-002
      -3.25017124e-002 2.00950727e-002 1.41775226e-002 5.86027652e-002
      4.13518362e-002 3.26962844e-002 -2.35616160e-003 2.71657500e-002
      -8.35484918e-003 9.54088196e-003 3.04102972e-002 -2.48328447e-002
      -5.36414003e-003 -1.16080627e-001 2.34753173e-002 -3.65278721e-002
      -5.60548082e-002 -3.17310132e-002 -1.00123668e-002 1.04128718e-002
      -1.29709588e-002 5.63806221e-002 9.85861942e-002 4.25802357e-002
      -4.36247624e-002 -3.72880697e-002 -9.74834636e-002
      -9.67083275e-002 9.88856517e-003 -8.15456733e-003 3.22313607e-003
      -6.09049089e-002 -9.38647166e-002 -7.77678490e-002
      -4.91412953e-002 -5.19924387e-002 -1.12770677e-001 4.76144589e-002
      1.73570495e-002 -4.45552543e-002 5.30396737e-002 1.57906655e-002
      -2.41538640e-002 -1.28847044e-002 -7.67946839e-002
      -7.04206303e-002 1.78723000e-002 -3.91535554e-003 -1.83885694e-002
      -5.14810532e-002 -4.79462929e-002 -4.05840427e-002
      -1.19626475e-002 -1.06188014e-001 -6.65357290e-003 9.81049687e-002
      2.41762474e-002 -2.48411950e-002 5.51194176e-002 -1.71839390e-002
      7.08737746e-002 5.97897060e-002 -2.55615283e-002 -6.48065433e-002
      5.55948168e-002 3.47150527e-002 -2.66396068e-002 3.63540575e-002
      1.59422699e-002 1.35634476e-002 -3.67364734e-002 -1.18787043e-001
      3.94130871e-002 1.91947594e-002 2.49924790e-002 -3.58664505e-002
      -9.48883593e-002 -5.20903878e-002 2.30576657e-003 -4.93839383e-002
      -3.57303419e-003 2.69745812e-002 3.81342620e-002 -1.13604618e-002
      4.54597995e-002 6.59073284e-003 2.97060683e-002 3.65367346e-002
      2.48540826e-002 -6.02664761e-002 3.62660177e-002 -4.29333150e-002
      -1.23855144e-001 1.17603224e-002 -8.95777121e-002 -4.19464260e-002
      -7.76228122e-003 -4.41363119e-002 1.73283350e-002 5.13433181e-002
      3.85278016e-002 5.16796447e-002 1.35181500e-002 -1.10898398e-001
      -9.98013094e-003 -1.05115278e-002 2.87630036e-002 9.29843113e-002
      -4.46336567e-002 -3.20645534e-002 3.80248204e-002 3.01540010e-002
      4.20500077e-002 -1.63016319e-002 -4.25080247e-002 4.99665514e-002
      -2.49614641e-002 -7.97656272e-003 1.40454667e-003 4.00963314e-002
      5.16586751e-002 -3.71436626e-002 -1.71084162e-002 1.47355422e-002
      1.94611065e-002 2.06865035e-002 -6.02249801e-002 2.98678055e-002
      9.44528505e-002 2.96232719e-002 3.11153121e-002 2.14474835e-002
      -2.13238411e-002 -3.19233537e-002 -1.11335311e-002
      -1.87732577e-002 -5.33684641e-002 9.78218857e-003 5.71252266e-003
      4.21404419e-003 2.12114528e-002 -2.11815326e-003 4.56256717e-002
      -2.65502203e-002 2.04742812e-002 -4.96015847e-002 3.96083546e-004
      -1.12706488e-002 4.22656573e-002 -5.70379244e-003 -1.79706477e-002
      -5.46296779e-003 -3.14897262e-002 -9.20989290e-002
      -8.68400112e-002 4.97759581e-002 5.99413738e-002 4.02075611e-002
      4.74533401e-002 7.00867549e-003 -3.49671952e-002 1.78565290e-002
      -3.01318504e-002 -6.57257363e-002 3.81842218e-002 4.44975831e-002
      4.09168303e-002 -5.06163482e-003 4.63915206e-002 -4.45922650e-002
      -6.07492886e-002 -2.08741035e-002 -6.14810660e-002
      -1.95973217e-002 -4.81858328e-002 7.57997036e-002 4.47813682e-002
      -1.79527476e-002 4.22155410e-002 1.79292485e-002 -2.94340663e-002
      -3.24278437e-002 4.64178808e-002 -4.69454639e-002 -6.51778281e-002
      1.88469212e-003 -2.98084579e-002 5.60473986e-002 -3.97657268e-002
      1.73737574e-002 1.15742926e-002 6.40145093e-002 -9.58174746e-003
      8.40143189e-002 1.75194312e-002 -9.33330879e-003 -7.60490149e-002
      -2.12412328e-002 6.38156757e-002 4.86307777e-002 1.59352142e-002
      -2.45352425e-002 -6.11092150e-002 -6.06274838e-003 5.02187619e-003
      -8.38226732e-003 3.84298675e-002 1.68791395e-002 1.09172557e-002
      4.30055615e-003 -3.42091359e-002 1.33723477e-002 -4.53873016e-002
      2.34298594e-002 2.10095532e-002 9.75366496e-003 5.79188019e-002
      3.43265869e-002 1.29943388e-002 -6.25907257e-002 -6.28066361e-002
      -6.87409705e-003 6.09754324e-002 3.92118543e-002 2.70021521e-002
      -5.31976968e-002 1.86015163e-002 -2.72173006e-002 -2.15109531e-002
      4.78236526e-002 3.81437764e-002 3.24902348e-002 3.90399732e-002
      -5.95056228e-002 5.85260503e-002 2.35655811e-002 -1.59354240e-003
      -5.94268888e-002 -2.50246413e-002 5.30301221e-002 8.31392035e-002
      8.49688351e-002 6.73829094e-002 2.27487665e-002 8.48420244e-003
      4.05600108e-003 -1.16929784e-002 9.18922201e-003 8.25804770e-002
      4.42615114e-002 -6.17186073e-003 -2.98325066e-002 5.78051200e-003
      2.56222561e-002 -5.04343212e-002 -2.96001583e-002 7.83097371e-002
      5.25613762e-002 1.41364876e-002 -3.99250165e-002 -9.31703821e-002
      1.66778341e-002 7.37464055e-002 2.94438470e-002 -1.44168932e-003
      3.85105275e-002 1.57346986e-002 7.09896833e-002 9.00151953e-002
      2.72494070e-002 -1.29317185e-002 4.69512530e-002 -7.90014043e-002
      -4.58551338e-003 7.71351010e-002 -4.12792936e-002 2.53921058e-002
      5.82196712e-002 -1.79544110e-002 1.54777430e-002 8.53344891e-003
      -2.05045473e-002 -3.00614233e-003 6.66866153e-002 4.81896475e-002
      2.64920723e-002 4.38197590e-002 -1.62835512e-002 -4.71320413e-002
      -6.30172640e-002 1.96460970e-002 8.93609598e-003 6.01423979e-002
      -2.65666135e-002 7.43894652e-002 4.36187685e-002 1.33939199e-002
      1.51937092e-002 8.20108969e-003 -5.25808670e-002 7.68406782e-003
      3.62341218e-002 -3.24075855e-002 2.44879238e-002 1.01196803e-001
      -4.34154160e-002 -6.04821071e-002 -2.56485380e-002
      -3.35561559e-002 -4.66022715e-002 2.53736395e-002 -4.33345661e-002
      5.92364222e-002 -1.16960704e-002 -7.31574297e-002 1.23637365e-002
      -3.46281491e-002 -7.61129567e-003 1.67603120e-002 5.72444685e-002
      -1.27206668e-002 4.01857458e-002 1.43430876e-002 4.35967036e-002
      6.93361647e-003 -1.15247712e-001 -8.22741091e-002 3.34980823e-002
      3.73900519e-004 -6.30020052e-002 1.09509276e-002 2.05207290e-003
      3.66339348e-002 -3.75623330e-002 -5.58662601e-002 -4.90504466e-002
      -2.67038979e-002 4.58591916e-002 -3.11637949e-002 1.04819261e-001
      -1.56240780e-002 2.41824891e-003 -2.50429828e-002 -1.74865976e-001
      -1.40842944e-001 -1.03277065e-001 -1.32854119e-001
      -2.58678962e-002 3.18661369e-002 1.49174109e-002 1.00007392e-001
      5.84357977e-002 -8.09523910e-002 -3.57310399e-002 9.73828882e-003
      3.91425528e-002 -2.19056457e-002 1.59207899e-002 4.24016528e-002
      8.85444582e-002 -1.61254760e-002 -1.42660569e-002 2.17928439e-002
      4.65873815e-002 -3.33899744e-002 5.64249083e-002 5.65484613e-002
      4.67306525e-002 -1.04630748e-002 -4.55264412e-002 -1.39634803e-001
      -5.78987487e-002 -7.39464536e-002 -9.33357626e-002
      -2.58872565e-002 -7.22714840e-003 3.19432281e-002 5.51717244e-002
      -3.55421640e-002 -1.15349807e-001 4.13518213e-002 3.79060768e-003
      -3.80924605e-002 8.22933950e-003 8.22367445e-002 6.64552823e-002
      -2.03226153e-002 -9.51316953e-002 -2.11425815e-002
      -1.42247370e-002 -2.83898017e-003 -1.18744388e-001
      -6.95673237e-003 -1.57350805e-002 1.64629862e-004 -4.13809977e-002
      1.43520767e-002 3.50425206e-002 6.70348182e-002 2.01047231e-002
      5.27493916e-002 2.94273645e-002 -1.04376655e-002 -1.71411876e-002
      4.06425595e-002 -1.48712173e-001 -1.55964196e-001 1.34980967e-002
      2.46070661e-002 -7.02475850e-003 2.83855740e-002 5.63782528e-002
      1.29458131e-002 -1.09737486e-001 7.41682481e-003 4.23500612e-002
      1.92343071e-001 2.19486073e-001 1.79017276e-001 9.25447941e-002
      1.13196045e-001 -6.12869188e-002 -1.91738959e-002 -6.94316030e-002
      4.28102724e-003 8.06825142e-003 -1.05257751e-002 1.19938673e-002
      -1.59004470e-003 -1.62199084e-002 -6.08826540e-002
      -6.06076047e-002 -5.79305738e-002 -2.84997821e-002 4.64754878e-003
      -3.94577757e-002 -7.43532255e-002 -3.20301950e-002
      -9.61982086e-003 -4.81030578e-003 -3.19053456e-002
      -8.10856074e-002 7.02538947e-003 1.65730864e-001 1.28862366e-001
      1.08759226e-002 1.48436856e-002 1.04040846e-001 -6.49773702e-002
      -5.56971915e-002 2.55686417e-002 7.22076884e-003 1.60748631e-001
      1.13991834e-001 1.36239737e-001 5.12906872e-002 1.45737454e-001
      1.00538522e-001 7.31362104e-002 -1.73241735e-001 -2.14035258e-001
      -4.15225215e-002 -7.77399093e-002 -5.70446998e-002
      -5.67889139e-002 3.60903284e-003 4.54257615e-002 -5.22831082e-002
      -1.05077527e-001 -2.23638982e-001 1.56178977e-002 -3.67250741e-002
      -2.48589031e-002 1.41502898e-002 2.39531230e-002 9.46454238e-003
      6.69779768e-003 -1.05451316e-001 -1.30713120e-001 2.93804333e-002
      5.18935248e-002 3.18266489e-002 4.09996882e-002 9.28807259e-002
      1.15462944e-001 -7.98144098e-003 -3.72639447e-002 -5.22970259e-002
      7.90075660e-002 1.03721179e-001 1.16576580e-002 1.75210059e-001
      1.54323488e-001 1.74198985e-001 9.90771353e-002 -1.19838014e-001
      -1.51927903e-001 2.82329228e-002 -1.92165468e-002 -1.77477002e-002
      2.74539180e-002 -1.43591538e-002 -1.11504756e-002 -8.11028332e-002
      -3.58383469e-002 2.76022106e-002 1.13876678e-001 -2.52612233e-002
      -1.71269670e-001 -1.01365922e-002 1.12643903e-002 -1.08742133e-001
      -1.12838224e-002 -6.69241846e-002 -2.18365006e-002 1.20239228e-001
      3.59323546e-002 -7.19017237e-002 8.92004147e-002 1.11950375e-001
      1.17192864e-001 3.11241094e-002 -2.65314411e-002 7.17246160e-002
      2.28312016e-001 1.20884836e-001 -1.99562479e-002 4.99718823e-002
      1.24812186e-001 -1.97205935e-002 1.14574507e-002 -4.27504107e-002
      1.70716960e-002 5.66271171e-002 -1.11352401e-002 -8.87578651e-002
      2.34230347e-002 -4.27292194e-003 -6.39198348e-002 -2.22113896e-002
      -2.22380348e-002 -4.03553955e-002 -3.52839269e-002
      -1.02245575e-002 2.27922469e-001 7.77805150e-002 2.91726310e-002
      -4.69969176e-002 -9.68651846e-002 5.06975204e-002 5.74760288e-002
      1.74313053e-001 7.84438476e-002 -1.37421573e-002 6.24152534e-002
      7.21340179e-002 -2.65653562e-002 3.57751995e-002 -3.25585790e-002
      8.79648998e-002 9.66990218e-002 -3.17731202e-002 1.05881006e-001
      1.21086329e-001 3.92878354e-002 -3.82235385e-002 -1.95821926e-001
      -5.13239838e-002 -1.01560475e-002 -4.61997613e-002
      -2.16412321e-002 -1.25995744e-002 3.24709937e-002 3.17786299e-002
      -3.80954891e-002 -1.15671240e-001 -1.35087017e-002
      -2.17680521e-002 1.09498845e-002 4.01436649e-002 1.23879567e-001
      1.03532849e-002 5.79981543e-002 4.99766684e-005 -7.57588521e-002
      1.08422704e-001 3.97716947e-002 -3.47779039e-003 -1.02344051e-001
      -3.51349637e-002 3.81178074e-002 6.18194602e-002 -7.85518736e-002
      -5.68301715e-002 -2.60263346e-002 -1.82588992e-004
      -1.04915425e-002 6.10431619e-002 9.76092815e-002 1.95460171e-002
      3.01718377e-002 -1.14354797e-001 -5.78438826e-002 2.61896942e-002
      1.73595792e-003 3.39468978e-002 5.74988723e-002 4.14674059e-002
      -3.74719501e-002 1.92262158e-002 5.11037596e-002 -2.24134643e-002
      8.51197243e-002 -3.77158634e-002 -1.41905639e-002 -4.82823467e-003
      -2.68553626e-002 -1.21155903e-001 -7.78040662e-002
      -8.92093219e-003 3.46871838e-002 -9.62725356e-002 4.55346517e-002
      8.86436626e-002 1.25050798e-001 5.22325858e-002 7.42265210e-002
      3.94315869e-002 2.77163573e-002 -5.11728972e-002 -4.13774662e-002
      -4.80969027e-002 7.38938600e-002 -2.68266015e-002 -6.56367792e-003
      -3.68950740e-002 -5.18418998e-002 1.17720654e-002 3.59322168e-002
      7.57355765e-002 -8.36054236e-003 1.54002402e-002 3.27693447e-002
      -6.75215647e-002 -5.59136420e-002 -1.77209843e-002 1.73674356e-002
      8.47160295e-002 6.22659549e-002 2.31864788e-002 7.20938593e-002
      3.42900530e-002 -2.92657316e-002 -3.79531272e-002 3.43961897e-003
      -1.45506822e-002 6.43231645e-002 4.48227637e-002 -5.31576388e-003
      5.12597784e-002 -4.59721759e-002 -1.20038494e-001 -4.72691059e-002
      -2.48206016e-002 -1.35427695e-002 7.09984973e-002 3.37657034e-002
      2.30178963e-002 5.09591997e-002 -3.41753475e-002 -7.97961950e-002
      -5.47274686e-002 1.82434004e-002 1.41029508e-004 2.51736455e-002
      -2.25444860e-003 -6.02681786e-002 2.37072986e-002 3.45953628e-002
      5.76801933e-002 1.02325752e-002 1.10975215e-002 -2.84463111e-002
      1.99175929e-003 -6.84263632e-002 -3.77304517e-002 9.59229283e-003
      9.36885644e-003 3.56160179e-002 -3.18116829e-004 1.90358199e-002
      -4.10974436e-002 -1.14338502e-001 1.47262840e-002 -1.41087715e-002
      3.28489542e-002 -3.58900502e-002 -3.85055467e-002 -4.61554900e-002
      1.45567544e-002 5.52123263e-002 5.93002476e-002 -2.39703897e-003
      -4.43907604e-002 -1.69980749e-002 -1.10237319e-002 8.45723879e-003
      -1.77499224e-002 -4.44559194e-002 9.24213827e-002 2.41672937e-002
      -6.74677044e-002 6.01810589e-002 5.05215712e-002 -1.76780038e-002
      1.92934088e-002 -1.31164994e-002 1.13797821e-002 -4.86583300e-002
      -9.61462930e-002 4.94357124e-002 6.97259754e-002 6.17530942e-002
      8.74733645e-003 2.41737124e-002 -2.69378684e-002 2.74463352e-002
      -5.73876826e-003 -1.80674065e-002 2.79498212e-002 -1.50276031e-002
      -5.97678013e-002 -6.18837262e-003 -8.12691450e-003
      -3.26352231e-002 -4.38580029e-002 1.28964158e-002 1.95262730e-002
      8.69718380e-003 -5.93800992e-002 -7.17890561e-002 -6.22828156e-002
      -1.08399587e-002 -1.53660346e-002 -1.04038324e-002 4.43721786e-002
      6.78392872e-002 -6.75803125e-002 9.45134088e-003 -1.30016990e-002
      1.02742752e-002 -1.59675702e-002 7.40694404e-002 2.89575420e-002
      -5.67715056e-003 -8.01765248e-002 8.86128172e-002 2.98331808e-002
      -6.48774300e-003 -1.52569758e-002 7.56934099e-003 5.33909015e-002
      1.19128032e-002 1.40689025e-002 1.25336155e-001 4.18939209e-003
      1.76268304e-003 4.32180986e-002 7.37420693e-002 -8.30406025e-002
      2.13472918e-002 2.44640764e-002 -1.57690345e-004 4.46272828e-003
      6.41043559e-002 6.34737313e-002 4.14867550e-002 1.07926242e-002
      -7.64140114e-003 7.84768164e-002 -1.96169429e-002 -2.55380832e-002
      5.59963398e-002 2.85877753e-002 3.66082713e-002 1.56030031e-002
      5.69137698e-003 -2.59623621e-002 1.92503221e-002 8.00581090e-003
      4.53769714e-002 6.12243079e-002 -8.14018548e-002 -3.85414176e-002
      -1.12338595e-001 -4.18928359e-003 8.56033936e-002 1.73661169e-002
      -4.21204697e-003 8.46339157e-004 -1.29715782e-002 2.27900967e-002
      1.69995818e-002 4.34308313e-003 -5.41940108e-002 -5.22160754e-002
      9.04302821e-002 -5.75456023e-003 -2.85537802e-002 -1.06954379e-002
      5.47514297e-002 -9.24898684e-002 -7.24997371e-002 1.27934478e-002
      1.24594746e-002 9.67462808e-002 -7.37745455e-003 -5.43081202e-002
      4.90196384e-002 2.46106442e-002 -1.54682286e-002 -6.17278479e-002
      4.52095235e-004 6.47093132e-002 1.39919976e-002 4.90819977e-004
      4.42501418e-002 3.86840105e-002 -3.30033600e-002 -9.88472905e-003
      -2.17606816e-002 -3.61542255e-002 -7.16432482e-002 7.61190243e-003
      3.75466770e-003 -3.34814079e-002 4.40505855e-002 7.69752786e-002
      -5.65600917e-002 -2.02605370e-002 -5.08992150e-002 8.90952162e-003
      8.22978914e-002 -1.45940436e-002 4.35233116e-002 1.34395048e-001
      9.67249554e-003 -3.42560820e-002 -4.76458576e-003 -5.82349300e-002
      -1.05035566e-001 4.72098477e-002 -9.22371000e-002 -4.69992645e-002
      7.01771379e-002 -1.45069845e-002 -2.73153391e-002 -1.74354948e-002
      2.16983240e-002 4.83280309e-002 1.61163546e-002 3.71557139e-002
      -6.16195574e-002 8.16381723e-002 -3.46542038e-002 -9.88358781e-002
      -1.08578708e-002 1.06756026e-002 -1.32740075e-002 -1.24733495e-002
      -1.41303362e-002 -1.04105264e-001 8.02707374e-002 6.31780422e-004
      -7.09171817e-002 -1.32348286e-002 7.68519342e-002 8.98327976e-002
      -4.29410674e-002 -7.59584382e-002 -1.13297462e-001 8.23152438e-002
      -6.70577437e-002 -1.57280773e-001 -9.36737210e-002 7.20213577e-002
      1.01459017e-002 -5.28851375e-002 -7.48056099e-002 -1.58131346e-001
      -7.93770850e-002 -7.28479847e-002 -9.74161699e-002 6.12867018e-003
      7.23841647e-003 -2.83743404e-002 -3.89518999e-002 -1.68200750e-002
      -8.58517140e-002 -1.42000173e-003 -9.18741226e-002
      -7.84014463e-002 6.62575662e-002 6.57697320e-002 8.40522274e-002
      4.25244495e-002 7.14332163e-002 -3.15912478e-002 -6.85285628e-002
      -4.46001031e-002 -1.20227918e-001 2.11833250e-002 1.48208290e-001
      1.79193512e-001 1.17166666e-002 3.05223484e-002 -1.47632897e-001
      -3.27899344e-002 -1.08670227e-001 -5.29399291e-002 9.73705426e-002
      1.69104695e-001 2.23923847e-001 1.49436116e-001 1.33006334e-001
      -1.43565655e-001 -9.14411172e-002 -1.45404860e-001
      -5.55641316e-002 9.19630751e-002 7.07747489e-002 4.19341326e-002
      4.70979512e-002 9.59462598e-002 -1.42131522e-002 -9.46289599e-002
      3.25986510e-003 5.19316569e-002 1.83687225e-001 1.89795703e-001
      1.75940856e-001 9.95461792e-002 1.32951722e-001 -3.57647352e-002
      6.57996908e-003 -1.96375325e-001 -4.13501598e-002 2.44142190e-002
      3.23617049e-002 1.11978516e-001 5.21708541e-002 1.06764972e-001
      -9.21915025e-002 -1.28896877e-001 -1.13736503e-001 7.19510019e-003
      9.49157402e-002 6.66161850e-002 1.56463712e-001 4.03596051e-002
      1.81871220e-001 -4.06496897e-002 -6.60381392e-002 -1.33690178e-001
      -8.67853016e-002 1.02228448e-001 6.09336682e-002 -3.94106843e-002
      8.97632726e-003 9.24212486e-002 -4.35894430e-002 -1.09334774e-001
      -4.45983224e-002 5.91703169e-002 1.90235898e-001 5.43101542e-002
      1.41924858e-001 7.27716312e-002 1.38630256e-001 8.67441520e-002
      5.71594387e-002 -1.95330754e-001 -1.08072631e-001 4.92876731e-002
      -1.16481893e-002 -9.99329537e-002 -4.38883267e-002 8.38736221e-002
      -9.54449922e-002 -1.90869123e-001 -7.41219148e-002 8.96736106e-004
      8.50874037e-002 1.57174822e-002 -2.44688615e-002 -2.13628989e-002
      1.71796322e-001 4.23296876e-002 -2.57390067e-002 -1.36474937e-001
      3.67051102e-002 1.33880660e-001 1.18337825e-001 2.04166144e-001
      7.59729296e-002 1.05249420e-001 6.51241243e-002 -1.40317027e-002
      -1.43903837e-001 8.38930085e-002 1.58799917e-001 1.37730986e-001
      4.96780612e-002 1.14506342e-001 1.31926313e-001 6.79604113e-002
      -1.01992540e-001 -1.52627870e-001 -8.55515301e-002 2.47719791e-002
      1.19591393e-002 -6.53461143e-002 -2.44289879e-002 8.85389149e-002
      -6.22298568e-002 -1.12019897e-001 -2.47473940e-001
      -1.42987221e-001 9.24183521e-003 -5.83835728e-002 -7.82273784e-002
      8.68979469e-003 8.75198469e-003 -6.32959008e-002 -2.21366599e-001
      -2.14840367e-001 1.11523449e-001 1.90506414e-001 7.79524073e-002
      -1.79588683e-002 1.33855879e-001 1.38274729e-001 5.42565286e-002
      -7.94207901e-002 -1.53613344e-001 1.43736020e-001 2.39711836e-001
      9.03869644e-002 -6.60655275e-003 7.93234408e-002 6.44230843e-002
      2.72650197e-002 -1.54980451e-001 -2.77021080e-001 -4.35694158e-002
      1.42215779e-002 -1.15867564e-002 -4.53631505e-002 6.31633624e-002
      -5.06422296e-002 -7.39358515e-002 -2.25390673e-001
      -1.10386536e-001 1.11979298e-001 1.17179424e-001 3.18389237e-002
      -3.30101103e-002 9.19657573e-003 -9.29782838e-002 -8.41510370e-002
      -1.88805982e-001 5.76962577e-003 8.32338333e-002 2.18460515e-001
      8.90875161e-002 -5.03003038e-002 3.95250507e-002 2.64996886e-002
      3.23522836e-002 -1.00287274e-001 5.93984798e-002 -4.15871963e-002
      -1.73360575e-002 -3.34181562e-002 -1.08095473e-002 1.75506733e-002
      -3.07417251e-002 -1.03084370e-003 -8.43989402e-002
      -3.49649019e-003 1.05924927e-001 9.75649208e-002 6.36200979e-002
      -1.65899117e-002 1.94899924e-002 -5.49174882e-002 5.22182323e-002
      -5.91180027e-002 -8.44915509e-002 7.03774616e-002 -8.99804160e-002
      -1.30697154e-002 -8.78173951e-003 -6.50775582e-002
      -1.29924998e-001 5.07671274e-002 -1.86196975e-002 4.59990352e-002
      -2.41905898e-002 -7.74383023e-002 -4.48033214e-002
      -2.06706431e-002 5.23479506e-002 5.20627014e-003 -4.91615199e-002
      -2.48699412e-002 -3.22299525e-002 -2.07937025e-002
      -1.39503125e-002 5.22714965e-002 7.53750205e-002 6.94512278e-002
      1.94563586e-002 -1.03943460e-001 -9.28976685e-002 -9.51185971e-002
      -1.10443361e-001 -6.60436675e-002 1.28502641e-002 2.54648086e-002
      -5.11556230e-002 -5.75568080e-002 -2.12022569e-002 1.96662880e-002
      -7.11848512e-002 4.50165831e-002 -1.27819777e-002 4.92823981e-002
      5.80105670e-002 2.55181529e-002 -3.34918220e-003 -1.54571906e-002
      4.76309769e-002 -1.34380311e-001 1.54275894e-001 1.17776617e-001
      9.55343544e-002 1.17494784e-001 8.63256902e-002 5.12742922e-002
      -8.48045014e-003 -1.43726036e-001 -1.36718124e-001 4.00639925e-004
      4.80492823e-002 4.17871885e-002 8.96436069e-003 3.31141204e-002
      -7.45603465e-004 5.04942797e-002 -9.17007998e-002 -3.96515504e-002
      3.70422541e-003 2.65836734e-002 8.07173550e-002 1.08667627e-001
      6.72181100e-002 4.65690903e-002 2.29380205e-002 -1.98582895e-002
      -4.81221266e-002 -4.93860468e-002 -4.76024374e-002 8.83996189e-002
      1.50009185e-001 8.60099122e-002 2.90712751e-002 1.95023243e-003
      -2.05292348e-002 -2.24682763e-002 4.11700718e-002 5.22995852e-002
      9.33567714e-003 -6.80539086e-002 5.11585772e-002 3.88249978e-002
      1.01572890e-002 -9.35548544e-002 -2.75703222e-002 6.13414831e-002
      2.10308377e-002 -3.28278914e-002 -5.58271334e-002 3.55273485e-002
      7.07413405e-002 3.92814800e-002 -8.07700008e-002 4.50726822e-002
      5.47960475e-002 4.40652296e-003 3.12890410e-002 4.50213328e-002
      9.22321677e-002 6.09407499e-002 1.29891851e-003 -1.30705526e-002
      7.17855692e-002 6.13219254e-002 -3.64155057e-005 -2.86956020e-002
      -2.27732062e-002 3.42449583e-002 7.44294077e-002 8.23683292e-002
      -2.55824160e-002 -8.48536044e-002 -1.51421130e-002 4.59103100e-002
      2.66546085e-002 -1.69098887e-004 2.40059998e-002 5.44223748e-002
      1.24998465e-001 -6.12458363e-002 -8.92752260e-002 5.32268826e-003
      1.16906678e-002 -6.84780022e-003 1.70740997e-003 -3.28621245e-003
      -2.46002302e-002 1.46787554e-001 1.75329931e-002 -2.58332435e-002
      5.86026162e-003 -1.24435332e-002 3.97893041e-002 1.99025078e-003
      1.84717942e-002 3.83871272e-002 1.20441392e-001 -5.98315820e-002
      -2.13134754e-002 7.33190998e-002 6.88194558e-002 4.47484851e-002
      1.70007907e-002 3.60570243e-003 2.12814286e-003 -1.31032355e-002
      -5.64297400e-002 3.88480094e-003 8.01687036e-003 -5.55623434e-002
      -1.62113942e-002 4.49969210e-002 6.44798344e-003 -1.47281811e-002
      2.60327458e-002 3.74514097e-003 5.07853888e-002 1.16529102e-002
      -1.67891905e-002 4.10532812e-003 8.79559815e-002 3.82163040e-002
      -2.01841984e-002 5.97108305e-002 2.63462886e-002 -1.30349221e-002
      7.15904385e-002 4.67909798e-002 1.65223423e-002 2.46794801e-002
      2.31603254e-002 -2.30595749e-002 -6.68863431e-002 -6.24578670e-002
      -4.56236332e-004 1.25661576e-002 8.62919614e-002 4.43977490e-002
      5.38401641e-002 5.84952720e-002 -3.43856812e-002 1.25662256e-002
      -4.75467481e-002 -2.50342004e-002 -9.25110246e-004 5.57820499e-002
      6.95125982e-002 -3.75309885e-002 1.55106653e-002 1.49276685e-002
      -4.94263805e-002 -7.52974972e-002 6.14167564e-002 3.43631990e-002
      4.30539027e-002 2.93174013e-002 -6.68252644e-004 5.29145338e-002
      2.16947049e-002 -3.68966646e-002 4.12620343e-002 -4.56048474e-002
      3.25134844e-002 2.82292557e-003 -1.66700967e-002 -1.20473569e-002
      6.44487143e-002 1.96445417e-002 5.21624554e-003 -3.74117643e-002
      5.49099669e-002 1.12460356e-003 1.61730722e-002 6.22526668e-002
      -1.48627441e-002 3.26766632e-002 4.87006977e-002 4.36067097e-002
      7.08760470e-002 1.91257708e-002 -1.77099910e-002 5.48061798e-004
      -5.77674843e-002 1.57243479e-002 4.82964627e-002 2.00187802e-004
      -4.43240851e-002 -2.87558045e-003 4.53814529e-002 -3.46211009e-002
      -1.57368612e-002 -1.18062915e-002 2.19742600e-002 8.20097551e-002
      -2.90750638e-002 -2.69074868e-002 -4.69166934e-002
      -2.02625841e-002 -7.39008933e-002 -4.92358813e-003
      -4.67991903e-002 -6.57103732e-002 -7.90064782e-002
      -4.00203764e-002 -3.37475799e-002 5.63006662e-002 3.41645093e-003
      -3.37355323e-002 5.46150084e-004 -1.11562582e-002 -1.01579791e-002
      -9.14619584e-003 -3.93909328e-002 3.58880498e-003 -7.37231784e-003
      8.67579356e-002 -3.23870890e-002 -2.62715612e-002 -6.74653724e-002
      3.43133183e-003 5.64641096e-002 -6.35411665e-002 -5.59536275e-003
      3.67816910e-002 -3.25723551e-002 -2.41095684e-002 -1.95087139e-002
      -4.74490151e-002 -1.40630171e-001 -1.72160957e-002
      -1.23702519e-001 -5.38561009e-002 -4.36224975e-002
      -2.44305488e-002 -5.26897348e-002 -4.42545488e-002
      -1.01831683e-004 2.77418941e-002 5.58071472e-002 -1.87684074e-002
      -5.90770273e-003 -6.03305325e-002 -7.25901825e-003
      -4.09382917e-002 -3.94267105e-002 -5.65297902e-002
      -1.35124335e-002 2.17852350e-002 3.93951610e-002 -1.99554348e-003
      -3.29785049e-002 -9.98485461e-003 -2.77711879e-002 9.90894996e-003
      3.20356153e-002 1.94436386e-002 -1.06651686e-001 -9.90089998e-002
      -4.97542061e-002 -2.37168148e-002 -4.41800468e-002
      -7.94645995e-002 -7.97186643e-002 3.57639939e-002 8.84353966e-002
      -6.74569085e-002 -3.36671211e-002 -1.38771161e-001
      -3.34544037e-003 6.33917302e-002 4.77821231e-002 2.29759589e-002
      -2.62659579e-003 4.29205149e-002 -4.29250114e-002 6.23497330e-002
      7.10558295e-002 2.74931807e-002 2.05953643e-002 4.48186472e-002
      -1.31424190e-003 5.54994158e-002 3.54656093e-002 -1.83100551e-002
      2.29496378e-002 -7.23871123e-003 9.44649335e-004 -3.40077393e-002
      -8.30043405e-002 -3.09919938e-002 1.14280753e-001 1.56358451e-001
      5.96578084e-002 1.08319692e-001 -6.02841228e-002 -7.22918808e-002
      -1.72754809e-001 -8.77112970e-002 1.64255127e-002 1.12876579e-001
      3.44402939e-002 7.71696866e-002 1.64700240e-001 -6.05279244e-002
      -8.17993432e-002 4.18681167e-002 4.25648503e-002 -1.77949827e-004
      6.81466311e-002 1.97680760e-002 5.62833250e-002 8.88953656e-002
      3.28112617e-002 4.46060672e-002 1.87919866e-002 3.79704535e-002
      1.53239006e-002 8.59306306e-002 1.97893362e-002 -1.27557786e-002
      1.39557675e-001 1.73822150e-001 7.93508664e-002 -2.62162805e-001
      -7.21521303e-002 -6.59566373e-003 3.42982030e-003 6.89775050e-002
      1.76156852e-002 1.38473809e-001 -3.15447873e-003 -1.41764313e-001
      -7.39688203e-002 9.75989364e-003 3.89667489e-002 1.92069523e-002
      5.27189299e-002 -2.96676252e-002 1.34403363e-001 1.57625563e-002
      -4.92952690e-002 8.88881832e-003 5.10696834e-003 2.88555715e-002
      -3.56295966e-002 1.36453854e-002 -3.11163869e-002 7.93097317e-002
      1.54677317e-001 1.02474779e-001 1.59688424e-002 8.83622244e-002
      9.06160623e-002 -3.64818871e-002 -3.12874168e-002 -5.33737391e-002
      6.11257106e-002 1.33136377e-001 1.08473405e-001 -5.57153486e-002
      -6.56556105e-003 1.74385607e-002 1.81470567e-003 -8.81913006e-002
      -5.53704835e-002 4.39026393e-002 1.40970368e-002 -9.38526616e-002
      -1.05737643e-002 2.91133057e-002 2.66179033e-002 2.02288646e-002
      -1.90183781e-002 1.57561973e-002 1.57270923e-001 7.77426437e-002
      3.17563675e-002 2.41107866e-003 -8.90920125e-003 -3.00007183e-002
      -6.40080646e-002 -1.04560405e-001 -4.62761931e-002 2.51796395e-002
      6.90879002e-002 8.98642316e-002 1.13670692e-001 -4.87044826e-002
      -4.20821682e-002 -7.75839463e-002 -6.75283745e-002
      -1.85117871e-002 1.20086139e-002 3.15351784e-002 1.17705137e-001
      3.85355577e-002 -6.51791841e-002 -2.68401112e-002 -4.39443579e-003
      -5.72699867e-002 -8.57783575e-003 1.15264736e-001 2.48434464e-003
      4.54257755e-003 -8.87053311e-002 -8.02100226e-002 3.03631276e-002
      3.67385615e-003 3.15462239e-002 4.32955734e-002 1.04956962e-001
      7.39592761e-002 -8.09312761e-002 -2.42916457e-002 -6.40438050e-002
      -4.22665849e-002 -4.54937667e-002 -1.89849120e-002
      -5.17945439e-002 -1.64886042e-002 -5.39527126e-002
      -3.64344771e-004 -8.75513405e-002 -7.79336020e-002
      -5.15097827e-002 -8.96128267e-003 -1.46412496e-002
      -4.00810689e-002 -1.39267650e-002 6.55007586e-002 -8.05731565e-002
      -5.73697500e-002 4.34541591e-002 -2.45861243e-002 -1.05154729e-002
      -2.21840423e-002 2.05676537e-003 -2.44078189e-002 6.38909563e-002
      -9.30432156e-002 7.57611394e-002 1.31964311e-001 -2.52353004e-003
      -4.11977731e-002 -5.35777472e-002 5.38821034e-002 -3.68252024e-003
      1.82594787e-002 -2.52165832e-002 -5.13528176e-002 -5.28499745e-002
      -5.34115359e-002 -1.16315822e-003 -3.48063782e-002
      -2.37077679e-002 -2.69303061e-002 6.60983175e-002 -4.96030971e-002
      -1.56986993e-002 -8.91246349e-002 -8.94894376e-002
      -6.37575015e-002 -6.18877038e-002 -4.18527462e-002 9.11656581e-003
      7.05911666e-002 -8.32964331e-002 5.99615648e-003 8.30321945e-003
      -3.25916894e-003 7.75909424e-003 2.19060108e-002 5.16126901e-002
      2.24891410e-004 6.69821650e-002 1.97051875e-002 -1.16489060e-001
      1.38519183e-002 1.99906211e-002 7.93668814e-003 -3.35516296e-002
      6.86898921e-003 -6.66686893e-002 1.23940550e-001 5.86644039e-002
      -5.02382554e-002 -1.08901814e-001 -4.14735526e-002 1.65130850e-002
      9.53646004e-003 -4.08321433e-003 8.22384283e-003 6.31105602e-002
      1.37938531e-002 -4.75929081e-002 -1.03546284e-001 -1.68969913e-003
      -2.68870909e-002 -6.39859289e-002 -7.22213835e-002
      -3.47453319e-002 6.36983663e-002 1.09416947e-001 -8.03648978e-002
      -1.40517995e-001 4.00233194e-002 -7.80415349e-003 -2.33807489e-002
      -1.07506034e-003 -1.06875626e-002 2.03664638e-002 9.56523567e-002
      2.57919878e-002 -1.35110125e-001 3.03756706e-002 2.16533430e-002
      -3.84592004e-002 -1.74339849e-003 -3.89706604e-002 1.65004898e-002
      1.59816936e-001 -1.19541094e-001 -1.18282512e-001 1.94486622e-002
      -5.94257638e-002 -4.08681259e-002 6.60482375e-003 3.04430947e-002
      2.15625893e-002 9.67862010e-002 -1.16430307e-002 -7.68282264e-002
      2.89671235e-002 1.68175213e-002 -1.86564382e-002 3.33059505e-002
      -1.48979286e-002 -2.11621448e-003 1.29210632e-002 4.95848581e-002
      -9.27073136e-002 1.76290795e-002 2.78714355e-002 2.76989695e-002
      3.19555551e-002 -8.03278934e-004 6.61415160e-002 6.04562201e-002
      1.15638778e-001 3.30496095e-002 -6.68813661e-003 2.30663605e-002
      8.92370045e-002 3.14026885e-003 -8.43627658e-003 -2.89832260e-002
      5.89321591e-002 -1.89823529e-003 -3.90537363e-003 -6.69333502e-004
      3.43199186e-002 2.27960455e-003 4.93292836e-003 -4.35175896e-002
      -1.45861953e-002 -2.51754634e-002 1.30827606e-001 -4.03111912e-002
      -2.28185356e-002 2.05406547e-002 -4.44844998e-002 -3.44912484e-002
      -5.84042780e-002 -8.92097205e-002 -2.57969219e-002 1.66977927e-001
      5.38286194e-002 -1.71525795e-002 -1.58520527e-002 -1.44864591e-002
      -1.85927991e-002 2.73674484e-002 -5.09063341e-002 8.24384242e-002
      3.30535471e-002 7.97993988e-002 -1.33102608e-003 -3.20300870e-002
      -6.67821541e-002 -1.81237748e-003 8.27126428e-002 6.76790401e-002
      -4.19276468e-002 5.49665093e-002 -5.69389341e-003 2.11170930e-002
      2.43604407e-002 -4.37654704e-002 -3.71172838e-002 5.75632649e-003
      -7.78342932e-002 -9.35285911e-003 -6.93290085e-002 6.55272678e-002
      8.30959529e-002 1.84559096e-002 3.95353185e-003 -4.05519502e-003
      7.38431960e-002 -6.10597804e-002 -6.39688000e-002 -1.79919563e-002
      -7.60673434e-002 -4.45378162e-002 -4.10620421e-002
      -2.52740439e-002 -1.45429578e-002 2.73192730e-002 9.87635627e-002
      -1.46848587e-002 8.96333680e-002 5.51782269e-003 9.83793568e-003
      2.42479276e-002 -1.63472374e-003 -1.75860319e-002 3.13157924e-002
      -2.62821689e-002 1.01249795e-002 2.12996453e-002 7.48148412e-002
      5.23031577e-002 -6.59547746e-002 -4.83775437e-002 -2.87703592e-002
      1.35277528e-002 -2.95962691e-002 -1.97226405e-002 -9.12185665e-003
      6.68462440e-002 -4.14249338e-002 -4.05863486e-002 -4.38072309e-002
      -1.20449690e-002 4.25137244e-002 5.61508164e-002 1.63857397e-002
      5.13046049e-002 3.54605988e-002 -3.50978994e-003 -2.53369901e-002
      -2.17416622e-002 -2.22437456e-002 -4.78352346e-002
      -3.49699631e-002 2.20035836e-002 4.72400524e-002 -4.30459455e-002
      1.06112415e-003 1.57768000e-002 3.45012359e-002 8.78983438e-002
      -2.81189401e-002 -3.55521999e-002 2.93184221e-002 -5.32126911e-002
      1.24824161e-004 -5.94660938e-002 -5.84846362e-002 -6.04017042e-002
      -4.28656638e-002 -1.56307500e-002 3.64190787e-002 6.48496896e-002
      6.81014359e-002 3.11995782e-002 -3.11174374e-002 -8.97637568e-003
      5.39103197e-003 5.63919507e-002 -2.73552481e-002 -1.81609634e-002
      8.26192498e-002 -8.98103390e-005 2.22308226e-002 -2.94038039e-002
      -6.56909076e-003 3.20859849e-002 1.05836578e-002 -1.02010695e-002
      4.89331633e-002 1.15331812e-002 6.43654913e-002 9.88105894e-004
      2.17052904e-004 4.28582802e-002 1.82082113e-002 4.91353571e-002
      6.76699681e-003 2.68187895e-002 3.83616909e-002 -7.02162981e-002
      -2.46031210e-002 -4.53913845e-002 -6.80130348e-002 5.23342704e-003
      -3.60624231e-002 -3.73410508e-002 9.21953376e-003 -8.43533948e-002
      1.90527570e-002 -5.56453280e-002 7.44627137e-003 -2.86144949e-002
      -3.50154974e-002 2.91935876e-002 1.84699073e-002 2.73150421e-004
      -1.78227425e-002 2.51372457e-002 -1.14515340e-002 3.42492983e-002
      -2.93399449e-002 -3.17095891e-002 -9.39423144e-002
      -7.80821592e-002 -6.48664609e-002 2.55244151e-002 7.49135669e-003
      -2.38469299e-002 1.74649637e-002 2.70236954e-002 3.35942954e-002
      -5.37080504e-002 -1.75445713e-002 -2.00535953e-002 4.55786325e-002
      -3.64081032e-004 -6.00007623e-002 3.22871283e-002 -2.69809905e-002
      -4.01776023e-002 -4.88759689e-002 -5.16266152e-002
      -3.78317945e-002 1.20082097e-002 -9.80303157e-003 -2.83803772e-002
      2.63037924e-002 2.11317055e-002 7.27653177e-003 -3.27788219e-002
      6.62384974e-003 -1.77809913e-002 4.41756882e-002 -5.59916301e-003
      -3.92469950e-002 -1.79840513e-002 6.93660378e-002 2.85539683e-002
      9.76722455e-004 2.11787112e-002 -2.33672131e-002 2.80074170e-003
      8.42678128e-004 -1.57030467e-002 2.97461241e-003 6.48679957e-002
      3.26074631e-004 4.72384179e-003 6.02963939e-002 -1.97329838e-002
      3.11742611e-002 -5.23546226e-002 -3.55546065e-002 2.79458482e-002
      3.17853726e-002 -3.52832563e-002 -2.34891139e-002 2.37623248e-002
      -6.16754927e-002 -4.52683046e-002 -9.91770625e-003
      -1.14579080e-002 -2.16776319e-002 7.47454762e-002 -4.93036769e-002
      8.23131278e-002 -3.78212780e-002 -4.78519015e-002 4.56748204e-003
      1.81158297e-002 3.42758633e-002 1.38671827e-002 -9.96950082e-004
      7.46280933e-003 -2.50585619e-002 7.06678778e-002 3.22366208e-002
      3.00458446e-002 -1.37874465e-002 4.04746532e-002 2.60396115e-002
      9.65439156e-003 -4.10032161e-002 -2.36592833e-002 -4.00436372e-002
      -3.11152339e-002 3.47556621e-002 2.15824358e-002 3.88918668e-002
      -9.23587102e-003 4.05849926e-002 6.22482039e-002 -8.15326162e-003
      -2.59520616e-002 5.04658977e-003 3.00482884e-002 6.42267168e-002
      5.89323230e-002 1.61727313e-002 -1.76371206e-002 -1.77648831e-002
      -5.61862066e-002 -1.10376626e-002 -4.34032194e-002 5.35922386e-002
      2.73531545e-002 4.61207107e-002 -5.96096623e-004 2.74816714e-002
      -4.58182804e-002 1.28475567e-002 -2.95711868e-002 -7.44537544e-003
      4.65199985e-002 4.06650901e-002 4.23033759e-002 -1.58982687e-002
      -1.33692534e-004 -2.65924875e-002 -8.81140456e-002
      -2.17289552e-002 6.32192269e-002 6.64400086e-002 5.36908731e-002
      8.00783932e-002 1.76969729e-002 4.40744334e-004 -5.23922741e-002
      2.26463135e-002 3.74187753e-002 -5.84195703e-002 1.77321974e-002
      6.69588149e-002 3.40022072e-002 -7.86080025e-004 -2.93334131e-003
      -1.09034870e-002 3.53428833e-002 -3.12746465e-002 -1.86317638e-002
      -2.17106491e-002 1.15312950e-003 1.13769080e-002 2.47308314e-002
      -1.22413319e-002 -7.63581507e-003 -3.90985571e-002
      -1.47794709e-002 8.09418187e-002 5.59682250e-002 -1.54609913e-002
      3.77765112e-002 3.77126411e-002 -3.66770327e-002 -1.28159821e-002
      -5.80116436e-002 1.51601052e-002 4.46558595e-002 5.99917509e-002
      2.00671013e-002 -6.81076897e-003 -1.21721355e-002 -1.26542225e-002
      3.01784393e-003 1.53991133e-002 -6.90762922e-002 -1.53147532e-002
      4.41261530e-002 -4.65138294e-002 1.94617547e-002 2.15594862e-002
      -2.96504907e-002 1.94533393e-002 -3.77359577e-002 1.04641737e-002
      6.09912910e-004 3.60451862e-002 -4.31274138e-002 4.43424471e-002
      -8.10298696e-003 -2.12060865e-002 -5.39790373e-003
      -3.17797326e-002 4.51292247e-002 4.55166996e-002 3.24844010e-002
      1.83300413e-002 -9.32139345e-003 6.21187547e-003 -6.41262755e-002
      2.60491595e-002 3.73219550e-002 6.37911037e-002 7.33577684e-002
      4.62991446e-002 3.19308345e-003 3.67165590e-003 1.53815793e-003
      -5.49940206e-002 7.73600042e-002 -3.82928662e-002 5.22040688e-002
      1.09204678e-002 1.18330307e-002 -2.35315561e-002 3.90362702e-002
      2.49765888e-002 -4.59318943e-002 8.33243504e-002 1.84869170e-002
      1.16980560e-002 1.45916722e-003 6.47401530e-003 8.53393599e-003
      -3.17860469e-002 4.32374375e-003 -2.35946029e-002 1.13399914e-002
      -2.11372934e-002 -2.11421214e-002 -1.11821564e-002
      -2.20820606e-002 4.01119478e-002 -7.36294314e-003 1.57172643e-002
      3.90812941e-003 -5.91216497e-002 -2.36150920e-002 -3.21347043e-002
      8.42804909e-002 7.34163728e-003 -4.49759439e-002 -3.10330447e-002
      2.17978302e-002 4.53772992e-002 5.43121733e-002 -1.97361261e-002
      -7.26385135e-003 -1.98392570e-002 1.88702382e-002 -9.11082141e-003
      1.49738975e-002 1.64242703e-002 2.28912029e-002 3.15609686e-002
      -3.30971591e-002 3.45470500e-004 1.47756040e-002 -4.60439362e-002
      -2.45572943e-002 -2.00642832e-002 1.44653432e-002 1.25658261e-002
      -9.12045017e-002 -6.18959730e-003 -2.78671645e-003 4.94734384e-002
      2.23189443e-002 -1.58611879e-001 -8.41340274e-002 -3.16426978e-002
      2.07257755e-002 -4.90983427e-002 -1.80011545e-003 -6.37852177e-002
      -3.26470216e-003 -1.39135882e-001 -1.44066988e-003 5.24057001e-002
      2.75553577e-002 -3.86883393e-002 -5.72503433e-002 -2.44633611e-002
      -9.92679782e-003 5.83442822e-002 7.55489338e-003 3.69860642e-002
      6.17474504e-002 -1.04734162e-002 -6.79238280e-003 3.67408730e-002
      1.75633449e-002 -9.50238556e-002 -3.17468271e-002 5.88473193e-002
      -1.54310152e-001 -1.07242703e-001 -2.66061779e-002 3.85651179e-002
      4.39135954e-002 8.03320110e-003 -5.06655127e-002 8.21168534e-003
      -5.95443472e-002 -7.90651143e-002 5.33862896e-002 -6.42364612e-003
      -1.08149473e-003 -1.39088044e-002 -2.81973910e-002 2.06021126e-002
      4.75127622e-002 9.84326601e-002 4.58692499e-002 4.91617508e-002
      -1.12324031e-002 5.95685393e-002 7.62226209e-002 2.19788440e-002
      -1.56875830e-002 -1.42208766e-002 -8.04974325e-003
      -3.21231224e-002 1.14293694e-001 1.59109104e-002 -8.64007883e-003
      6.14104420e-002 2.65582670e-002 5.75338900e-002 7.18029961e-002
      -7.11092055e-002 -2.03567103e-001 1.45232091e-002 -3.04228328e-002
      -5.62577397e-002 -1.27411103e-002 1.59958825e-002 4.31717448e-002
      4.77643162e-002 1.54153639e-002 1.21826092e-002 7.67010543e-003
      6.08609952e-002 3.08730174e-002 5.45400530e-002 7.09758848e-002
      3.77072543e-002 -4.00330126e-003 5.12867384e-002 -1.04648046e-001
      6.93937466e-002 1.29872449e-002 -4.76003475e-002 7.68317580e-002
      6.72666505e-002 4.31376807e-002 2.17032265e-002 -1.50576264e-001
      -3.99416722e-002 1.10956132e-001 1.01806246e-001 6.07921593e-002
      4.82797958e-002 4.58001159e-002 7.21684918e-002 4.62986209e-004
      -4.44484688e-002 -4.56856005e-003 -3.30126770e-002 3.05713359e-002
      -8.95288680e-003 -1.29227534e-001 5.28908428e-003 -1.55467354e-002
      2.56851725e-002 1.06285423e-001 1.14787109e-001 -1.56502444e-002
      7.85532035e-003 -9.50637681e-004 -8.40973482e-002 3.48758586e-002
      8.05631187e-003 5.64016178e-002 9.40679312e-002 -4.88800276e-003
      9.52686146e-002 3.29378173e-002 2.54638568e-002 -7.91061819e-002
      -2.61990144e-003 -1.39130810e-002 1.67247374e-002 2.29211897e-002
      -5.27846031e-002 3.16666067e-002 -1.45167606e-002 1.84453893e-002
      8.40060487e-002 3.43724042e-002 -4.47887704e-002 4.22103368e-002
      -6.70043379e-002 5.08817099e-003 -7.02613518e-002 7.99793459e-004
      2.04038387e-003 3.60867828e-002 1.74774881e-002 1.70416888e-002
      9.04748514e-002 7.72822602e-003 -1.75590888e-002 1.77383944e-002
      1.30424928e-002 1.43488161e-002 5.12858331e-002 1.96198653e-002
      7.66502097e-002 2.86442079e-002 -8.89662504e-002 -3.44473049e-002
      -5.91987930e-002 -6.28157854e-002 2.39954237e-002 1.14048213e-001
      4.97450354e-003 -2.98406575e-002 4.61688489e-002 -5.09394798e-003
      -5.95996380e-002 3.89309749e-002 -5.93943968e-002 2.03083158e-002
      3.11212079e-003 1.48489270e-002 -1.34703806e-002 -6.03131158e-003
      -2.06083730e-002 8.10823217e-002 5.55175133e-002 4.15444970e-002
      1.64525118e-002 2.07314901e-002 -2.21993122e-002 4.47839610e-002
      8.76831764e-004 -7.76414350e-002 -3.49802822e-002 -6.53668940e-002
      -3.05223241e-002 -6.70586573e-003 1.20652243e-002 -5.27278595e-002
      5.67949601e-002 9.24805924e-003 7.71265663e-003 -7.45915016e-003
      5.40782511e-002 1.44233955e-002 1.09729022e-001 5.23596741e-002
      3.49299866e-003 -5.03981579e-003 -2.05597840e-002 -7.77542591e-003
      -2.07821373e-003 2.92074941e-002 -5.07765599e-002 4.99936081e-002
      7.16631301e-003 -1.91475675e-002 2.83553302e-002 -4.32204409e-003
      1.91528089e-002 -4.34191860e-002 -6.14332743e-002 -5.85007221e-002
      -4.29646522e-002 1.17661161e-002 -5.74644580e-002 4.85607460e-002
      6.59147874e-002 -3.85345072e-002 -2.56363768e-003 -3.96716110e-002
      -8.64079371e-002 1.80927385e-002 -1.95268616e-002 -1.02915308e-002
      -4.66471305e-003 -3.14904340e-002 -2.77516786e-002 1.77917294e-002
      8.46615899e-003 -8.94173831e-002 3.38018276e-002 8.93622190e-002
      -3.44158174e-003 7.71089420e-002 7.69457817e-002 9.49882194e-002
      3.16937342e-002 6.96933344e-002 1.44586628e-002 8.64393264e-002
      4.91983928e-002 -2.26381421e-002 8.45579356e-002 1.05291344e-001
      5.30776903e-002 8.15699156e-003 -1.56337824e-002 -2.28861123e-002
      7.56428018e-003 -2.89994683e-002 -2.46771108e-002 -1.96493268e-002
      1.65287708e-003 -5.78820854e-002 3.10060568e-002 -5.28211817e-002
      -3.07930466e-002 -2.28469446e-002 -1.68728898e-003 2.68679578e-002
      2.84878444e-002 1.64741538e-002 -2.80721355e-002 -4.12998907e-002
      2.91367043e-002 1.34872703e-003 6.86685666e-002 -3.91304679e-002
      6.29461836e-003 -3.60711105e-002 2.42668623e-003 8.98698159e-003
      1.80606358e-002 -9.36873257e-004 -6.43745139e-002 3.74921449e-002
      1.13370359e-001 3.26901451e-002 4.50984687e-002 5.18588163e-002
      1.25968335e-002 -2.38060448e-002 -8.30093473e-002 7.69926934e-003
      -3.20949703e-002 -5.95610626e-002 2.85684504e-002 -5.04016243e-002
      1.92904770e-002 1.79102011e-002 -5.21697290e-003 -1.01261185e-002
      9.18768421e-002 4.52460982e-002 1.14119034e-002 3.83495428e-002
      7.29073398e-003 2.27672681e-002 2.28028502e-002 -4.83765043e-002
      -3.76890600e-002 -5.76688647e-002 -2.52464302e-002 3.56141925e-002
      4.06508557e-002 1.34137729e-002 5.07348739e-002 -8.36931728e-003
      -1.89867858e-002 -3.57575789e-002 2.27567330e-002 4.61907685e-003
      6.66434467e-002 1.24776633e-002 -3.24381590e-002 4.31225495e-003
      -5.55534335e-003 3.53636108e-002 -1.09870257e-002 4.29583825e-002
      -9.69451293e-003 -7.93501269e-003 4.36861441e-002 3.47260982e-002
      1.00826463e-002 2.97270603e-002 9.15103871e-003 -1.25221098e-002
      1.95163898e-002 8.15225467e-002 3.35336812e-002 1.87677100e-001
      -1.79610699e-002 2.54247021e-002 9.63527989e-003 -1.13025323e-001
      -5.87821491e-002 -1.22335823e-002 -4.03370187e-002 1.70871301e-003
      5.48872259e-003 1.77070517e-002 3.83429253e-003 7.90859200e-003
      -5.19956537e-002 -4.38788757e-002 -2.10816041e-002 4.95203352e-003
      -2.70863576e-003 1.20559305e-001 -1.73355397e-002 -1.88111642e-003
      4.20808606e-003 -3.11242845e-002 4.50779386e-002 -3.42260860e-003
      3.13190408e-002 7.51719922e-002 5.17695248e-002 -3.25907655e-002
      5.14596850e-002 -4.96344175e-003 3.75175960e-002 1.11247979e-001
      2.47472506e-002 -4.72585149e-002 -1.12627894e-002 -5.01650088e-002
      8.34099203e-003 -3.65158031e-003 5.37879057e-002 -1.95441116e-002
      3.23999412e-002 3.51318605e-002 4.90928441e-002 -3.62195633e-002
      4.30551842e-002 -3.33552100e-002 -8.77110846e-003 6.17750641e-003
      1.04952864e-001 3.33036520e-002 5.36809675e-002 1.31907212e-002
      -8.56811255e-002 1.10642414e-003 1.69429574e-002 1.69969052e-002
      7.87275583e-002 6.47168085e-002 6.59860149e-002 1.76628791e-002
      1.68542843e-002 -3.67552675e-002 2.00111177e-002 5.53071983e-002
      -4.53085415e-002 6.86109206e-003 3.41633037e-002 2.97287968e-003
      3.80492695e-002 2.49098279e-002 -3.23076509e-002 2.95954850e-002
      -8.67745094e-003 -2.69375350e-002 -6.66560233e-002 1.15418442e-001
      -2.22589984e-003 -7.73012824e-003 2.29665004e-002 -1.03157498e-001
      4.21855599e-002 -6.81287562e-003 -5.42945834e-003 8.24113712e-002
      7.49201179e-002 3.16065140e-002 4.34085317e-002 2.23864373e-002
      -1.67797118e-001 1.97376739e-002 7.61574367e-003 5.46015985e-003
      5.99103123e-002 9.83471237e-003 -8.70803837e-003 2.61861645e-002
      1.23058781e-002 -1.54608339e-002 2.39188597e-002 -4.94912155e-002
      6.96254289e-003 -1.53323365e-002 4.00637202e-002 1.59356780e-002
      5.87005801e-002 2.20265295e-002 7.20900670e-002 -2.36686971e-003
      -1.34267742e-002 4.78959419e-002 1.65857561e-002 4.35159653e-002
      3.03780679e-002 7.14293420e-002 -3.93170901e-002 -9.94722545e-002
      -1.21117644e-002 9.68903583e-003 3.79402488e-002 7.28938133e-002
      -1.03460718e-003 -1.64279640e-002 5.79785332e-002 1.41192076e-003
      -2.90156770e-002 1.67651102e-002 4.04061899e-002 5.93466423e-002
      4.76020388e-002 6.90933689e-002 -1.03202322e-002 -5.24154864e-003
      3.27948085e-003 5.17260358e-002 -2.51636244e-002 -4.62028757e-003
      7.05028791e-003 5.66132441e-002 1.15139242e-002 -2.32581291e-002
      -4.93450128e-002 -3.44887236e-003 8.07434693e-002 5.50583340e-002
      -6.57144859e-002 -2.47482583e-002 2.76006032e-002 -1.80195235e-002
      7.50503391e-002 1.46634355e-002 1.86762977e-002 -3.39878425e-002
      -2.02476303e-003 5.77621274e-002 -3.07514705e-002 -2.43397299e-002
      -3.03012300e-002 6.21405579e-002 -2.91306078e-002 -5.86229824e-002
      -7.46645108e-002 6.09062372e-005 1.00050271e-002 -5.81213310e-002
      -2.86476351e-002 -2.94224583e-002 -5.90345971e-002
      -3.55450734e-002 3.44065316e-002 6.06270321e-002 -3.27589479e-003
      -4.35511582e-002 -1.10776979e-003 -1.42054679e-002 5.87811768e-002
      -1.24495360e-003 -3.52251763e-003 5.15878424e-002 1.24635130e-001
      -7.10463673e-002 -4.40558419e-003 5.07794842e-002 7.38800783e-003
      -1.03194481e-002 -2.33595669e-002 5.48593886e-003 -2.17868369e-002
      1.18094506e-002 -3.51899490e-002 -1.39640523e-002 4.88036731e-003
      -3.58553529e-002 1.09623726e-002 -1.69066675e-002 4.37015248e-003
      -2.52223015e-002 6.86112419e-002 -4.81743850e-002 -4.24739271e-002
      2.26328615e-002 -3.49902222e-003 3.20434496e-002 3.13767307e-002
      -6.63380255e-004 -5.23548713e-003 6.33375579e-003 -6.69727176e-002
      -1.44166676e-002 9.07402486e-002 1.10870086e-001 4.65804450e-002
      2.37679053e-002 -4.02471498e-002 2.50500208e-003 1.84019320e-002
      -1.98511314e-002 -5.34158312e-002 2.69609988e-002 1.68798789e-001
      4.81724292e-002 7.20980251e-003 -2.57894117e-002 -2.63119815e-004
      2.04975139e-002 -6.63068369e-002 -2.59187371e-002 4.08437699e-002
      4.21155989e-003 2.24014577e-002 5.51622063e-002 -9.49636623e-002
      -1.64166819e-002 -1.63376182e-002 4.74079978e-003 -6.24981290e-003
      3.11272144e-002 6.39622752e-003 6.15440961e-003 2.15363074e-002
      -1.19322361e-002 6.03364371e-002 2.94442233e-002 -1.75117105e-002
      1.55775081e-002 -9.46091395e-003 1.14090845e-001 -1.05914988e-001
      1.49371736e-002 3.89117748e-002 3.39732841e-002 6.09276257e-002
      3.45434174e-002 2.88513545e-002 4.20077965e-002 -5.93379512e-003
      1.03163883e-001 6.84671775e-002 -3.50102074e-002 7.92026147e-002
      -2.98421439e-002 5.95740862e-002 4.14789282e-002 1.83109660e-002
      1.03787079e-001 8.28748718e-002 6.83456808e-002 4.75815423e-002
      4.79731485e-002 -7.20038339e-002 1.95042435e-002 6.13739528e-003
      7.00363144e-002 7.02635571e-002 -1.29133329e-001 -3.91169073e-004
      5.85301071e-002 1.82572808e-002 9.05956104e-002 8.01862404e-002
      2.23250203e-002 4.62660566e-002 -7.24494755e-002 -6.37045130e-002
      7.76467398e-002 1.01680890e-001 3.43502946e-002 2.86628678e-002
      2.54855901e-002 7.53905624e-002 7.73091540e-002 -1.72887594e-002
      4.17554053e-003 -2.86816526e-002 4.52335179e-002 3.63228284e-002
      1.16137760e-002 -9.54896305e-003 1.84115786e-002 9.23428684e-002
      3.15754712e-002 -3.17457207e-002 3.64730991e-002 1.54937670e-001
      5.80018014e-002 8.56451690e-002 1.90064381e-003 5.51317306e-003
      1.53722912e-001 8.48879218e-002 1.64504964e-002 5.75828068e-002
      3.94203700e-002 1.49923731e-002 1.91509090e-002 7.48577481e-003
      8.83567054e-003 9.30092335e-002 3.45875621e-002 -6.30067512e-002
      2.58689597e-002 -7.29614943e-002 1.25396801e-002 1.75488934e-001
      5.65645695e-002 -6.08070120e-002 4.78730351e-002 -4.55007376e-003
      3.13129537e-002 -9.52292606e-003 6.05217479e-002 8.54932796e-003
      7.13915974e-002 2.26992872e-002 -7.58701283e-003 1.23196192e-001
      1.37445986e-001 6.94020614e-002 -1.29913148e-002 -2.44993716e-002
      -4.64956760e-002 4.23686877e-002 2.11018678e-002 9.70682316e-003
      3.09955627e-002 8.93746987e-002 -3.25684026e-002 1.77995898e-002
      -3.84025685e-002 4.94268350e-002 1.54646367e-001 1.57746412e-002
      -1.40054943e-002 1.81991011e-002 3.73946540e-002 -2.72513554e-002
      2.85599139e-002 2.43457947e-002 7.97916129e-002 5.10341972e-002
      -3.01935448e-004 -5.08953556e-002 4.60539013e-003 6.63303658e-002
      -2.15731915e-002 3.93982418e-002 -3.00614582e-003 -5.30377291e-002
      -5.10248505e-002 -8.49412009e-002 -1.72122270e-002 2.70207529e-003
      1.24843912e-002 -3.25819873e-003 7.42245018e-002 7.43636163e-003
      6.67223036e-002 6.68877438e-002 -3.56228314e-002 -7.57013960e-003
      4.81341332e-002 3.46004292e-002 -4.30840552e-002 -4.77819890e-002
      3.49257402e-002 8.12790394e-002 4.12443792e-003 -3.41675729e-002
      -6.40549213e-002 -5.05656414e-002 1.94265917e-002 -1.21097594e-001
      -1.97521336e-002 -3.02929524e-002 -3.79630807e-003
      -1.09865488e-002 6.19788095e-003 -9.99294221e-003 -3.00406497e-002
      -7.60996938e-002 -5.52359894e-002 -1.06843241e-001 3.52416281e-003
      7.46094584e-002 1.34849334e-002 6.15696004e-003 2.09119078e-002
      2.74402816e-002 5.26187792e-002 -3.94793153e-002 -3.87259237e-002
      4.97849844e-002 6.96275160e-002 -3.57846245e-002 4.56078276e-002
      5.18455617e-002 5.10496832e-002 4.19371389e-002 -1.16934977e-001
      4.73427102e-002 2.37811357e-002 -1.81574177e-003 -6.99187571e-004
      2.40491461e-002 4.40493412e-002 1.22798153e-003 -7.46799707e-002
      -8.54494944e-002 7.58205503e-002 4.23213281e-002 3.30089107e-002
      1.66758373e-002 2.63557173e-002 5.64017855e-002 -4.23257463e-002
      -7.77116492e-002 3.13902125e-002 9.96689796e-002 -2.44845934e-002
      7.79937161e-003 2.63749827e-002 3.05901468e-002 9.32356492e-002
      3.32082696e-002 3.24698947e-002 4.79737632e-002 1.16509445e-001
      -8.24755281e-002 -5.19103222e-002 -6.96969330e-002 2.78339442e-002
      6.68545365e-002 1.98028293e-002 1.28977522e-001</_>
    <_>
      1.38319358e-002 9.94798756e-005 3.18559185e-002 -1.42427329e-002
      -6.52906448e-002 3.92870456e-002 -8.18344299e-003 2.89803352e-002
      5.18921763e-003 2.01354902e-002 -7.61775207e-003 3.12747546e-002
      3.74896303e-002 4.03012820e-002 -5.86063564e-002 -8.22392572e-003
      4.14609499e-002 2.24673748e-002 -2.19965191e-003 2.56162845e-002
      1.06913820e-002 -6.39644312e-003 -5.56816608e-002 3.97250764e-002
      9.12845880e-003 2.17054896e-002 -3.19247954e-002 -1.76675823e-002
      1.29031518e-003 3.61446068e-002 3.17142457e-002 1.00903409e-002
      -4.92096171e-002 5.07405624e-002 5.79821020e-002 7.37369573e-003
      1.12489816e-002 -3.49553078e-002 -1.15143592e-002 3.87942903e-002
      6.38125539e-002 -2.06791461e-002 2.75126961e-003 -6.16619736e-003
      1.98215265e-002 6.33059219e-002 1.61349913e-003 -7.05376863e-002
      -2.19135843e-002 3.34933624e-002 -5.13843372e-002 -6.60467222e-002
      -2.92722136e-002 3.47728468e-002 -9.52705648e-003 -8.48537125e-003
      1.58216767e-002 4.42295782e-002 4.28248160e-002 -1.83903053e-002
      2.45940965e-002 -2.34261621e-002 -8.34664237e-003 2.15366241e-002
      -2.47237831e-002 -6.25795349e-002 -1.92447018e-003 2.58688368e-002
      -4.77052629e-002 -5.81565797e-002 -6.07474446e-002
      -3.86220473e-003 3.54398489e-002 2.45025288e-002 -2.89482791e-002
      -2.89771147e-002 1.62401125e-002 -4.38636765e-002 -2.42427159e-002
      -2.33021434e-002 9.49829258e-003 -1.62536763e-002 -1.23268822e-002
      -8.01860727e-003 -3.36640440e-002 5.96266091e-002 -1.76619478e-002
      1.05497641e-002 -2.11282969e-002 -5.19602597e-002 1.62117295e-002
      5.16551174e-003 -2.82707103e-002 5.04134735e-003 2.57883146e-002
      -5.00313789e-002 1.43882865e-002 -1.78937556e-003 1.63090397e-002
      -4.54933159e-002 -6.69539906e-003 1.55531801e-004 -1.59164015e-002
      2.10526958e-002 -1.81235541e-002 2.64636893e-002 3.89332026e-002
      -4.40727659e-002 -2.75291931e-002 -2.16876026e-002
      -4.06286493e-002 -1.79256015e-002 7.41446316e-002 6.35411739e-002
      -9.71143600e-003 -3.08686364e-002 -4.12356853e-002 2.14784453e-003
      -3.72212082e-002 -3.38306054e-002 -1.01535432e-002 3.35556641e-002
      5.41141583e-003 -1.72168817e-002 -2.56634480e-003 1.86152421e-002
      -2.60632634e-002 -8.27982184e-003 -3.83009166e-002
      -1.40691791e-002 7.94559810e-003 3.23871523e-002 -5.57985250e-003
      2.00535450e-002 -6.21419447e-003 9.87582374e-003 -1.14163011e-002
      -2.85044834e-002 -1.00249248e-002 -1.43687222e-002
      -2.55224258e-002 -6.61712978e-003 3.08025330e-002 2.52196323e-002
      2.08245520e-003 -3.24620046e-002 2.88853794e-002 1.83615796e-002
      4.68986705e-002 3.33744101e-002 2.35745162e-002 3.72662134e-002
      1.80126764e-002 -1.94504187e-002 -1.05861742e-002 1.43883368e-002
      -2.02319734e-002 -5.84179237e-002 -6.16278052e-002
      -4.76682112e-002 -2.54334863e-002 -2.32679117e-002 5.65168867e-003
      -7.30148563e-003 1.89860780e-002 4.09538113e-003 2.89607644e-002
      2.75764819e-002 3.06715295e-002 7.20114559e-002 3.35598141e-002
      -4.77005318e-002 2.62669995e-002 1.85851324e-002 9.91553441e-003
      -6.11112593e-003 -6.10756804e-004 -1.11089144e-002 3.11084129e-002
      -4.10873927e-002 6.15565069e-002 3.32570970e-002 -6.20198715e-003
      -5.45125715e-002 -9.90146026e-002 -3.40426192e-002 1.26574095e-002
      -1.57302897e-002 3.89434732e-002 4.11675461e-002 1.87382102e-002
      2.47269105e-002 2.07732450e-002 -6.36413693e-002 4.19438072e-002
      1.07228749e-001 1.32543687e-002 1.17493970e-002 3.23230810e-002
      6.93499222e-002 2.06215456e-002 -1.97297279e-002 -4.45463806e-002
      -2.89159156e-002 1.51083795e-002 1.46011356e-002 1.52009251e-002
      -1.59804970e-002 3.89298163e-002 3.24268229e-002 4.76803742e-002
      -1.07969753e-001 7.11572031e-003 1.46299481e-001 5.80043830e-002
      -2.04020217e-002 1.29101416e-002 -9.73289274e-003 1.68779455e-002
      8.72634992e-004 1.38257339e-003 -9.09822341e-003 4.27631997e-002
      -5.41524403e-003 8.37346073e-003 -2.35209754e-003 -4.88505773e-002
      1.54329063e-002 -2.65468750e-002 2.63904426e-002 -7.34820357e-003
      3.79682556e-002 -7.90737104e-003 6.28602831e-003 2.58378182e-002
      2.23754290e-002 2.09695920e-002 4.27883267e-002 3.15932445e-002
      5.07245352e-003 7.93638825e-002 2.99234837e-002 3.33909467e-002
      4.93252277e-002 4.45489213e-003 2.35937908e-002 1.14555433e-002
      3.10560651e-002 -1.72081236e-002 1.64157581e-002 4.41631116e-003
      1.01604313e-002 4.86714486e-003 -3.77933867e-002 6.17937557e-002
      9.45790764e-003 2.55409945e-002 -1.91620421e-002 4.73545305e-003
      -2.56018229e-002 -8.92741606e-003 -6.91795023e-003
      -1.81675330e-002 5.83344847e-002 -7.25771934e-002 -2.12761201e-002
      -5.44016175e-002 -1.02482485e-002 -3.10717486e-002
      -1.60161220e-002 6.07140064e-002 9.31964908e-003 7.47751072e-002
      2.59829219e-002 6.57041371e-002 1.79440044e-002 2.24635899e-002
      1.86525844e-002 -9.44179110e-003 6.33480102e-002 4.93618622e-002
      8.68110061e-002 -2.52908915e-002 6.40004352e-002 -4.42144535e-002
      2.57424414e-002 9.11127124e-003 5.91382347e-002 1.42945629e-002
      -1.22553417e-002 1.35818906e-002 -7.21013322e-002 -5.74785173e-002
      -2.16631498e-002 3.08967344e-002 8.31582956e-003 1.51672782e-002
      3.13310251e-002 1.89679507e-002 -2.21141498e-003 -1.37488563e-002
      -9.48686711e-003 -5.64907640e-002 5.29574268e-002 5.34367189e-002
      4.19435576e-002 6.63539097e-002 3.25664729e-002 5.07047474e-002
      -5.95831312e-003 -1.24688940e-002 -4.51287851e-002 2.45435555e-002
      1.01212617e-002 7.59886950e-002 7.95730650e-002 5.84988408e-002
      4.68140095e-002 1.74353935e-003 3.80292609e-002 -5.43442741e-002
      5.61056361e-002 4.03465740e-002 7.76627287e-002 -4.26026173e-002
      -1.47296605e-003 -2.18751263e-002 -5.31934649e-002 9.05937143e-003
      -3.67441922e-002 1.82533599e-002 2.68082172e-002 1.41148055e-002
      -1.06241107e-002 -3.99001502e-002 -9.71422251e-003
      -1.66768171e-002 4.04428504e-002 4.92061712e-002 9.60020348e-002
      5.44596687e-002 8.36167950e-003 1.84475351e-002 5.92216477e-002
      1.24970488e-002 -6.78317398e-002 -2.71126181e-002 -5.18585406e-002
      2.46828031e-002 -6.64107874e-003 1.18466094e-002 5.10442331e-002
      9.63000283e-002 5.53768910e-002 5.52945957e-003 7.57154897e-002
      -1.01878615e-002 3.68843935e-002 4.05993350e-002 7.65536651e-002
      -6.01453669e-002 -6.64691254e-002 -6.05131546e-003
      -2.66088499e-003 -3.08001470e-002 -5.54880202e-002 3.68500538e-002
      1.95087120e-002 -5.21376319e-002 -3.11346482e-002 -2.43894290e-002
      -1.68200303e-002 1.80372188e-003 -2.34583225e-002 -3.75709459e-002
      1.57130267e-002 -3.56254145e-003 -2.35252697e-002 3.78584825e-002
      5.21488711e-002 5.60934767e-002 -8.38097185e-003 -4.10041437e-002
      -4.86165285e-002 -3.32241389e-003 6.65445402e-002 2.45160665e-002
      6.40691593e-002 1.33061364e-001 4.22272384e-002 2.28435826e-002
      -1.38695464e-002 3.76773969e-004 1.31619414e-002 4.88780513e-002
      6.13072664e-002 -2.77625974e-002 -4.40325178e-002 -1.02491975e-002
      4.48938878e-003 -3.58275957e-002 -1.04830703e-002 7.94417504e-003
      -3.36697102e-002 -5.55019379e-002 3.93927023e-002 -2.49632094e-002
      -2.39964910e-002 1.51608568e-002 -5.38252220e-002 -4.64637242e-002
      -3.00184749e-002 -5.29191718e-002 -1.03723248e-002
      -1.03654126e-002 4.79505733e-002 3.37498747e-002 2.84117684e-002
      -1.91458222e-002 8.92038643e-003 9.00375936e-003 1.32844411e-002
      -1.87351517e-002 4.30928729e-002 4.84601296e-002 2.73318607e-002
      5.85368369e-003 1.99259855e-002 -6.38922304e-003 -9.09391046e-003
      2.13643862e-003 -1.25219747e-002 7.60012642e-002 -8.77179089e-004
      -1.08115198e-002 -9.14117321e-003 -5.52594215e-002 7.24425307e-003
      5.79479325e-004 -3.75915058e-002 2.54763588e-002 5.36872856e-002
      -3.27924639e-002 -7.94951804e-003 -3.35240364e-002 6.64308248e-003
      -1.31420325e-002 3.81061528e-003 -2.23247409e-002 3.43974754e-002
      3.50822024e-002 6.89860731e-002 -1.72988418e-002 -3.34514491e-002
      -5.90349883e-002 -1.16936695e-002 1.31584276e-002 1.53799821e-003
      -4.24753316e-003 1.00999884e-002 2.90544294e-002 -1.46836601e-002
      -4.48767878e-002 3.19522694e-002 -1.69547088e-002 2.41583586e-002
      1.95423122e-002 1.47213629e-002 4.20235097e-002 -2.22959071e-002
      -1.37927635e-002 2.79966206e-003 2.21349262e-002 -3.11828568e-004
      5.09127835e-003 -1.28750764e-002 2.97636352e-002 1.69161540e-002
      -2.00461727e-002 -4.31440808e-002 -3.63899535e-003 2.11311933e-002
      -6.15963771e-004 -2.82188039e-003 -3.81714143e-002
      -9.49224923e-003 4.18544933e-003 9.98332258e-003 -1.76444054e-002
      -1.35464948e-002 1.49567006e-002 3.23583484e-002 2.47356463e-002
      4.47663330e-002 -1.56010073e-002 -8.00294429e-002 -5.72053790e-002
      -4.33455128e-003 -4.49461006e-002 -1.60821108e-003
      -9.47302487e-003 -1.40138017e-002 -3.72212231e-002
      -6.40952885e-002 2.43888330e-003 7.23934779e-003 -2.32978724e-002
      -1.32704023e-002 6.99038804e-002 2.21762117e-002 -1.71700716e-002
      -3.09608728e-002 -5.39583340e-003 -2.26681842e-003 1.33137386e-002
      -5.21088671e-003 -2.33028326e-002 4.61649410e-002 1.96467945e-003
      -4.63884091e-003 -1.77647080e-002 -1.10759521e-002
      -4.67107929e-002 -3.91484313e-002 -8.17487389e-003
      -4.54242304e-002 1.54125346e-002 -6.82990067e-003 -1.86373591e-002
      8.43263324e-003 -6.12456314e-002 -8.24214965e-002 1.79339685e-002
      4.54987735e-002 -4.37787734e-002 -2.47856267e-002 -1.73051655e-002
      -7.32584158e-003 -1.72657054e-002 -8.09680149e-002 3.53959873e-002
      1.57324448e-002 4.16692533e-003 1.26600908e-002 -6.97838888e-002
      4.62712348e-003 1.21848015e-002 2.76278835e-002 5.94120380e-003
      4.50328402e-002 1.49177387e-002 3.90420645e-003 3.24345268e-002
      -4.73395828e-003 -5.48779070e-002 9.30110086e-003 3.33739370e-002
      4.48757373e-002 9.61865019e-003 -3.77502321e-004 1.16470745e-002
      4.01119106e-002 -4.18468863e-002 1.99160120e-003 -8.57077446e-003
      5.26034832e-002 1.72436573e-002 -4.26443759e-003 1.13266027e-002
      -6.10402878e-003 -1.14924554e-002 -4.14839899e-003
      -3.04431245e-002 -1.70521643e-002 1.63588580e-002 -1.27971228e-002
      2.18614750e-003 1.53949077e-003 -1.25839207e-002 2.94536930e-002
      5.37079088e-002 -1.14249038e-002 -1.10113043e-002 -5.24867699e-003
      -8.32070317e-003 4.10819650e-002 -3.51101942e-002 -7.46537894e-002
      -2.03045700e-002 5.97705282e-002 -4.56352048e-002 -4.73380685e-002
      -1.07784588e-002 1.03513170e-002 -6.97314516e-002 -2.24846415e-002
      -2.11188663e-002 -4.35977392e-002 2.68860850e-002 3.07313744e-002
      6.60586217e-003 1.09173115e-002 -6.55783266e-002 -5.87291270e-002
      -7.71953687e-002 -9.07239169e-002 -7.35163838e-002 3.06131784e-002
      -9.57328919e-003 -2.98222788e-002 -1.28369266e-003
      -3.91495377e-002 4.81787808e-002 -2.38772295e-003 -1.22657344e-002
      -2.71501881e-003 -1.34783471e-002 -6.95261508e-002 1.93247925e-002
      2.62769945e-002 1.54147390e-002 3.71886394e-003 1.86701454e-002
      -5.37466444e-003 -1.23067107e-003 -2.10242756e-002
      -2.37173941e-002 3.17261629e-002 6.61157295e-002 1.05530326e-003
      2.48433407e-002 -6.15199953e-002 -2.88380533e-002 -4.63431887e-002
      -2.85613202e-002 -2.86373049e-002 -3.64955049e-003 1.85765903e-002
      2.71351617e-002 -1.18161570e-002 -2.44580656e-002 -7.29087926e-003
      -6.15243940e-003 -1.53060434e-002 -2.86643952e-002 6.85464963e-003
      3.29485871e-002 2.96626929e-002 -1.95106082e-002 7.99677428e-003
      -1.52392080e-002 -1.95210632e-002 -6.29194360e-003 1.72312874e-002
      1.80148520e-002 4.84968014e-002 1.60128493e-002 2.37679556e-002
      -2.85242051e-002 -3.07955015e-002 -4.28183787e-002 1.98176876e-002
      -3.76669387e-003 2.70749070e-002 2.87681557e-002 4.36356701e-002
      -2.45777071e-002 -8.22337624e-003 -1.71711463e-002
      -3.40291522e-002 -1.11999130e-002 -9.95298661e-003
      -1.62337366e-002 2.78105401e-002 4.29452993e-002 6.69587031e-003
      -4.72517982e-002 -2.85266079e-002 -6.97795376e-002
      -3.62679847e-002 1.63947660e-002 7.61176692e-003 4.55822796e-003
      1.17153330e-002 7.32838688e-003 5.69328154e-003 -2.09939317e-003
      -2.60618497e-002 3.59456204e-002 -1.88416168e-002 1.33386021e-002
      2.06911582e-002 4.04296070e-003 -2.81614419e-002 2.33196486e-002
      5.65209566e-003 -1.98427998e-002 3.12568955e-002 2.87410952e-002
      8.85760528e-004 -8.75619333e-003 -4.49793078e-002 5.00528924e-002
      -1.52330771e-002 1.80216655e-002 -1.89715568e-002 3.74305993e-002
      2.82291812e-003 4.63302899e-003 5.18584438e-003 1.88267641e-002
      -9.72816069e-003 1.47778299e-002 6.16990868e-003 -1.92638114e-002
      -1.54570527e-002 4.03929837e-002 1.02547482e-002 -1.94725525e-002
      -2.63930820e-002 4.77132536e-002 5.27580082e-002 1.88597981e-002
      -1.46411937e-002 -1.94252972e-002 -2.37137154e-002 1.71960052e-002
      6.46714168e-003 4.02599089e-002 2.11284291e-002 2.37005707e-002
      2.20639687e-002 8.24082550e-003 -1.02944888e-001 3.41517432e-003
      9.53478441e-002 1.00237308e-002 2.95015369e-002 5.55888228e-002
      6.10416234e-002 2.66393144e-002 -4.19028252e-002 -7.39700869e-002
      -5.74583635e-002 1.19755594e-002 -2.35700365e-002 3.97866666e-002
      9.49987918e-002 6.14270940e-002 6.43122941e-002 -5.97902760e-002
      -1.66569814e-001 -7.00739771e-002 3.30781639e-002 -5.94595447e-002
      4.44745570e-002 5.38497344e-002 -1.57850410e-003 3.27468244e-003
      -1.26259374e-002 1.42568629e-003 -3.18454616e-002 2.04876605e-002
      -2.27201413e-002 2.47707926e-002 4.18752208e-002 -6.06995635e-003
      -1.78439580e-002 -2.35185977e-002 2.60330029e-002 -1.96881946e-002
      -1.75383352e-002 -1.83693487e-002 -3.56697254e-002 9.48223323e-002
      2.20705643e-002 3.24037857e-002 -4.04811129e-002 -3.53607163e-002
      -8.22236985e-002 -5.29926382e-002 -1.17550440e-001
      -9.26426146e-003 5.38321361e-002 4.15280648e-002 -1.60087552e-003
      -3.52234021e-002 1.71142854e-002 -5.69754653e-002 -7.61860833e-002
      -1.35281920e-001 -7.35156611e-002 2.03600805e-002 8.27514101e-003
      1.72924865e-002 -1.21070305e-003 7.93768615e-002 1.75956320e-002
      -1.31229106e-002 -2.10641883e-002 -3.44878323e-002
      -9.14413482e-003 3.75411510e-002 2.97494177e-002 -2.77082976e-002
      1.77011248e-002 1.61325391e-002 -2.68122721e-002 -4.34684232e-002
      -4.40327078e-002 1.87569875e-002 2.20562145e-002 1.11261860e-003
      -4.08070302e-003 8.25460181e-002 -7.57494103e-003 -9.09510031e-002
      -1.42650977e-001 -4.71987501e-002 3.60369720e-002 1.14131756e-002
      2.08249036e-002 -3.61819603e-002 2.60354150e-002 8.57377332e-003
      -8.75483900e-002 -1.49736658e-001 -2.42064092e-002
      -1.72076351e-003 2.46427152e-002 5.58246486e-003 -7.36116711e-003
      -1.64620280e-002 -2.36120168e-002 -3.15376520e-002
      -4.46012393e-002 -5.00788428e-002 1.84538420e-002 1.73841771e-002
      2.04659067e-002 3.20082195e-002 -4.48156931e-002 -1.82959493e-002
      1.10051148e-002 -1.68163367e-002 4.16327640e-003 1.39816813e-002
      9.88460612e-003 -7.47059181e-004 -1.46807497e-002 -4.39558271e-003
      -1.53689133e-002 -5.60605526e-002 -1.11154608e-001
      -7.62818158e-002 6.21465743e-002 9.45910215e-002 7.73631707e-002
      3.93135883e-002 -6.86751455e-002 -6.00355715e-002 -1.21178338e-002
      -8.36847201e-002 -1.02707986e-002 2.01752242e-002 2.79534962e-002
      -6.20056689e-003 -3.42716053e-002 -1.03978701e-001
      -1.13380626e-002 1.04820346e-002 -7.38472678e-004 1.51045825e-002
      4.80199652e-003 8.53514895e-002 3.71328704e-002 1.15120402e-002
      3.64337265e-002 -1.27162179e-002 -1.01966783e-002 2.33398359e-002
      5.65423518e-002 -5.33493981e-003 7.65512735e-002 4.52695563e-002
      -7.11049000e-003 -9.37619731e-002 -9.10594314e-002
      -2.80409846e-002 -5.94396219e-002 -5.20230941e-002
      -2.02916819e-003 9.56846401e-002 7.11025298e-002 3.49370204e-002
      2.30348315e-002 -3.22344303e-002 -3.15416493e-002 -3.28826495e-002
      -2.86517981e-002 -3.66479754e-002 5.02125956e-002 1.25089586e-002
      -2.36990545e-002 -3.64950672e-002 -5.43703064e-002
      -4.02261652e-002 1.79101881e-002 -4.12849151e-002 -7.58570060e-002
      7.33804852e-002 -1.70955900e-003 2.04701000e-003 1.30380969e-002
      1.51938964e-002 -6.52105222e-003 4.25972566e-002 -8.29166770e-002
      3.95360345e-004 4.06584032e-002 3.66871022e-002 -3.60294096e-002
      -5.98482415e-002 -7.03242123e-002 -5.44423833e-002
      -2.26337686e-002 -4.67107669e-002 2.48284149e-003 5.13789244e-003
      -1.54891924e-003 -3.83032262e-002 3.47392932e-002 -5.45140728e-002
      1.94542240e-002 2.31493209e-002 -8.12044553e-003 -4.21633758e-002
      6.51127771e-002 5.49953319e-002 5.50968163e-002 1.26963958e-001
      3.76649089e-002 3.26080136e-002 1.68392342e-002 -5.98812290e-002
      -9.77321528e-003 1.80563498e-002 4.30745259e-002 -2.11049151e-002
      1.68168359e-002 2.83377282e-002 4.20572758e-002 9.46020987e-003
      -3.36955339e-002 -3.38096321e-002 1.39174955e-002 -3.92974820e-003
      8.92253965e-003 3.26051265e-002 -1.59540027e-002 5.00189364e-002
      -1.50445271e-002 -5.63236251e-002 -7.80927539e-002
      -4.74563055e-002 -8.95338431e-002 -3.59466821e-002
      -3.61205637e-002 2.38206424e-002 3.03152371e-002 -4.90943231e-002
      -9.56661701e-002 -1.99742019e-002 3.44104320e-002 2.72622593e-002
      -1.86319258e-002 -4.61559035e-002 8.73565860e-003 2.81333700e-002
      3.98715436e-002 -3.68554704e-002 5.00767492e-002 5.43939993e-002
      2.28542369e-002 -1.90775597e-003 4.10533100e-002 1.71635188e-002
      2.46627349e-002 3.04996483e-002 2.31209919e-002 -6.76044077e-002
      -8.18063878e-003 -3.84862982e-002 -2.37336811e-002
      -2.20098738e-002 1.96449384e-002 4.35419492e-002 3.01111229e-002
      -7.97186643e-002 -8.64131097e-003 3.57496850e-002 1.77307855e-002
      -2.66773626e-003 5.20560853e-002 2.23037526e-002 5.18572656e-003
      -1.07298763e-002 -6.04321854e-003 4.16420773e-002 3.15255933e-002
      -1.48129067e-003 3.15803592e-003 4.68611997e-003 6.12241328e-002
      2.99312808e-002 2.14101151e-002 2.79425215e-002 -2.12311540e-002
      5.25569171e-003 2.42332779e-002 -2.02940740e-002 -2.43265671e-003
      -1.79473255e-002 4.23432048e-003 -2.51338743e-002 -5.48105091e-002
      -6.02981308e-003 6.41736202e-003 1.96713656e-002 4.59669344e-002
      -9.69358068e-003 4.17909436e-002 6.50214218e-003 -4.69818152e-003
      7.59936403e-003 1.00615063e-004 1.55361462e-002 -5.06962696e-003
      -1.89306233e-002 -1.75016578e-002 -4.85120341e-002 1.97721086e-002
      -3.21806446e-002 -2.29074415e-002 3.72193265e-003 6.39290316e-003
      2.24768240e-002 -5.50851366e-003 8.05933774e-003 6.21616002e-003
      3.24679376e-003 2.32479107e-002 -4.16725092e-002 -6.92200214e-002
      2.62215305e-002 5.64061627e-002 3.12878634e-003 -3.47156636e-002
      8.50155205e-003 9.98781249e-003 3.29962699e-003 -5.23908921e-002
      2.69053988e-002 1.28686335e-002 4.32395898e-002 -1.17152957e-002
      -2.55556386e-002 -3.11812758e-002 -9.12560802e-003
      -3.05362493e-002 -1.19807227e-002 1.56329423e-002 -2.39363518e-002
      1.69772152e-002 -8.97893123e-003 -3.56397070e-002 -6.42919214e-003
      3.42208263e-003 -9.08347033e-003 5.88691095e-003 -3.01775765e-002
      2.05198545e-002 2.21430026e-002 1.44752041e-002 -3.96825513e-003
      1.32554844e-002 4.46509512e-004 4.77942824e-002 -3.82439047e-002
      -3.11158001e-002 1.45510109e-002 -7.29102315e-003 -4.86809723e-002
      -1.07402494e-002 -5.99882286e-003 9.03032627e-003 4.33472842e-002
      3.95055860e-003 -3.23897488e-002 3.25955227e-002 2.90043391e-002
      -2.19945256e-002 -8.08532815e-003 4.71589342e-002 1.60364509e-002
      1.88587755e-002 -2.33433731e-002 -3.74364876e-003 2.10928228e-002
      7.69836036e-003 -3.93897258e-002 2.79681981e-002 -1.02426307e-002
      1.79266315e-002 7.24870041e-002 7.09146559e-002 -6.89865798e-002
      8.19375366e-003 3.43695655e-003 -4.86372523e-002 5.74775673e-002
      2.48290058e-002 2.37707421e-002 2.54370291e-002 -2.15593576e-002
      -5.54369166e-002 -2.45701382e-003 -2.85812728e-002
      -3.24211046e-002 6.21388592e-002 4.58962517e-003 -4.05043364e-002
      4.17483924e-003 -6.43427372e-002 -4.06427309e-002 4.57220003e-002
      1.57259386e-002 -9.60152782e-003 3.65430675e-002 -2.35906765e-002
      1.36722643e-002 7.86703750e-002 2.46166922e-002 -5.59796095e-002
      2.72456147e-002 3.14131496e-004 4.58935052e-002 3.28653455e-002
      -5.88146597e-003 -4.38913032e-002 3.49419191e-002 -6.02418557e-002
      -2.49090865e-002 -1.84242651e-002 -2.03681812e-002
      -2.49167811e-002 8.94700922e-003 1.63282342e-002 -2.87095029e-002
      1.19847441e-002 -3.08999605e-002 -5.33998534e-002 -1.71285067e-002
      7.05322600e-004 1.77519023e-002 3.88316363e-002 -3.59005183e-002
      -2.64740875e-003 -4.74697724e-003 1.20694162e-002 -4.43200208e-002
      6.10186020e-003 -2.02707406e-002 3.50034125e-002 9.85167846e-002
      1.56814530e-002 -2.82375179e-002 3.58512402e-002 -6.14299290e-002
      -2.95550581e-002 -1.32247256e-002 -3.03992517e-002
      -1.78600438e-002 2.12121326e-002 -4.69463058e-002 5.35710435e-003
      -9.43234004e-003 -4.45363186e-002 -1.73626430e-002
      -1.90657638e-002 -1.45840356e-002 -1.58466641e-002 3.39069329e-002
      -2.73026805e-002 9.25896049e-004 -4.45531448e-003 1.37371533e-002
      3.11862417e-002 -5.41411266e-002 -4.06680852e-002 -5.58088943e-002
      -1.98449418e-002 3.97397345e-003 1.37450909e-002 1.17703257e-002
      1.93421897e-002 -1.96243823e-002 1.09071685e-002 -1.91420186e-002
      -2.42066626e-002 6.52090609e-002 -3.74195650e-002 5.00356369e-002
      1.88811701e-002 -1.20858653e-002 7.22259209e-002 9.73226130e-003
      -5.35295717e-002 -4.01188582e-002 2.25170497e-002 -3.44966426e-002
      3.31307612e-002 6.06059544e-002 7.41155595e-002 5.59299812e-002
      1.07609592e-002 2.02271622e-002 -5.08764002e-004 6.68034926e-002
      1.31128151e-002 3.78587171e-002 4.04863395e-002 2.90159509e-002
      7.91256595e-003 5.49973808e-002 4.36722301e-002 3.95358959e-003
      -4.47767228e-002 -1.34050613e-002 2.84572784e-002 -1.00196311e-002
      -3.01954821e-002 2.34290995e-002 4.13721949e-002 -1.35865621e-002
      4.66999086e-003 2.86699906e-002 -8.92017689e-003 1.50962528e-002
      2.31208205e-002 7.75276078e-003 2.87381075e-002 7.79811442e-002
      3.05101015e-002 -2.07296899e-003 -5.18035181e-002 -4.04427461e-002
      -6.92873169e-003 -2.94908248e-002 -3.71702835e-002 1.43335983e-002
      3.04513127e-002 1.19982129e-002 -3.05278860e-002 -6.19393848e-002
      -7.69794956e-002 -1.10738939e-002 -5.64657748e-002
      -2.62526032e-002 8.33284557e-002 9.03770253e-002 5.27913496e-002
      -3.39531079e-002 -8.12356174e-002 -6.83787465e-002
      -6.51267997e-004 -8.63799006e-002 1.31044863e-002 -1.34560361e-003
      4.17605974e-002 2.33756900e-002 5.64755034e-003 -1.69521512e-003
      -2.66064610e-002 -1.25340349e-003 -4.11260948e-002
      -6.89534992e-002 6.12844266e-002 1.47882596e-001 9.94953439e-002
      5.57542741e-002 1.90550387e-002 3.65273538e-003 4.01570909e-002
      -7.58965686e-002 1.85467582e-002 3.97501066e-002 4.72059138e-002
      2.48802397e-002 -2.14983597e-002 -1.78586468e-002 -6.62725195e-002
      -6.49478361e-002 -1.50960132e-001 -4.27893177e-002
      -1.51206115e-002 4.41356935e-002 -7.16878427e-003 -3.99716273e-002
      -1.28559796e-002 -7.08858594e-002 -5.99311367e-002
      -1.71763033e-001 -5.14074117e-002 -1.49062108e-002 9.47887823e-002
      1.08567588e-001 5.44738658e-002 2.50804368e-002 -2.49595400e-002
      1.51491212e-002 -9.50994194e-002 -5.51852062e-002 6.33334275e-003
      4.78421971e-002 8.68963972e-002 2.94552892e-002 1.20548025e-001
      -2.26148888e-002 1.08656343e-002 -8.26067626e-002 -3.02996989e-002
      1.03639709e-002 -8.62569455e-003 -3.99916656e-002 -3.87167558e-002
      5.91421239e-002 -6.81156144e-002 -1.12300277e-001 -1.67613193e-001
      -3.15314606e-002 -2.31354451e-003 -5.98870441e-002
      -4.41217832e-002 -3.26080769e-002 5.29313572e-002 1.29339565e-003
      -1.17726043e-001 -1.75144941e-001 -3.56639400e-002 1.71760675e-002
      7.63938995e-004 1.78805254e-002 1.86976213e-002 8.76489207e-002
      -8.13714787e-003 -5.26588745e-002 -1.11341350e-001
      -6.85976520e-002 1.60158444e-002 2.71819476e-002 1.11095328e-002
      3.92568521e-002 1.26409277e-001 4.52604108e-002 -1.48890242e-002
      -7.29956329e-002 -2.54103877e-002 -3.08040087e-003
      -7.21902177e-002 -3.31305042e-002 -2.24772878e-002 5.79484366e-002
      5.45023335e-003 -6.40174001e-002 -1.46030813e-001 -7.99392611e-002
      2.24203300e-002 6.30436558e-003 6.25757873e-003 -2.58871131e-002
      -7.42143542e-002 -5.57258055e-002 -2.27148365e-002
      -1.21181123e-001 -2.76157316e-002 5.39428256e-002 -4.57998924e-003
      -1.22193806e-002 1.41978459e-002 6.31803498e-002 2.76118610e-002
      2.37623826e-002 -4.90790084e-002 2.71077757e-003 5.00632115e-002
      5.50241508e-002 4.56425920e-002 3.21994238e-002 5.74842319e-002
      1.44183114e-002 5.63362846e-005 -9.22114775e-002 5.42772375e-003
      -5.01299687e-002 2.50098445e-002 -4.97558899e-003 -2.93003470e-002
      -7.48111755e-002 -4.06562537e-002 9.03664809e-003 -5.84193505e-002
      -8.27799961e-002 -1.71525069e-002 -2.36224546e-003 5.60459914e-003
      -2.64597274e-002 5.98665401e-002 -8.33388604e-003 1.87066849e-002
      -4.02161554e-002 -6.63414970e-002 1.98539961e-002 7.54869878e-002
      3.27362157e-002 8.13799072e-003 4.48884927e-002 3.30899283e-002
      5.96007258e-002 -7.08004311e-002 -5.16004525e-002 -3.16048749e-002
      3.54983695e-002 4.28156517e-002 -6.26632664e-003 1.35979488e-001
      7.94640556e-002 1.14264123e-001 -3.15575972e-002 -6.81155324e-002
      -8.43718648e-003 -1.15131084e-002 -1.86517404e-003
      -2.07868721e-002 -2.69244779e-002 -3.65875363e-002 8.86261347e-004
      -4.75036502e-002 -3.20071951e-002 -5.97842503e-003
      -3.99357863e-002 -1.91374701e-002 1.38948755e-002 5.06346002e-002
      -2.31676083e-002 1.57974958e-002 -4.92462032e-002 -2.34987568e-002
      -3.26265246e-002 -2.56891060e-003 1.52077368e-002 1.10200634e-002
      4.23718765e-002 3.96583304e-002 7.75561705e-002 -5.36083020e-002
      -6.06115945e-002 -9.29828081e-003 8.52638762e-003 1.07176241e-003
      7.73087814e-002 7.02207834e-002 4.24233451e-002 2.32553557e-002
      -5.96774518e-002 -2.04787850e-002 -3.30494829e-002
      -1.94893759e-002 -2.16892138e-002 -2.26393137e-002
      -1.13822669e-002 -3.31574939e-002 -1.50006572e-002
      -4.97146212e-002 -4.72692065e-002 -5.97157478e-002
      -6.09279051e-002 -6.63957223e-002 -5.85894361e-002
      -1.29779316e-002 -9.85753164e-003 -4.28305753e-002
      -6.42599985e-002 -5.23910634e-002 -2.38977652e-003 6.31521791e-002
      5.46748266e-002 6.55922964e-002 5.97671680e-002 4.96152341e-002
      -3.17452475e-003 -3.59667055e-002 -5.13008330e-003 7.24692922e-003
      2.62314193e-002 5.65386750e-002 4.71544499e-003 5.60971722e-002
      4.18580435e-002 -4.35836129e-002 -5.48987947e-002 -1.33368941e-002
      -3.52049693e-002 -3.23486105e-002 -7.63067324e-003
      -5.85401105e-003 -7.43625639e-003 7.84838013e-003 3.80060612e-003
      -1.70337595e-002 -3.11735068e-002 2.77382638e-002 -1.43704684e-002
      1.76004954e-002 -1.76031124e-002 6.75616367e-003 -8.20715539e-003
      -1.52423875e-002 -5.09016439e-002 9.87659488e-003 6.53595328e-002
      -5.78048732e-003 1.91134643e-002 3.53370025e-003 -8.94540548e-003
      1.64607447e-002 -5.22579476e-002 -4.21690159e-002 5.57525381e-002
      -2.31405348e-002 -5.82324900e-003 -1.33094797e-002
      -4.58486527e-002 -4.71914150e-002 -2.77524926e-002
      -7.36713037e-002 -1.24972165e-001 3.02758776e-002 1.79763548e-002
      -2.80151758e-002 3.08192577e-002 1.48438029e-002 -3.52737983e-003
      2.45483685e-002 -4.22449829e-003 -5.58454394e-002 2.39990689e-002
      -2.14446764e-002 -1.74729098e-002 -6.29364513e-003
      -4.15730737e-002 -5.70033230e-002 -3.10635585e-002 7.36456085e-003
      -4.46711779e-002 -4.48734462e-002 -1.20647666e-004
      -1.57719906e-002 1.68468766e-002 -3.11584435e-002 -3.97597626e-002
      -2.56795716e-002 -5.26134251e-003 -8.40293914e-002 4.73375991e-003
      3.53481844e-002 -6.47565201e-002 1.93353777e-003 -6.14386611e-002
      -5.89776523e-002 -4.76253927e-002 -2.38676183e-002 1.67854987e-002
      2.35580914e-002 -1.58386976e-002 1.67897567e-002 2.71540247e-002
      -6.99774325e-002 -6.94400147e-002 -3.69030312e-002
      -2.13389192e-002 -5.30314520e-002 -3.56513448e-002 8.68734845e-004
      -1.49618778e-002 3.52067985e-002 -1.59989055e-002 -2.32070759e-002
      -2.77929027e-002 -3.00789215e-002 -3.12786885e-002
      -1.66037735e-002 2.31535528e-002 -3.60480137e-002 -3.13970707e-002
      -5.04068397e-002 -2.89559960e-002 -3.28428708e-002
      -4.89576794e-002 7.01395888e-003 2.64410861e-002 1.51415160e-002
      -3.44237722e-002 -6.45456742e-003 8.67686700e-004 -1.75856557e-002
      -2.31651738e-002 -2.25795899e-002 -8.66469368e-003 7.18512386e-002
      -4.39175218e-002 -3.76800844e-003 9.03153792e-003 -6.74118381e-003
      -6.41199797e-002 3.45635079e-002 -1.18797487e-002 -1.12765897e-002
      -4.23105285e-002 1.56928487e-002 -6.12104684e-003 1.44024594e-002
      -4.69875429e-003 -1.40133770e-002 -2.10883021e-002
      -3.71314585e-003 1.60697196e-002 5.04740998e-002 3.42850685e-002
      -2.04953365e-002 1.39238453e-002 3.13798673e-002 -4.99144159e-002
      1.73009243e-002 6.63296226e-003 1.74894091e-002 3.28324474e-002
      4.10648398e-002 4.64143418e-003 2.55304202e-002 1.22256530e-003
      -1.77088603e-002 -1.07785575e-002 6.67549204e-003 -4.15653922e-003
      2.61569340e-002 -1.34220179e-002 -1.25754038e-002 -9.51890834e-003
      -4.37334739e-003 2.08951123e-002 -9.99194197e-003 2.69107558e-002
      4.01733853e-002 3.45364138e-002 -4.29660566e-002 -4.08642739e-002
      -2.38521378e-002 3.74606512e-002 4.93401699e-002 1.31237684e-002
      5.44232316e-003 2.32361548e-004 -4.27041687e-002 3.01276967e-002
      -2.02557277e-002 -1.27133988e-002 -2.58923098e-002
      -3.27185243e-002 2.27234866e-002 1.03220316e-002 -4.42542918e-002
      1.15153780e-002 1.60178021e-002 -7.30610713e-002 -5.42100966e-002
      2.84337271e-002 -3.73952538e-002 4.37632427e-002 1.12838577e-002
      -7.09920675e-002 1.89048592e-002 -1.58143640e-002 1.02931214e-002
      -6.05834275e-003 3.76680382e-002 7.14435577e-002 5.34517597e-003
      -1.59400906e-002 3.66946571e-002 -5.01500331e-002 -2.33031251e-002
      3.46239991e-002 -1.19579127e-002 1.74959889e-003 -2.03705989e-002
      -2.49559954e-002 -4.82311705e-003 7.69166043e-003 -3.04488651e-002
      5.59469759e-002 -2.90764384e-002 -5.50873810e-003 2.94933692e-002
      4.87020472e-003 -1.74326189e-002 1.73160788e-002 3.92106734e-003
      4.38986123e-002 2.17461470e-003 3.27096209e-002 2.59160567e-002
      1.23610133e-002 -3.74323465e-002 -1.75450202e-002 -6.31514145e-003
      -1.55018419e-002 9.67276096e-003 8.03621428e-004 3.53870280e-002
      7.20696943e-003 -5.41307824e-003 5.24204858e-002 -1.66749334e-004
