<?xml version="1.0"?>
<opencv_storage>
<my_svm type_id="opencv-ml-svm">
  <svm_type>C_SVC</svm_type>
  <kernel><type>LINEAR</type></kernel>
  <C>5.0000000000000000e-001</C>
  <term_criteria><epsilon>1.1920928955078125e-007</epsilon>
    <iterations>1000</iterations></term_criteria>
  <var_all>3780</var_all>
  <var_count>3780</var_count>
  <class_count>6</class_count>
  <class_labels type_id="opencv-matrix">
    <rows>1</rows>
    <cols>6</cols>
    <dt>i</dt>
    <data>
      0 1 2 3 4 5</data></class_labels>
  <sv_total>15</sv_total>
  <support_vectors>
    <_>
      -4.03693840e-002 4.72837547e-003 2.96225082e-002 5.34626842e-002
      3.79538834e-002 -4.77690622e-002 -1.21376070e-003 -1.10291131e-002
      -5.78724220e-002 -1.44855995e-002 -1.58820041e-002
      -1.31221581e-002 4.86515872e-002 5.84568083e-002 -1.70061998e-002
      1.54031701e-002 -1.46706831e-002 -6.76122168e-003 -9.97553468e-002
      4.05553430e-002 1.90502387e-002 9.42129046e-002 5.68012102e-003
      7.00145885e-002 -1.06010465e-002 -1.85981132e-002 -1.17468067e-001
      -1.49722453e-002 3.43360491e-002 4.99990955e-003 8.36168900e-002
      3.12186182e-002 -3.77387553e-002 6.85503036e-002 3.42758819e-002
      6.22696057e-003 -2.01356541e-002 -4.76420000e-002 -5.66833206e-002
      9.70180333e-003 3.49142663e-002 -2.49486957e-002 1.32530108e-002
      -1.64640844e-002 4.54232134e-002 5.25924638e-002 4.02003191e-002
      -1.07631879e-002 -2.60718409e-002 -6.80124536e-002
      -8.69741738e-002 -5.80373928e-002 3.90666956e-003 4.09855954e-002
      1.78560644e-004 2.04419009e-002 -5.75727075e-002 5.88996373e-002
      2.64836624e-002 -1.64273120e-002 4.29213122e-002 -3.94752808e-002
      3.83386239e-002 3.14443372e-002 4.37252522e-002 -2.00176202e-002
      -4.31384146e-002 -4.75830287e-002 -2.74384022e-002
      -4.27121483e-002 -5.66276535e-002 4.44457084e-002 5.68531603e-002
      4.05553915e-002 3.22583541e-002 -6.80002049e-002 -7.18106925e-002
      -1.19200855e-001 -3.58835496e-002 -7.68603757e-002 4.39557526e-003
      4.05155048e-002 3.63976695e-002 5.70992865e-002 -3.47226188e-002
      6.10530898e-002 -1.83109324e-002 4.41688411e-002 -3.56352031e-002
      -1.86705980e-002 5.90983545e-003 -3.85397952e-003 2.45531257e-002
      -2.54690442e-002 -3.90221663e-002 -1.20359622e-001
      -2.54591480e-002 -1.26742907e-002 -6.11902587e-002
      -1.43433008e-002 6.37185723e-002 5.01011312e-002 4.92038876e-002
      1.07587241e-002 -3.34130898e-002 4.56554368e-002 5.23201115e-002
      -4.47576903e-002 -2.63866428e-002 -4.95634265e-002
      -3.26667018e-002 4.70562140e-003 8.99674445e-002 9.61357802e-002
      3.08820568e-002 -3.19886878e-002 -3.80570292e-002 -3.93071724e-003
      -1.74489990e-001 -6.94381595e-002 2.09694225e-002 2.51076128e-002
      4.83185146e-003 -2.06628442e-002 -6.82474300e-002 1.36156788e-003
      -1.05708698e-002 6.97212145e-002 -4.31287810e-002 9.56666074e-004
      -2.41433512e-002 -1.84967965e-002 2.60973927e-002 -6.09145220e-003
      -8.09670705e-003 -2.49220748e-002 -4.09769313e-003
      -1.85195394e-002 6.50641788e-003 3.51803154e-002 5.55105682e-004
      -2.14123633e-002 -3.24073024e-002 -2.27039028e-002 7.79098226e-003
      -1.36824667e-001 -1.03047164e-002 3.32215577e-002 2.75338646e-002
      1.18821971e-002 -2.63917521e-002 -2.84497812e-002 3.01362481e-002
      -2.95740436e-003 -1.10544212e-001 -4.35818695e-002
      -1.70148015e-002 -6.00770041e-002 -4.51378003e-002
      -5.65775819e-002 -5.71750058e-003 -4.26814333e-002
      -7.03581423e-003 -3.58496383e-002 5.43801449e-002 1.79847833e-002
      1.23598725e-002 3.72445509e-002 -1.52171496e-002 8.91100150e-003
      -7.27690116e-004 6.67737145e-003 7.01754019e-002 3.75589952e-002
      -6.86558941e-003 1.12652844e-002 2.61600362e-003 1.70518383e-002
      5.91087341e-002 -4.00891565e-002 3.89197879e-002 -7.47264177e-002
      -7.31308535e-002 -3.95425335e-002 -1.13186270e-001
      -1.08462507e-002 3.09409890e-002 5.59485480e-002 2.53969729e-002
      6.15699450e-003 -9.38631445e-002 -5.35210408e-002 3.79350297e-002
      -5.50694577e-003 5.30981421e-002 4.78421450e-002 -8.47716071e-003
      -1.51484916e-002 5.45248650e-002 1.23195283e-001 1.88802201e-002
      6.97144587e-003 -5.77496178e-002 3.43401395e-002 5.94901107e-002
      7.81075880e-002 3.25555764e-002 4.76429127e-002 4.96048927e-002
      1.46342376e-002 2.85208523e-002 -9.76282880e-002 4.09374014e-002
      1.03704132e-001 6.92602247e-002 4.43608388e-002 -1.27596818e-002
      -4.58011366e-002 -1.00578358e-002 2.47743186e-002 3.56041081e-002
      -2.84320768e-002 -3.02135870e-002 -5.81207722e-002
      -2.70688683e-002 -4.10360377e-003 -4.81156483e-002
      -4.33013216e-002 2.14782953e-002 3.03471908e-002 -3.83410528e-002
      -1.53778470e-003 -1.10875908e-002 -4.77836840e-002 1.07476607e-001
      4.76061180e-002 5.04193828e-002 1.75374583e-003 -4.04155180e-002
      -7.31350780e-002 6.96402881e-003 6.31287396e-002 9.69629884e-002
      1.29176930e-001 5.90907782e-003 3.64706740e-002 -2.75636893e-002
      4.51838970e-002 -2.19296198e-002 1.16365589e-002 7.99732208e-002
      5.44309095e-002 -4.86789756e-002 -4.77649234e-002 1.76582504e-002
      1.90797634e-002 -2.48725712e-002 -2.70643756e-002 4.67353035e-003
      -4.78274226e-002 -6.19871952e-002 -2.39762682e-002
      -4.97109033e-002 2.25847047e-002 -3.40085328e-002 -3.50608155e-002
      -1.64671950e-002 -3.85122485e-002 -3.08758318e-002
      -7.75822029e-002 1.66138813e-001 -1.12940499e-003 4.24342006e-002
      2.58847140e-002 9.48320106e-002 1.97643731e-002 7.30302036e-002
      9.49469507e-002 7.64588490e-002 6.40720949e-002 -1.56154241e-002
      4.96651530e-002 5.86158186e-002 2.39986647e-002 -3.13369278e-003
      3.78129818e-002 2.70359218e-002 3.10663134e-002 6.12859800e-002
      -2.65161656e-002 -1.06307035e-002 -4.67294604e-002
      -2.94480771e-002 -7.48513639e-002 2.65304436e-004 3.78353009e-003
      1.16617151e-003 1.17528833e-001 5.75025566e-002 4.51066010e-002
      8.91932994e-002 2.06040405e-002 -7.77692646e-002 -1.46529330e-002
      -3.20315324e-002 5.30695952e-002 -3.22187208e-002 -4.72285002e-002
      1.70972031e-002 -3.71925067e-003 -3.39987688e-002 -7.96080083e-002
      3.37508693e-002 8.94406065e-003 -6.08544610e-002 1.14019558e-001
      3.08610890e-002 3.75650339e-002 7.26912618e-002 8.11696276e-002
      2.15438940e-002 8.94479454e-002 7.23760575e-002 3.34854722e-002
      3.84944640e-002 7.43875280e-003 1.27264718e-002 4.81061041e-002
      1.21937844e-003 5.25783598e-002 7.23739713e-003 2.23223865e-002
      4.48373966e-002 -1.50831125e-003 -8.34462717e-002 -3.09012178e-002
      1.76469050e-002 3.81519794e-002 7.61617050e-002 9.70531255e-002
      5.88436835e-002 -5.89417480e-003 -1.75916252e-003 7.83526152e-002
      6.17338195e-002 5.13537079e-002 7.53378589e-003 1.50132313e-001
      6.08073957e-002 8.25171992e-002 -1.23114381e-002 -3.76811102e-002
      7.19228536e-002 5.11320271e-002 2.81061456e-002 7.20210886e-003
      4.57512178e-002 6.88432008e-002 4.75411527e-002 -1.13187516e-002
      -6.56437362e-003 -7.66037777e-002 -1.28039252e-002 2.53469422e-002
      1.78951360e-002 -5.76245710e-002 3.31472643e-002 6.96373964e-003
      -5.98171875e-002 9.84006561e-003 -7.61831775e-002 -1.18383197e-002
      2.22693514e-002 5.11014238e-002 -1.64906494e-002 5.18611865e-003
      -1.12126092e-003 2.77670640e-002 3.21737118e-002 9.58779920e-003
      6.13083951e-002 3.70629467e-002 -3.27314585e-002 -9.29090306e-002
      -3.81167270e-002 -6.29976690e-002 3.91087309e-002 1.22972734e-001
      5.28711639e-002 5.37754484e-002 -1.03069870e-002 2.62042787e-002
      1.54567482e-002 -1.36901457e-002 -5.24299331e-002 1.47667572e-001
      -9.26701259e-003 -1.24763109e-001 1.37650631e-002 2.40669940e-002
      -3.19461338e-002 -3.53038125e-002 -1.26919029e-002 4.11891472e-003
      -8.10325332e-003 5.35707846e-002 -7.34480247e-002 6.28215894e-002
      3.88069116e-002 -5.08567169e-002 -5.81575893e-002 -2.84417309e-002
      -2.12915596e-002 -1.67977512e-002 4.31382917e-002 1.08413035e-002
      5.26806079e-002 -1.34818517e-002 -5.99467307e-002 -1.01821860e-002
      2.49948949e-002 -2.04377268e-002 6.38240650e-002 1.11800149e-001
      -2.74550933e-002 6.86221197e-002 1.51008470e-002 -6.13743514e-002
      -4.88302745e-002 -1.52244093e-002 4.34419513e-003 3.94823253e-002
      1.13494948e-001 -4.67589498e-002 4.54830751e-002 1.39919175e-002
      -1.49515904e-002 3.95717211e-002 5.19151613e-002 -6.94121839e-003
      -1.10218711e-002 1.30708824e-004 -9.45653468e-002 -5.67977801e-002
      2.18514819e-002 -1.53743625e-002 -7.29580643e-003 3.44919302e-002
      -2.12482791e-002 -2.42380034e-002 6.71823770e-002 2.06892006e-002
      3.49370316e-002 5.62429021e-004 -6.85437992e-002 1.83949992e-002
      -7.70994375e-005 2.00965591e-002 6.93432614e-002 -3.91569622e-002
      -5.31521738e-002 2.25415081e-002 4.63258773e-002 1.27686843e-001
      -1.00511089e-002 -3.44413966e-002 6.44227862e-002 2.58927140e-002
      -4.42974381e-002 5.82954055e-003 -1.69304985e-004 3.60677540e-002
      4.41615246e-002 -2.76934020e-002 -8.11411627e-003 -4.29997556e-002
      -2.78408360e-002 -1.33922249e-001 -1.83181800e-002
      -7.51149729e-002 1.14938337e-002 4.25028615e-002 -6.46605492e-002
      -7.39267841e-002 -6.52081668e-002 -5.50936200e-002
      -3.28425206e-002 1.39345080e-002 3.71554084e-002 3.65759432e-002
      3.04584019e-002 -9.16548539e-003 -8.86184070e-003 6.81722239e-002
      9.48301889e-003 -5.19821756e-002 -6.27817994e-004 -2.28624674e-003
      -2.01276876e-003 4.43075337e-002 -9.91388187e-002 -3.89404409e-002
      3.14892270e-002 -8.15817714e-002 -8.32264721e-002 -4.62113470e-002
      -7.16774464e-002 4.63485904e-003 4.63614725e-002 6.00850862e-003
      -9.87249613e-002 -2.98409574e-002 -2.42878571e-002 1.73857380e-002
      -4.36690450e-002 2.13041101e-002 4.35660034e-003 3.60711105e-003
      -1.73457444e-003 -7.63835618e-003 -2.21938491e-002 6.31572232e-002
      3.66814388e-003 3.08639323e-003 -4.64294516e-002 -2.42896937e-002
      7.36315176e-002 -4.41837758e-002 -2.58125421e-002 6.83626831e-002
      4.25482960e-003 -1.33372620e-002 4.45654914e-002 4.37341332e-002
      -4.62886132e-002 -1.02826348e-002 -7.07723275e-002
      -3.76754215e-005 9.18649510e-002 3.48030403e-002 -7.46527463e-002
      -3.56029160e-002 6.74490118e-003 4.07286026e-002 -3.76216434e-002
      8.90035406e-002 -2.61610597e-002 -4.33581732e-002 -1.31724611e-001
      2.82335654e-002 -2.96530053e-002 -2.82526482e-002 3.08876373e-002
      -7.53988139e-003 -6.90565854e-002 6.99751638e-003 2.83786021e-002
      5.46370074e-002 2.93470663e-003 -3.44104320e-002 -6.02197507e-003
      2.04248428e-002 3.60156526e-003 3.10476553e-002 -2.41067410e-002
      -3.38114761e-002 -4.09726538e-002 5.41756973e-002 2.15736520e-003
      -2.15420667e-002 -1.62239075e-002 -2.37251054e-002
      -2.42211297e-002 -2.19918657e-002 -4.07046732e-003
      -4.34187427e-003 -5.76882251e-003 -1.11395521e-002
      -3.14452462e-002 3.14984769e-002 1.69515461e-002 -2.04893388e-002
      1.12668062e-002 -3.93707305e-002 -1.17343413e-002 6.59188107e-002
      1.70112681e-002 -3.02139466e-004 -3.39443237e-002 -7.98153654e-002
      2.17393134e-002 -1.08558014e-002 -8.22576582e-002 -3.19211483e-002
      2.74456479e-002 -2.83991750e-002 -1.22966450e-002 1.22261727e-002
      2.36711014e-004 1.08307332e-001 4.86607384e-003 -2.75687519e-002
      -7.33515695e-002 -5.22996187e-002 2.25949399e-002 -2.55807899e-002
      8.52512836e-004 -6.71869051e-003 4.92602177e-002 -5.31182718e-003
      -7.25027174e-002 -9.52677652e-002 -1.32346794e-003
      -2.33821180e-002 -6.16039499e-004 4.79259901e-003 -3.38409021e-002
      -4.02411409e-002 1.05313270e-003 -1.49908960e-002 -1.05802558e-001
      -2.71858405e-002 8.28512665e-003 3.94165888e-002 5.11875153e-002
      -1.90689955e-002 -6.34801341e-003 4.48447727e-002 4.18049693e-002
      -6.42913133e-002 2.82783844e-002 3.35240271e-003 -1.16800773e-003
      1.86490081e-002 5.21631213e-004 1.84410010e-002 2.26760693e-002
      -1.03469398e-002 -1.33644976e-002 -4.11693566e-002
      -6.56625256e-002 6.34082109e-002 1.11228856e-003 3.52243632e-002
      1.92269441e-002 8.55041593e-002 5.41797392e-002 3.11860647e-002
      1.38961636e-002 4.24318202e-002 -2.65944581e-002 -1.17797898e-002
      -6.18742257e-002 -7.87069872e-002 3.26131098e-002 2.32824851e-002
      1.27446954e-003 1.15204334e-001 2.31169052e-002 -5.55840358e-002
      -1.71759253e-004 7.20942169e-002 -4.83980104e-002 -4.35358807e-002
      3.33734462e-003 4.07740436e-002 -9.65290330e-003 -4.40676175e-002
      -1.22881131e-002 -1.24322083e-002 -2.05706153e-002
      -5.22490591e-002 1.19883968e-002 4.09264639e-002 1.94183923e-002
      -2.87545454e-002 -1.41483620e-001 -1.24040045e-001 3.24523114e-002
      -1.80523954e-002 -4.13821489e-002 -6.52206913e-002
      -4.85886782e-002 -3.49541567e-002 1.69125587e-001 3.83245610e-002
      -8.38095788e-003 6.43976685e-003 2.34278310e-002 -1.42071480e-002
      -4.31004725e-002 -4.72559454e-003 7.56242573e-002 8.38224441e-002
      8.69221389e-002 5.22011891e-003 -8.66227131e-003 6.08910481e-003
      -4.25055660e-002 -1.99781451e-002 -1.70448218e-002 1.58708729e-002
      4.35344428e-002 -9.96979997e-002 -5.66207990e-002 -3.83141451e-003
      -5.63392648e-003 -3.14356387e-002 -4.82086204e-002
      -3.75465155e-002 6.21272251e-003 -1.02535868e-002 -7.88303316e-002
      -6.92155808e-002 1.42549006e-002 -6.40268400e-002 4.70159948e-002
      -2.03994848e-002 -2.83955578e-002 -6.79160804e-002 6.58175647e-002
      7.15032294e-002 5.64800575e-003 -3.17900702e-002 -1.07669264e-001
      -4.14904654e-002 5.42078204e-002 3.05175409e-002 3.11776754e-002
      5.73972017e-002 2.65645403e-002 -1.00531569e-002 -6.08555637e-002
      -9.45158154e-002 5.14016598e-002 1.35956496e-001 6.29794374e-002
      4.96157818e-002 -3.86777744e-002 -7.27099879e-003 -5.99499755e-002
      -2.34430805e-002 -1.21059641e-001 -8.19435623e-003
      -3.42301046e-003 -3.14415470e-002 -8.03250596e-002 7.19214417e-003
      2.25480348e-002 -5.24156552e-004 -2.83030234e-002 -4.56559360e-002
      1.01924576e-001 4.58498150e-002 -4.02345285e-002 -6.30529001e-002
      7.32803568e-002 -1.32945506e-002 -4.33234610e-002 -5.77755384e-002
      -9.26688313e-002 -6.10271581e-002 4.01572771e-002 1.20145064e-002
      5.40272333e-002 5.10909818e-002 1.34802870e-002 2.23693950e-003
      -1.32997683e-003 -5.88160120e-002 -1.80709306e-002 2.47568847e-003
      4.26410511e-002 -3.32002877e-003 1.50491893e-002 -4.75663170e-002
      -5.55750243e-002 -1.56812705e-002 -2.96464339e-002 8.28020554e-003
      -3.17161866e-002 -4.52760980e-002 -4.30171490e-002 9.51355498e-004
      -1.23452116e-002 -4.57595848e-003 4.89311665e-002 1.22876987e-002
      1.37739191e-002 -5.38558140e-002 2.12744791e-002 -4.55263257e-002
      5.66301942e-002 5.39265200e-002 4.15362529e-002 4.86861877e-002
      2.80657150e-002 2.39620339e-002 1.93900038e-002 3.42210270e-002
      -1.74428336e-002 -4.22772691e-002 1.57871619e-002 3.69684324e-002
      9.49573703e-003 -1.73508972e-002 7.18808500e-003 -2.67950054e-002
      -4.34284545e-002 -1.35507762e-001 -3.77702676e-002
      -4.47181351e-002 2.50270106e-002 3.92450839e-002 5.45736440e-002
      5.27568236e-002 -1.14539796e-002 2.11926270e-002 4.26755752e-003
      -3.30643766e-002 -2.98615228e-002 6.74580932e-002 1.10784667e-002
      4.78203557e-002 2.17725635e-002 -3.01175248e-002 -2.36196201e-002
      1.90076232e-002 -4.72651906e-002 -4.02061455e-002 -1.37147717e-002
      -3.83047312e-002 -5.75809218e-002 -2.09240671e-002
      -5.40451370e-002 -5.83530441e-002 -1.17764249e-001 8.67582187e-002
      -2.72165872e-002 8.28023348e-003 5.13571724e-002 -4.47938479e-002
      1.84372310e-002 4.75203916e-002 4.42154184e-002 7.70895481e-002
      -8.47313255e-002 -7.46342614e-002 2.60280501e-002 -5.75120784e-002
      2.30113938e-002 6.31444901e-003 -5.85615560e-002 -2.30069160e-002
      -6.12482503e-002 3.62205282e-002 7.69080594e-002 1.02918580e-001
      -2.00197585e-002 -1.07226133e-001 -2.46708095e-002
      -1.34930471e-002 -4.43748794e-002 3.37122418e-002 -5.89494547e-003
      -2.66607618e-003 -2.83212657e-003 1.38630858e-002 -1.42864212e-001
      1.17370337e-001 5.53544983e-002 7.29143545e-002 4.10540402e-002
      -3.43839116e-002 1.95255838e-002 1.40827959e-002 5.86284660e-002
      4.10573371e-002 3.29486877e-002 -1.95382489e-003 2.73843929e-002
      -8.85016471e-003 8.92658904e-003 3.03425398e-002 -2.42463034e-002
      -4.68544895e-003 -1.16359890e-001 2.31201369e-002 -3.64848413e-002
      -5.56677133e-002 -3.10131423e-002 -8.13044142e-003 1.21687846e-002
      -1.15489550e-002 5.72552420e-002 9.76921394e-002 4.24053818e-002
      -4.46280949e-002 -3.75609733e-002 -9.64587182e-002
      -9.81288478e-002 9.04025976e-003 -7.51116220e-003 2.81326636e-003
      -6.09813407e-002 -9.34446827e-002 -7.86047131e-002
      -5.01501933e-002 -5.24762310e-002 -1.11863814e-001 4.83937822e-002
      1.87247191e-002 -4.43004481e-002 5.29754572e-002 1.62279811e-002
      -2.46406216e-002 -1.35725858e-002 -7.63311461e-002
      -6.87943920e-002 2.03859676e-002 -2.32343562e-003 -1.88616514e-002
      -5.19231074e-002 -4.83174324e-002 -4.19321842e-002
      -1.35734128e-002 -1.05477177e-001 -6.29904913e-003 9.91026536e-002
      2.46242285e-002 -2.42676027e-002 5.54184355e-002 -1.69265606e-002
      6.91281632e-002 5.70298433e-002 -2.42882390e-002 -6.43775165e-002
      5.60505688e-002 3.53853777e-002 -2.61320956e-002 3.59824300e-002
      1.62704512e-002 1.37251411e-002 -3.73187698e-002 -1.19691864e-001
      4.03365865e-002 2.16693524e-002 2.52383687e-002 -3.55024487e-002
      -9.68651474e-002 -5.29919863e-002 1.53876329e-003 -4.98673357e-002
      -3.12797446e-003 2.81260796e-002 3.79731506e-002 -1.15661444e-002
      4.49015647e-002 6.57992391e-003 2.97104008e-002 3.66385579e-002
      2.49039400e-002 -6.00486472e-002 3.70183140e-002 -4.01991121e-002
      -1.23592958e-001 1.08781829e-002 -9.15228203e-002 -4.36956845e-002
      -8.48396588e-003 -4.45516333e-002 1.82600692e-002 5.16660437e-002
      3.91552262e-002 5.21482490e-002 1.30821485e-002 -1.12374417e-001
      -9.28400550e-003 -1.10676978e-002 2.86516771e-002 9.36948508e-002
      -4.44503799e-002 -3.23396362e-002 3.82904112e-002 2.97364723e-002
      4.21915725e-002 -1.63230263e-002 -4.34338078e-002 5.04564494e-002
      -2.57333815e-002 -7.57003576e-003 3.02180648e-003 4.02217135e-002
      5.05890958e-002 -3.78536731e-002 -1.72737706e-002 1.45442421e-002
      2.11402290e-002 2.11298410e-002 -6.04723580e-002 2.98367403e-002
      9.47913229e-002 2.88779829e-002 3.14916000e-002 2.13672370e-002
      -2.21051574e-002 -3.03210244e-002 -1.09068658e-002
      -1.80203915e-002 -5.39167337e-002 1.05449352e-002 6.19251374e-003
      3.82137438e-003 2.14960072e-002 -2.00444227e-003 4.73750979e-002
      -2.88097095e-002 1.98942889e-002 -5.00675738e-002 1.09439599e-003
      -1.04478449e-002 4.20709178e-002 -5.23461634e-003 -1.78007018e-002
      -5.09860925e-003 -3.40627879e-002 -9.14266482e-002
      -8.63035247e-002 4.95811477e-002 6.09025098e-002 4.02144752e-002
      4.76928055e-002 7.01390998e-003 -3.39814611e-002 1.68627631e-002
      -2.93649193e-002 -6.45909086e-002 3.88063863e-002 4.56378758e-002
      4.03777361e-002 -5.33642760e-003 4.71623838e-002 -4.38352264e-002
      -6.31205365e-002 -2.17633285e-002 -6.16338514e-002
      -2.02151611e-002 -4.74148132e-002 7.66712874e-002 4.56350446e-002
      -1.79435331e-002 4.18438166e-002 1.65509582e-002 -3.09377778e-002
      -3.07327751e-002 4.55906950e-002 -4.66590486e-002 -6.38071448e-002
      8.37509288e-004 -2.96916813e-002 5.58587126e-002 -3.94605696e-002
      1.73166785e-002 1.42268697e-002 6.43090084e-002 -9.93551966e-003
      8.36993381e-002 1.72589719e-002 -9.75902006e-003 -7.46825412e-002
      -2.30367947e-002 6.45870119e-002 5.11501431e-002 1.48458397e-002
      -2.52731740e-002 -6.12710565e-002 -8.15147255e-003 5.84848085e-003
      -8.06641672e-003 3.98906991e-002 1.62849315e-002 1.11480402e-002
      4.31533577e-003 -3.48438844e-002 1.38785746e-002 -4.49364223e-002
      2.36477368e-002 2.09987238e-002 1.07317837e-002 5.74534275e-002
      3.56098637e-002 1.30838677e-002 -6.39706179e-002 -6.43996596e-002
      -7.23699061e-003 6.05126880e-002 3.89992818e-002 2.68220920e-002
      -5.31356372e-002 1.81609094e-002 -2.73595992e-002 -2.15069354e-002
      4.91058379e-002 3.91248129e-002 3.28367539e-002 4.00851518e-002
      -5.84993772e-002 5.91388233e-002 2.39917021e-002 -1.60041649e-003
      -6.06495664e-002 -2.38578562e-002 5.46697825e-002 8.30091834e-002
      8.64269584e-002 6.88593090e-002 2.15448905e-002 9.70087294e-003
      3.18259676e-003 -1.28119485e-002 8.33150558e-003 8.21792930e-002
      4.31876816e-002 -6.90088514e-003 -3.15394104e-002 7.76630547e-003
      2.67653763e-002 -5.10710366e-002 -2.94409785e-002 7.88609982e-002
      5.23700342e-002 1.35333017e-002 -4.00327332e-002 -9.24380794e-002
      1.80673897e-002 7.46252462e-002 2.91019678e-002 -2.91303429e-003
      3.74401547e-002 1.65411718e-002 6.96703643e-002 9.02824849e-002
      2.88756602e-002 -1.20322453e-002 4.72375751e-002 -8.01712200e-002
      -4.19530459e-003 7.91323185e-002 -4.02496085e-002 2.61100549e-002
      5.88110238e-002 -1.56437419e-002 1.45135792e-002 7.72655476e-003
      -2.14891881e-002 -3.61400028e-003 6.67053685e-002 4.83156033e-002
      2.62144413e-002 4.40117083e-002 -1.66819915e-002 -4.97922748e-002
      -6.38280958e-002 1.96753033e-002 1.00673027e-002 6.21207319e-002
      -2.54118890e-002 7.45133385e-002 4.44311947e-002 1.27353398e-002
      1.42385550e-002 8.04509968e-003 -5.37653305e-002 7.12529896e-003
      3.60385217e-002 -3.27312462e-002 2.43170708e-002 1.01753451e-001
      -4.35454510e-002 -5.98846637e-002 -2.67117880e-002
      -3.40847112e-002 -4.51149233e-002 2.73287669e-002 -4.32735272e-002
      6.00707531e-002 -9.11762193e-003 -7.50989467e-002 1.35479746e-002
      -3.50221507e-002 -7.42914388e-003 1.71656013e-002 5.78326546e-002
      -1.25939921e-002 3.99107337e-002 1.43985432e-002 4.43922430e-002
      6.86734123e-003 -1.16200060e-001 -8.34255219e-002 3.27086337e-002
      -1.15276931e-003 -6.44096285e-002 8.89549218e-003 1.27236708e-003
      3.67429033e-002 -3.65709215e-002 -5.67933246e-002 -5.04879802e-002
      -2.60557085e-002 4.69938368e-002 -3.20908763e-002 1.05047539e-001
      -1.35561610e-002 4.09678556e-003 -2.49172971e-002 -1.73898920e-001
      -1.43275827e-001 -1.04068704e-001 -1.31889537e-001
      -2.79625468e-002 3.08023151e-002 1.47728734e-002 1.00386523e-001
      5.85172623e-002 -8.10009837e-002 -3.54212709e-002 1.05573982e-002
      3.87402810e-002 -2.20881701e-002 1.52319716e-002 4.24262062e-002
      8.85046571e-002 -1.60204154e-002 -1.47662023e-002 2.13192403e-002
      4.77882363e-002 -3.27739827e-002 5.66892885e-002 5.65259643e-002
      4.61327955e-002 -1.10107753e-002 -4.38133143e-002 -1.38694793e-001
      -5.81173338e-002 -7.41387308e-002 -9.30074304e-002
      -2.74919514e-002 -6.91691460e-003 3.14388201e-002 5.76145537e-002
      -3.43636274e-002 -1.15890965e-001 4.08224650e-002 2.43309792e-003
      -3.85398678e-002 8.23135488e-003 8.25818852e-002 6.39114305e-002
      -1.81060303e-002 -9.39392075e-002 -2.11825781e-002
      -1.49480905e-002 -2.79332604e-003 -1.18487850e-001
      -7.33537599e-003 -1.63312927e-002 -3.89008899e-004
      -4.27622944e-002 1.47489570e-002 3.55610438e-002 6.81732595e-002
      2.11423133e-002 5.26462533e-002 2.93583516e-002 -1.06271869e-002
      -1.64458752e-002 4.02567536e-002 -1.50420129e-001 -1.52547494e-001
      1.26221757e-002 2.42631473e-002 -6.61428506e-003 2.91958395e-002
      5.57672679e-002 9.76828672e-003 -1.11382008e-001 7.00201513e-003
      4.41236682e-002 1.92155138e-001 2.20531896e-001 1.80341363e-001
      9.34701189e-002 1.14657395e-001 -6.15824722e-002 -2.09688470e-002
      -7.05233291e-002 4.03878652e-003 8.54050554e-003 -9.85183939e-003
      1.25134103e-002 -4.91943560e-004 -1.67561453e-002 -6.21171407e-002
      -6.12611137e-002 -5.87780550e-002 -2.69782692e-002 5.86773176e-003
      -3.96518558e-002 -7.56462887e-002 -3.19679379e-002
      -1.03277154e-002 -6.30322564e-003 -3.27401608e-002
      -8.09005350e-002 6.78005954e-003 1.64599404e-001 1.28325284e-001
      1.16041452e-002 1.65225789e-002 1.05292954e-001 -6.50356933e-002
      -5.62047847e-002 2.84821466e-002 7.63136987e-003 1.59439787e-001
      1.15842193e-001 1.35460421e-001 5.08069769e-002 1.45780548e-001
      9.89098400e-002 7.22530186e-002 -1.72864035e-001 -2.12806940e-001
      -4.02785316e-002 -7.84148648e-002 -5.97758144e-002
      -5.73660620e-002 4.28501097e-003 4.54697758e-002 -5.12280874e-002
      -1.06484681e-001 -2.24113703e-001 1.65340472e-002 -3.68861556e-002
      -2.48808730e-002 1.43327508e-002 2.46049594e-002 1.02963438e-002
      6.14578184e-003 -1.04827963e-001 -1.32040381e-001 2.89294794e-002
      5.32695390e-002 2.96077076e-002 3.92902121e-002 9.24568549e-002
      1.16112620e-001 -7.17101572e-003 -3.85634117e-002 -5.32639399e-002
      7.89963529e-002 1.03200078e-001 1.09945452e-002 1.74765795e-001
      1.53692052e-001 1.75613895e-001 1.00585140e-001 -1.18996263e-001
      -1.52278528e-001 2.86106411e-002 -1.94907170e-002 -1.68860219e-002
      2.68714987e-002 -1.42894564e-002 -1.06850415e-002 -8.23238716e-002
      -3.48470919e-002 2.72803511e-002 1.13217875e-001 -2.55804621e-002
      -1.71619564e-001 -1.04401000e-002 1.22501682e-002 -1.08670361e-001
      -1.18763344e-002 -6.62221462e-002 -2.17549205e-002 1.20257027e-001
      3.62361595e-002 -7.11793378e-002 8.89468044e-002 1.12028949e-001
      1.17645033e-001 3.13968956e-002 -2.65868641e-002 7.26680085e-002
      2.26984814e-001 1.21577166e-001 -1.94529183e-002 5.09589873e-002
      1.26334697e-001 -2.00944878e-002 9.83445533e-003 -4.26640287e-002
      1.68610960e-002 5.73480092e-002 -1.08566787e-002 -8.77433345e-002
      2.38150228e-002 -4.82166093e-003 -6.27982020e-002 -2.35860366e-002
      -2.22811345e-002 -4.03462760e-002 -3.36494744e-002
      -9.52836685e-003 2.29045138e-001 7.73081556e-002 2.90567484e-002
      -4.64920700e-002 -9.74165350e-002 5.00348806e-002 5.65310940e-002
      1.74373895e-001 7.81767815e-002 -1.27380518e-002 6.17827885e-002
      7.17283487e-002 -2.59658899e-002 3.50060351e-002 -3.27760838e-002
      8.54486376e-002 9.69220325e-002 -3.34779248e-002 1.07535265e-001
      1.18739597e-001 3.96625735e-002 -3.68876234e-002 -1.96261004e-001
      -5.06926924e-002 -9.83165018e-003 -4.57075760e-002
      -2.13149358e-002 -1.29680485e-002 3.24625149e-002 3.24738249e-002
      -3.94500419e-002 -1.14238434e-001 -1.28900167e-002
      -2.09679566e-002 1.16233099e-002 4.10473570e-002 1.23439960e-001
      1.06242001e-002 5.80900460e-002 -2.78714905e-003 -7.56348670e-002
      1.07126243e-001 3.76378708e-002 -2.70097377e-003 -1.03549860e-001
      -3.50466296e-002 3.84824462e-002 6.39778301e-002 -7.71224722e-002
      -5.66503145e-002 -2.65892074e-002 -6.55267213e-004
      -9.88894980e-003 6.09529763e-002 9.59445238e-002 2.01309863e-002
      3.02100778e-002 -1.16556093e-001 -6.00160807e-002 2.55330056e-002
      2.25682184e-003 3.50091606e-002 5.82325943e-002 4.12845276e-002
      -3.76283787e-002 1.96475089e-002 5.11960536e-002 -2.30525415e-002
      8.21736529e-002 -3.65473889e-002 -1.37540726e-002 -4.75201383e-003
      -2.75115147e-002 -1.21829495e-001 -7.70500749e-002
      -9.51710064e-003 3.46398912e-002 -9.65412930e-002 4.49524149e-002
      8.95431787e-002 1.26459450e-001 5.18232211e-002 7.34705329e-002
      3.86765003e-002 2.73791496e-002 -5.18721566e-002 -4.22039293e-002
      -4.85793687e-002 7.27534220e-002 -2.68371105e-002 -6.77378615e-003
      -3.74829657e-002 -5.37202545e-002 1.15884384e-002 3.37455720e-002
      7.44698420e-002 -8.43765214e-003 1.68012176e-002 3.27798426e-002
      -6.87670708e-002 -5.65549359e-002 -1.73807982e-002 1.70694422e-002
      8.41386393e-002 6.23888150e-002 2.24577673e-002 7.25459009e-002
      3.44445258e-002 -2.90087480e-002 -3.69425826e-002 4.00458835e-003
      -1.41566992e-002 6.22338876e-002 4.45480086e-002 -4.39004926e-003
      4.99636009e-002 -4.83156778e-002 -1.21871971e-001 -4.73240837e-002
      -2.55305525e-002 -1.40429018e-002 7.01480135e-002 3.14638913e-002
      2.36504432e-002 5.10967225e-002 -3.55469473e-002 -8.09071213e-002
      -5.40092066e-002 1.91339552e-002 -1.13053620e-003 2.50488743e-002
      -1.29133882e-003 -5.93128167e-002 2.36994699e-002 3.54401469e-002
      5.85673377e-002 1.13931485e-002 1.11557562e-002 -2.87416745e-002
      5.21187212e-006 -6.77543655e-002 -3.65216769e-002 9.80836991e-003
      9.91876423e-003 3.49167772e-002 3.82466067e-004 1.86426677e-002
      -4.20144238e-002 -1.15387142e-001 1.34208938e-002 -1.51601816e-002
      3.20789702e-002 -3.66483256e-002 -3.85089368e-002 -4.61035892e-002
      1.46398479e-002 5.37919477e-002 6.02800697e-002 -2.82258983e-003
      -4.52845693e-002 -1.88063569e-002 -1.18493410e-002 7.80869834e-003
      -1.84781086e-002 -4.46428321e-002 9.37436745e-002 2.49730852e-002
      -6.83533177e-002 6.15594164e-002 5.16363978e-002 -1.76017229e-002
      1.99981313e-002 -1.27711687e-002 1.07168565e-002 -4.79282625e-002
      -9.61677507e-002 5.08610941e-002 7.02057332e-002 6.13500439e-002
      9.64066014e-003 2.57120077e-002 -2.76491772e-002 2.90246345e-002
      -4.30054683e-003 -1.75477657e-002 2.74180733e-002 -1.63160935e-002
      -5.90870976e-002 -6.81228237e-003 -8.33271723e-003
      -3.37600373e-002 -4.37775552e-002 1.29893683e-002 1.86788198e-002
      5.87899797e-003 -6.14268780e-002 -7.15468749e-002 -6.19563796e-002
      -1.07632326e-002 -1.68775469e-002 -8.96511879e-003 4.57331613e-002
      6.80799112e-002 -6.74244687e-002 9.13484581e-003 -1.20033771e-002
      1.10802250e-002 -1.54074514e-002 7.45286644e-002 2.91133597e-002
      -5.51251462e-003 -7.99594373e-002 8.90345648e-002 2.95493100e-002
      -4.72014723e-003 -1.48016131e-002 9.32990853e-003 5.42269573e-002
      1.18811261e-002 1.40240984e-002 1.26397401e-001 2.47012987e-003
      2.33810372e-003 4.32948880e-002 7.41288811e-002 -8.36146474e-002
      2.16640718e-002 2.45133154e-002 3.20860854e-004 3.22801527e-003
      6.38946816e-002 6.34611771e-002 4.32353429e-002 1.12439608e-002
      -6.93568960e-003 7.87866414e-002 -1.97383128e-002 -2.64890175e-002
      5.61311394e-002 2.93420237e-002 3.70643251e-002 1.70839783e-002
      6.29654853e-003 -2.48099286e-002 2.05443203e-002 7.43790902e-003
      4.49987352e-002 6.21792562e-002 -8.21848810e-002 -3.95586640e-002
      -1.11748718e-001 -4.00825590e-003 8.80002230e-002 1.87413581e-002
      -3.79261468e-003 1.06997963e-003 -1.22560523e-002 2.18854323e-002
      1.75137576e-002 6.97034225e-003 -5.28222136e-002 -5.25121950e-002
      9.16150287e-002 -6.34688186e-003 -2.93618292e-002 -1.08065465e-002
      5.51194437e-002 -9.22693759e-002 -7.04748705e-002 1.29128462e-002
      1.20330192e-002 9.97215807e-002 -8.03034473e-003 -5.43938987e-002
      4.92890701e-002 2.46411953e-002 -1.53746465e-002 -6.16727434e-002
      -7.49380386e-004 6.48969635e-002 1.49447713e-002 1.15842826e-003
      4.52344976e-002 3.97449918e-002 -3.38083766e-002 -9.47896391e-003
      -2.13276371e-002 -3.54012586e-002 -6.93371594e-002 8.16016458e-003
      4.58134944e-003 -3.31009775e-002 4.23514508e-002 7.73333609e-002
      -5.72608076e-002 -2.13857349e-002 -5.18772677e-002 7.39667192e-003
      8.49789828e-002 -1.49585390e-002 4.38785478e-002 1.37285635e-001
      1.04780793e-002 -3.43339592e-002 -6.39481610e-003 -6.01227246e-002
      -1.05920121e-001 4.75970805e-002 -9.35147405e-002 -4.79247756e-002
      7.11158291e-002 -1.39780426e-002 -2.58593149e-002 -1.75008569e-002
      2.19784267e-002 4.99660224e-002 1.73384324e-002 3.86463888e-002
      -6.02795370e-002 8.21675137e-002 -3.51682790e-002 -9.62769687e-002
      -1.13816038e-002 9.51847713e-003 -1.28474804e-002 -1.27551351e-002
      -1.26738772e-002 -1.03356704e-001 8.05989653e-002 8.88945826e-004
      -6.91117197e-002 -1.35263717e-002 7.64628053e-002 8.81333053e-002
      -4.21897434e-002 -7.63493553e-002 -1.13668233e-001 8.35545436e-002
      -6.73007593e-002 -1.55746624e-001 -9.32331756e-002 7.21309781e-002
      1.07968431e-002 -5.33586331e-002 -7.54911304e-002 -1.58214524e-001
      -8.02774355e-002 -7.45889023e-002 -9.60985050e-002 7.47891515e-003
      7.77302822e-003 -2.77590770e-002 -3.96817587e-002 -1.64988488e-002
      -8.65617096e-002 -2.06334703e-003 -9.08760503e-002
      -7.86345080e-002 6.71653375e-002 6.58752546e-002 8.31926465e-002
      4.31591086e-002 7.16349706e-002 -3.24744284e-002 -6.82893619e-002
      -4.45179157e-002 -1.19615987e-001 2.14553960e-002 1.49454802e-001
      1.78666800e-001 1.00928824e-002 2.85384003e-002 -1.47290096e-001
      -3.29673104e-002 -1.06503561e-001 -5.33541031e-002 9.73743647e-002
      1.69030085e-001 2.23912209e-001 1.49016023e-001 1.32221147e-001
      -1.43144354e-001 -9.21446308e-002 -1.45294458e-001
      -5.57362698e-002 9.15712416e-002 7.08034039e-002 4.13506180e-002
      4.76271696e-002 9.43409652e-002 -1.64366383e-002 -9.57669839e-002
      4.58079902e-003 5.37972860e-002 1.84472933e-001 1.90468609e-001
      1.76183432e-001 9.91777107e-002 1.32882774e-001 -3.54957990e-002
      6.59937272e-003 -1.95705846e-001 -4.09787633e-002 2.34899838e-002
      3.14610712e-002 1.10208444e-001 5.19711562e-002 1.04825757e-001
      -9.23536643e-002 -1.29033357e-001 -1.14756793e-001 7.59256771e-003
      9.54076946e-002 6.78385943e-002 1.55729204e-001 4.08796333e-002
      1.81858346e-001 -4.04609516e-002 -6.55699298e-002 -1.34066746e-001
      -8.57290328e-002 1.01732261e-001 6.18750937e-002 -3.89258713e-002
      9.06507112e-003 9.32486281e-002 -4.16593887e-002 -1.08959764e-001
      -4.50744666e-002 6.08969741e-002 1.89953431e-001 5.55697940e-002
      1.41828880e-001 7.20921606e-002 1.40607268e-001 8.74287486e-002
      5.59200197e-002 -1.97099268e-001 -1.07975841e-001 4.98253256e-002
      -1.10630291e-002 -9.92610082e-002 -4.49984483e-002 8.36852863e-002
      -9.38958228e-002 -1.91169411e-001 -7.48074651e-002 6.57165307e-004
      8.56614113e-002 1.55591900e-002 -2.46701483e-002 -2.34850608e-002
      1.71495855e-001 4.17986363e-002 -2.99956519e-002 -1.36934116e-001
      3.71782221e-002 1.33754998e-001 1.19770616e-001 2.03672633e-001
      7.52602890e-002 1.07107855e-001 6.60029203e-002 -1.36161270e-002
      -1.44633114e-001 8.53175223e-002 1.57930002e-001 1.38355315e-001
      4.79933769e-002 1.14920251e-001 1.31457552e-001 6.77756742e-002
      -1.02130577e-001 -1.54429123e-001 -8.55849832e-002 2.52235569e-002
      1.28179649e-002 -6.48075715e-002 -2.48162840e-002 8.84742662e-002
      -6.22295998e-002 -1.13478005e-001 -2.48600081e-001
      -1.43878490e-001 9.85874515e-003 -5.75825982e-002 -7.93020651e-002
      9.87063721e-003 7.85672944e-003 -6.38212487e-002 -2.22623557e-001
      -2.13329658e-001 1.13430746e-001 1.89811692e-001 7.87196085e-002
      -1.80277154e-002 1.34932235e-001 1.37631297e-001 5.39777875e-002
      -7.91116878e-002 -1.53407425e-001 1.44423395e-001 2.38498330e-001
      9.05404687e-002 -6.41134009e-003 7.95656145e-002 6.31297752e-002
      2.66120452e-002 -1.55048758e-001 -2.77712524e-001 -4.37311605e-002
      1.31677780e-002 -1.13766165e-002 -4.57340516e-002 6.36205673e-002
      -5.09352684e-002 -7.26451799e-002 -2.25010127e-001
      -1.08660981e-001 1.13194153e-001 1.17405273e-001 3.33506875e-002
      -3.20581421e-002 7.65935471e-003 -9.47942436e-002 -8.46392661e-002
      -1.87056735e-001 5.71623119e-003 8.26358795e-002 2.17608109e-001
      8.82722810e-002 -5.04883826e-002 3.85273695e-002 2.52376683e-002
      3.21544372e-002 -1.00560106e-001 6.06354661e-002 -4.12510186e-002
      -1.86324194e-002 -3.48978005e-002 -9.42203403e-003 1.51649946e-002
      -3.08924429e-002 -2.74761085e-004 -8.37809145e-002
      -9.31689574e-005 1.07874550e-001 9.97099727e-002 6.37914613e-002
      -1.47225233e-002 1.97680518e-002 -5.49118072e-002 5.26267551e-002
      -5.86117841e-002 -8.33237767e-002 7.04146177e-002 -8.96267146e-002
      -1.25508308e-002 -7.00794533e-003 -6.53898343e-002
      -1.29833654e-001 5.23965135e-002 -1.88121516e-002 4.67450023e-002
      -2.29711309e-002 -7.69498870e-002 -4.54846546e-002
      -1.89242922e-002 5.13591655e-002 5.67169022e-003 -4.75341491e-002
      -2.40487680e-002 -3.21974643e-002 -2.13102791e-002
      -1.39666628e-002 5.29838428e-002 7.58665130e-002 6.76227808e-002
      1.99352000e-002 -1.03459969e-001 -9.15200785e-002 -9.63213593e-002
      -1.11574396e-001 -6.69658035e-002 1.35225346e-002 2.76328120e-002
      -5.32877222e-002 -5.82345426e-002 -1.98127329e-002 1.91859268e-002
      -7.20371902e-002 4.58812900e-002 -1.23250196e-002 5.08107319e-002
      6.08442016e-002 2.34335084e-002 -5.10821445e-003 -1.57016329e-002
      4.72908802e-002 -1.34811953e-001 1.52016774e-001 1.17046155e-001
      9.74019095e-002 1.18835494e-001 8.54609385e-002 5.12846857e-002
      -7.43871089e-003 -1.43687889e-001 -1.37530655e-001
      -9.36237862e-004 4.62107062e-002 4.14757729e-002 9.42881126e-003
      3.39615718e-002 -1.07277185e-003 5.17434664e-002 -9.06079113e-002
      -3.97488624e-002 3.01288976e-003 2.63609346e-002 8.13053995e-002
      1.10473745e-001 6.66304752e-002 4.62221354e-002 2.27162950e-002
      -2.05275845e-002 -4.76069860e-002 -4.92175445e-002
      -4.82176058e-002 8.83257687e-002 1.50807679e-001 8.74043852e-002
      2.95330323e-002 2.60762591e-003 -1.94757748e-002 -2.29494441e-002
      4.08667475e-002 5.06409444e-002 8.61598179e-003 -6.85102195e-002
      5.19377626e-002 3.79368253e-002 9.92522109e-003 -9.25470293e-002
      -2.81330347e-002 6.20140582e-002 2.12547462e-002 -3.24724913e-002
      -5.58448844e-002 3.60210799e-002 7.14162812e-002 3.89090143e-002
      -7.96813443e-002 4.46304902e-002 5.55394255e-002 3.48802051e-003
      3.15260254e-002 4.45762575e-002 9.27698910e-002 6.06309623e-002
      2.04414595e-003 -1.26768360e-002 7.22336024e-002 6.15629293e-002
      1.81468576e-003 -2.91826278e-002 -2.28244476e-002 3.39089744e-002
      7.28366673e-002 8.29036236e-002 -2.42443867e-002 -8.47756788e-002
      -1.55740613e-002 4.64685895e-002 2.65932437e-002 -1.34069799e-003
      2.31234021e-002 5.44518940e-002 1.25256717e-001 -6.04643896e-002
      -9.01310220e-002 4.79702186e-003 1.14885569e-002 -7.80841429e-003
      1.17845205e-003 -2.49063293e-003 -2.41593421e-002 1.47745401e-001
      1.73504222e-002 -2.70632356e-002 6.11965591e-003 -1.13920653e-002
      4.06498984e-002 1.82903081e-003 1.84775293e-002 3.75264734e-002
      1.21764958e-001 -5.91003224e-002 -2.21859738e-002 7.18136430e-002
      7.10663199e-002 4.49340679e-002 1.81368981e-002 3.83010949e-003
      2.30906764e-003 -1.27876746e-002 -5.76469339e-002 3.27627896e-003
      8.30922928e-003 -5.57643101e-002 -1.70193482e-002 4.54766788e-002
      5.58785442e-003 -1.50059275e-002 2.55338922e-002 3.67087382e-003
      5.03251441e-002 1.22400504e-002 -1.58581510e-002 3.92345898e-003
      8.79918933e-002 3.77794802e-002 -1.98306888e-002 5.91788180e-002
      2.53654923e-002 -1.39085036e-002 7.26598799e-002 4.89298068e-002
      1.66063793e-002 2.52621695e-002 2.22404413e-002 -2.28849016e-002
      -6.67514130e-002 -6.27546459e-002 7.75776047e-004 1.49603672e-002
      8.83135423e-002 4.49330844e-002 5.59459440e-002 6.03962317e-002
      -3.16131078e-002 1.31805595e-002 -4.81000915e-002 -2.64703967e-002
      -2.71667435e-004 5.53013012e-002 6.94115534e-002 -3.84446792e-002
      1.47578716e-002 1.41248265e-002 -4.95443754e-002 -7.62804002e-002
      6.09536245e-002 3.40651833e-002 4.33629453e-002 2.95697413e-002
      -1.05747278e-003 5.23799248e-002 2.14630552e-002 -3.67094725e-002
      4.21164483e-002 -4.56762649e-002 3.25564332e-002 2.37442506e-003
      -1.56487282e-002 -1.19540105e-002 6.59148023e-002 1.95118450e-002
      5.46267722e-003 -3.76954041e-002 5.48876040e-002 1.41713303e-003
      1.66155826e-002 6.31240532e-002 -1.35320676e-002 3.25746052e-002
      4.93733399e-002 4.42522764e-002 7.10247979e-002 1.98803637e-002
      -1.80844367e-002 1.68424158e-003 -5.74478768e-002 1.61495283e-002
      4.96379659e-002 8.21361726e-004 -4.43567038e-002 -1.48122478e-003
      4.46546748e-002 -3.45383063e-002 -1.55477086e-002 -1.26957009e-002
      2.11368371e-002 8.43002498e-002 -2.94597261e-002 -2.78401561e-002
      -4.66321148e-002 -2.04537809e-002 -7.33007565e-002
      -4.37559420e-003 -4.62327786e-002 -6.44684210e-002
      -7.87422433e-002 -3.92583460e-002 -3.29768248e-002 5.65355830e-002
      1.61245163e-003 -3.52834575e-002 -3.21606276e-005 -1.20749036e-002
      -1.06879454e-002 -9.85003356e-003 -3.98715846e-002 1.47944700e-003
      -7.86609296e-003 8.66748244e-002 -3.30391861e-002 -2.73320060e-002
      -6.62668794e-002 3.21023655e-003 5.84140532e-002 -6.38959855e-002
      -5.65488543e-003 3.69629376e-002 -3.16629969e-002 -2.47454122e-002
      -2.09871214e-002 -4.77011241e-002 -1.41592130e-001
      -1.61225386e-002 -1.23866268e-001 -5.35918772e-002
      -4.23353389e-002 -2.49300227e-002 -5.37612587e-002
      -4.30305526e-002 1.99300330e-003 2.84326226e-002 5.63135892e-002
      -1.85645092e-002 -7.04971328e-003 -6.05223365e-002
      -7.76599487e-003 -4.23744358e-002 -3.88808548e-002
      -5.68743534e-002 -1.41733857e-002 2.16424912e-002 4.04180177e-002
      -2.97843805e-003 -3.13684419e-002 -9.11743287e-003
      -2.74513848e-002 9.58837755e-003 3.21242176e-002 1.89992338e-002
      -1.06380865e-001 -9.92486328e-002 -4.89618108e-002
      -2.14251317e-002 -4.42550741e-002 -7.88587406e-002
      -7.89656565e-002 3.65903303e-002 9.00931135e-002 -6.81971014e-002
      -3.48920897e-002 -1.39503375e-001 -1.84303860e-003 6.43719807e-002
      4.72188890e-002 2.36489382e-002 -3.48416506e-003 4.24467996e-002
      -4.21409011e-002 6.36582449e-002 7.15843365e-002 3.00871674e-002
      1.88353900e-002 4.39231694e-002 -1.70806563e-003 5.37276641e-002
      3.48710977e-002 -1.81921870e-002 2.35518385e-002 -7.09025143e-003
      1.44384263e-004 -3.38389315e-002 -8.24257657e-002 -3.07813827e-002
      1.15311332e-001 1.56159967e-001 5.74815944e-002 1.07740492e-001
      -6.07232414e-002 -7.19747916e-002 -1.72351405e-001
      -8.81642848e-002 1.62381139e-002 1.12291768e-001 3.36016789e-002
      7.64170289e-002 1.66672111e-001 -6.04759343e-002 -8.18297490e-002
      4.14308012e-002 4.34590206e-002 -6.77332457e-004 6.75065890e-002
      1.99650452e-002 5.54827824e-002 8.92938897e-002 3.14100198e-002
      4.49797958e-002 1.84032638e-002 3.78830954e-002 1.55338394e-002
      8.65154415e-002 1.96910352e-002 -1.30868601e-002 1.42198756e-001
      1.73603639e-001 7.98313692e-002 -2.63226002e-001 -7.13346899e-002
      -6.50632801e-003 3.43576563e-003 6.84778169e-002 1.70903392e-002
      1.38674051e-001 -3.27048451e-003 -1.42804548e-001 -7.35510737e-002
      9.65958275e-003 4.14805971e-002 2.05679350e-002 5.25783747e-002
      -2.84466092e-002 1.35086998e-001 1.64440461e-002 -4.92347144e-002
      8.28875136e-003 5.24721295e-003 2.85458118e-002 -3.62734087e-002
      1.37115987e-002 -3.28766555e-002 7.90798143e-002 1.53540909e-001
      1.02437690e-001 1.67802554e-002 8.80619660e-002 8.92681330e-002
      -3.76866423e-002 -3.25700007e-002 -5.34907430e-002 6.07135482e-002
      1.33128956e-001 1.08771361e-001 -5.55460006e-002 -6.45988574e-003
      1.81082077e-002 1.23633479e-003 -8.78820866e-002 -5.67200221e-002
      4.26986068e-002 1.38869099e-002 -9.37533751e-002 -9.75276716e-003
      2.84753256e-002 2.71204375e-002 2.04359610e-002 -1.83607526e-002
      1.46228448e-002 1.56050041e-001 7.68117607e-002 3.03131491e-002
      1.85733580e-003 -9.76367481e-003 -3.08493283e-002 -6.56067580e-002
      -1.04877234e-001 -4.53848280e-002 2.53509916e-002 7.00555891e-002
      8.87894854e-002 1.15037501e-001 -5.06043173e-002 -4.34926935e-002
      -7.90460333e-002 -6.73771799e-002 -1.82839390e-002 1.20957745e-002
      3.18212286e-002 1.18722066e-001 3.76531668e-002 -6.58116490e-002
      -2.76396163e-002 -3.75103811e-003 -5.58459796e-002
      -8.47098883e-003 1.14259869e-001 1.17202161e-003 4.96453699e-003
      -8.81609619e-002 -8.10793713e-002 2.96800248e-002 3.45635228e-003
      3.14411595e-002 4.43829224e-002 1.02686919e-001 7.39634186e-002
      -8.08629170e-002 -2.41360236e-002 -6.62625432e-002
      -4.26987074e-002 -4.60761376e-002 -1.88294873e-002
      -5.16978838e-002 -1.77157298e-002 -5.44201732e-002 1.84475165e-003
      -8.73343125e-002 -7.72603601e-002 -5.14198840e-002
      -8.58713128e-003 -1.44677414e-002 -3.98340300e-002
      -1.62609108e-002 6.57230541e-002 -7.83585161e-002 -5.77959903e-002
      4.44582961e-002 -2.54100636e-002 -1.09264795e-002 -2.23042239e-002
      1.60556927e-003 -2.53914557e-002 6.48178011e-002 -9.41555128e-002
      7.78260902e-002 1.34522021e-001 -3.49052553e-003 -4.13803980e-002
      -5.34581281e-002 5.27590513e-002 -3.43725178e-003 1.91311277e-002
      -2.56670397e-002 -5.05937263e-002 -5.23419715e-002
      -5.51084615e-002 -1.29609834e-003 -3.60734649e-002
      -2.36837585e-002 -2.74889972e-002 6.68078884e-002 -4.95010428e-002
      -1.50662838e-002 -8.91935527e-002 -9.06520262e-002
      -6.43882304e-002 -6.16256483e-002 -4.30490933e-002 1.05373608e-002
      7.18843713e-002 -8.57144445e-002 8.65378603e-003 8.09113309e-003
      -2.85258749e-003 8.41028430e-003 2.34033056e-002 5.21284454e-002
      1.06554269e-003 6.75633773e-002 2.02585682e-002 -1.15232214e-001
      1.30645912e-002 2.00588908e-002 9.17338952e-003 -3.29728872e-002
      7.07253488e-003 -6.67460114e-002 1.24254689e-001 5.77345528e-002
      -5.01236394e-002 -1.08861879e-001 -4.28488776e-002 1.64820570e-002
      9.16828401e-003 -4.38836869e-003 8.74552317e-003 6.26470521e-002
      1.57388188e-002 -4.71389368e-002 -1.04785629e-001 -3.43540614e-003
      -2.76099928e-002 -6.44803867e-002 -7.25713819e-002
      -3.58017460e-002 6.30139112e-002 1.09638974e-001 -8.01038370e-002
      -1.41030610e-001 4.06825654e-002 -6.63796533e-003 -2.31227931e-002
      -1.83491979e-003 -1.12973070e-002 2.11502258e-002 9.59363952e-002
      2.56888047e-002 -1.35686591e-001 3.03071011e-002 2.18558628e-002
      -3.73671800e-002 -2.08641635e-003 -4.06809226e-002 1.54306674e-002
      1.60991564e-001 -1.19895130e-001 -1.19253442e-001 1.87890902e-002
      -5.99616282e-002 -4.10517007e-002 6.88113226e-003 3.03307045e-002
      2.14330927e-002 9.69454572e-002 -1.10966070e-002 -7.49982968e-002
      3.02277692e-002 1.54352812e-002 -1.99556611e-002 3.33260745e-002
      -1.56278834e-002 -2.00946047e-003 1.23103485e-002 5.03758378e-002
      -9.25112069e-002 1.82558987e-002 2.76172068e-002 2.77715623e-002
      3.14951874e-002 -2.27627344e-003 6.50883242e-002 6.05269298e-002
      1.16331533e-001 3.14527899e-002 -6.72493689e-003 2.31456552e-002
      9.08129141e-002 3.07280896e-003 -7.91213289e-003 -2.91445404e-002
      5.96654564e-002 -2.15915358e-003 -3.97031242e-003 -1.42319201e-004
      3.27007882e-002 2.26970483e-003 4.29834845e-003 -4.38513458e-002
      -1.33012952e-002 -2.50289440e-002 1.31772310e-001 -4.32616509e-002
      -2.22871825e-002 2.01303083e-002 -4.43025306e-002 -3.56383696e-002
      -5.89271709e-002 -8.90955105e-002 -2.53455322e-002 1.67921349e-001
      5.37313186e-002 -1.59297045e-002 -1.60077456e-002 -1.51341725e-002
      -1.87172163e-002 2.71877516e-002 -5.18204309e-002 8.40719789e-002
      3.34910266e-002 8.01814795e-002 4.30884247e-005 -3.29169556e-002
      -6.69913962e-002 -3.29897529e-003 8.15223455e-002 6.81493208e-002
      -4.19035703e-002 5.62724732e-002 -7.69905141e-003 2.07540356e-002
      2.41914392e-002 -4.65723351e-002 -3.74570154e-002 5.28602581e-003
      -7.83649608e-002 -8.20195675e-003 -6.83057457e-002 6.53999448e-002
      8.24833512e-002 1.85037255e-002 2.56614876e-003 -4.22021234e-003
      7.41286725e-002 -6.17581047e-002 -6.32189736e-002 -2.03108024e-002
      -7.63018429e-002 -4.29540277e-002 -4.10753600e-002
      -2.51367074e-002 -1.51935127e-002 2.62821168e-002 1.00964732e-001
      -1.53163588e-002 9.05575529e-002 4.91298875e-003 1.20163141e-002
      2.40191817e-002 -1.55600975e-003 -1.78333335e-002 3.21428105e-002
      -2.27216203e-002 1.08987680e-002 2.15966124e-002 7.35286623e-002
      5.08150794e-002 -6.59263656e-002 -4.63398397e-002 -2.89254226e-002
      1.22106606e-002 -2.90655233e-002 -2.02841181e-002 -8.96194391e-003
      6.56359345e-002 -4.21979539e-002 -4.03601378e-002 -4.45774086e-002
      -1.30940415e-002 4.19721790e-002 5.72254770e-002 1.67676900e-002
      5.07886037e-002 3.42742465e-002 -1.60710595e-003 -2.54019275e-002
      -2.30111443e-002 -2.29859911e-002 -4.66700345e-002
      -3.41209769e-002 1.98946521e-002 4.72981259e-002 -4.28259261e-002
      2.64514727e-003 1.72947031e-002 3.60033698e-002 8.91620740e-002
      -2.59654876e-002 -3.55268009e-002 2.88804285e-002 -5.31318411e-002
      4.85713535e-004 -5.81669100e-002 -5.89319654e-002 -6.36213049e-002
      -4.38559018e-002 -1.50495162e-002 3.58728096e-002 6.29073232e-002
      6.85504451e-002 3.21658589e-002 -3.03502325e-002 -7.02729356e-003
      4.84092953e-003 5.57007007e-002 -2.67994292e-002 -1.81333832e-002
      8.37971345e-002 8.15526582e-004 2.27383152e-002 -2.93620322e-002
      -5.33041824e-003 3.27306837e-002 1.21034924e-002 -1.03878239e-002
      4.96161915e-002 1.17332675e-002 6.58348501e-002 1.86164479e-003
      7.30899803e-004 4.40693609e-002 1.90388709e-002 4.90414202e-002
      6.03350718e-003 2.69356221e-002 3.91769782e-002 -7.04687312e-002
      -2.41046455e-002 -4.59286831e-002 -6.77340701e-002 4.94494708e-003
      -3.68709527e-002 -3.80390026e-002 9.31021571e-003 -8.60679969e-002
      2.01204419e-002 -5.61715551e-002 7.16407597e-003 -2.76676863e-002
      -3.46507356e-002 2.86479741e-002 1.74118597e-002 1.60149345e-003
      -1.73544567e-002 2.59982646e-002 -1.04076294e-002 3.45571898e-002
      -2.99374107e-002 -3.05920336e-002 -9.42978859e-002
      -7.79941306e-002 -6.48379251e-002 2.56623123e-002 5.69238141e-003
      -2.45456174e-002 1.73264332e-002 2.72915661e-002 3.11388634e-002
      -5.44023328e-002 -1.73971374e-002 -2.16632504e-002 4.46796678e-002
      2.31367885e-003 -6.09391257e-002 3.22855115e-002 -2.69571673e-002
      -4.01647501e-002 -4.96185347e-002 -5.23196459e-002
      -3.63501646e-002 1.20997224e-002 -1.02696829e-002 -2.92269811e-002
      2.55757272e-002 2.15338897e-002 7.37836305e-003 -3.28618251e-002
      7.28233671e-003 -1.77420974e-002 4.42912653e-002 -6.35903422e-003
      -4.10146080e-002 -1.75411589e-002 7.01335520e-002 2.80770846e-002
      1.15992036e-003 2.14741006e-002 -2.47560982e-002 2.85924389e-003
      7.64209835e-004 -1.77623741e-002 3.66142765e-003 6.45271689e-002
      3.15335114e-004 4.03958652e-003 6.13526478e-002 -2.04239730e-002
      3.25036719e-002 -5.50163202e-002 -3.54279727e-002 2.88530905e-002
      3.34660858e-002 -3.46497260e-002 -2.23501958e-002 2.43852958e-002
      -6.26966059e-002 -4.52033989e-002 -1.05584152e-002
      -1.13231195e-002 -2.09808201e-002 7.48892799e-002 -4.86001708e-002
      8.31229985e-002 -3.85577120e-002 -4.85739037e-002 4.63210093e-003
      1.68676376e-002 3.34641188e-002 1.49011621e-002 -1.60754856e-003
      6.39344985e-003 -2.54908986e-002 7.12893754e-002 3.14053185e-002
      2.99007613e-002 -1.50501607e-002 3.99823077e-002 2.56892927e-002
      9.29066539e-003 -4.15286459e-002 -2.40327418e-002 -3.97679135e-002
      -3.28898132e-002 3.30270417e-002 2.13627089e-002 3.89433391e-002
      -8.52737203e-003 4.04815450e-002 6.40203059e-002 -8.45517684e-003
      -2.63550095e-002 3.59975151e-003 3.00879888e-002 6.43537790e-002
      5.87418489e-002 1.64458584e-002 -1.67478919e-002 -1.67414472e-002
      -5.60661890e-002 -1.02672987e-002 -4.38635387e-002 5.35127148e-002
      2.63344198e-002 4.65913899e-002 -9.81004327e-004 2.76499763e-002
      -4.77279648e-002 1.21915573e-002 -2.97323670e-002 -8.74461140e-003
      4.57464978e-002 4.06246632e-002 4.34285365e-002 -1.50032649e-002
      7.64335273e-004 -2.73018181e-002 -8.86420012e-002 -2.24098284e-002
      6.31141737e-002 6.64195865e-002 5.46227284e-002 8.03928748e-002
      1.79204959e-002 1.74747326e-003 -5.28625846e-002 2.31325366e-002
      3.75506245e-002 -5.81688620e-002 1.73190348e-002 6.85851574e-002
      3.55256572e-002 -1.40429620e-004 -1.96527829e-003 -1.13422256e-002
      3.59837003e-002 -3.19107249e-002 -1.79308169e-002 -2.06024628e-002
      1.19934720e-003 1.15996068e-002 2.42445115e-002 -1.26169687e-002
      -8.82580411e-003 -3.97924073e-002 -1.56053966e-002 8.10756460e-002
      5.42728417e-002 -1.26476455e-002 3.85664813e-002 3.63670029e-002
      -3.70309614e-002 -1.42905293e-002 -5.71108162e-002 1.51697407e-002
      4.57559675e-002 6.15739971e-002 2.15276070e-002 -7.17721740e-003
      -1.24400016e-002 -1.29947485e-002 1.98208052e-003 1.51074380e-002
      -6.97882771e-002 -1.54908532e-002 4.52501588e-002 -4.49051335e-002
      1.94474850e-002 2.23804470e-002 -2.94807535e-002 2.08485071e-002
      -3.76724862e-002 1.11057162e-002 1.40593550e-003 3.87128592e-002
      -4.42063659e-002 4.52115275e-002 -8.15932918e-003 -2.17813924e-002
      -5.87688759e-003 -2.99589653e-002 4.46511395e-002 4.66746688e-002
      3.24236266e-002 1.69177037e-002 -9.86384321e-003 5.96059067e-003
      -6.51678368e-002 2.52491720e-002 3.88849527e-002 6.23674132e-002
      7.29010031e-002 4.75814752e-002 4.30140737e-003 4.03417554e-003
      1.56185124e-003 -5.54141439e-002 7.85671771e-002 -3.73063609e-002
      5.25717102e-002 1.09501444e-002 1.40373288e-002 -2.31275391e-002
      3.95479202e-002 2.44238731e-002 -4.75711040e-002 8.43111128e-002
      1.83339082e-002 1.15551129e-002 1.70418143e-003 7.15495553e-003
      8.57999921e-003 -3.23053375e-002 4.01172601e-003 -2.42785644e-002
      9.97350179e-003 -2.09340211e-002 -2.20850874e-002 -1.14095435e-002
      -2.12549325e-002 4.12311405e-002 -6.48564193e-003 1.61230005e-002
      4.33462160e-003 -5.98476529e-002 -2.30927598e-002 -3.24770324e-002
      8.26655850e-002 6.97319349e-003 -4.46326807e-002 -2.94192210e-002
      2.18079928e-002 4.56148945e-002 5.47686592e-002 -1.96324214e-002
      -6.08366309e-003 -1.88287701e-002 2.04821508e-002 -9.56666842e-003
      1.50294024e-002 1.60708707e-002 2.15885434e-002 2.98776962e-002
      -3.26149575e-002 1.59547594e-003 1.49807651e-002 -4.43913750e-002
      -2.46351697e-002 -1.96094606e-002 1.49804074e-002 1.35142896e-002
      -9.12813619e-002 -6.29988080e-003 -1.98043254e-003 4.82881889e-002
      2.14203242e-002 -1.60143092e-001 -8.36582556e-002 -3.08342054e-002
      2.14374345e-002 -4.89527211e-002 -2.19868240e-003 -6.18707016e-002
      -3.43771791e-003 -1.40104339e-001 -1.94852392e-003 5.23274057e-002
      2.81247608e-002 -3.85912359e-002 -5.84367178e-002 -2.41094623e-002
      -9.16841161e-003 5.75641505e-002 8.29005335e-003 3.77352610e-002
      6.27117530e-002 -9.92016401e-003 -6.31189207e-003 3.81894410e-002
      1.73804462e-002 -9.43206027e-002 -3.13904360e-002 5.91243953e-002
      -1.54501736e-001 -1.09163254e-001 -2.79956553e-002 3.79458219e-002
      4.28366363e-002 7.98133016e-003 -4.91924547e-002 7.85844680e-003
      -5.84983900e-002 -7.78397098e-002 5.43694422e-002 -6.79365825e-003
      -1.82183634e-003 -1.30107701e-002 -2.67374665e-002 2.04576813e-002
      4.72065061e-002 9.79637429e-002 4.68548238e-002 4.97119464e-002
      -1.14748664e-002 5.86390272e-002 7.59217665e-002 2.28610765e-002
      -1.49939237e-002 -1.37691107e-002 -7.47280428e-003
      -3.09206881e-002 1.14064656e-001 1.65457278e-002 -9.43994150e-003
      6.15880266e-002 2.76181959e-002 5.74778542e-002 7.15723932e-002
      -7.09586665e-002 -2.02511474e-001 1.38569949e-002 -2.94943284e-002
      -5.76004051e-002 -1.14835761e-002 1.72792803e-002 4.29218113e-002
      4.77716923e-002 1.36488760e-002 1.24709560e-002 6.43990096e-003
      6.09330498e-002 3.13971229e-002 5.30789904e-002 6.96233585e-002
      3.70311439e-002 -5.13127586e-003 5.01211621e-002 -1.04907066e-001
      6.79274350e-002 1.49149382e-002 -4.81162183e-002 7.78453946e-002
      6.74099326e-002 4.28839549e-002 2.05420461e-002 -1.52186573e-001
      -3.91835682e-002 1.09481454e-001 1.02729723e-001 6.14842251e-002
      4.83042747e-002 4.50165085e-002 7.26947561e-002 -1.64959230e-003
      -4.41430211e-002 -5.47745358e-003 -3.37616093e-002 3.11084837e-002
      -9.00341570e-003 -1.29570141e-001 4.84373933e-003 -1.55998189e-002
      2.45070327e-002 1.05500549e-001 1.13691956e-001 -1.45065021e-002
      7.56368088e-003 -1.04305439e-003 -8.18018317e-002 3.65230739e-002
      7.23300735e-003 5.56183495e-002 9.33650509e-002 -5.90097206e-003
      9.42078084e-002 3.35649103e-002 2.55277790e-002 -8.11568201e-002
      -3.15073016e-003 -1.44750038e-002 1.64224673e-002 2.45941766e-002
      -5.47443070e-002 3.20175998e-002 -1.48852030e-002 1.84187777e-002
      8.32287073e-002 3.50336507e-002 -4.41867486e-002 4.36653867e-002
      -6.74812198e-002 4.11179848e-003 -7.11464733e-002 -3.40665953e-004
      1.30827050e-003 3.67095917e-002 1.88463256e-002 1.75532512e-002
      9.07690227e-002 7.93713238e-003 -1.86237544e-002 1.76517349e-002
      1.32933399e-002 1.55532453e-002 5.11234738e-002 2.08085794e-002
      7.82155916e-002 2.93372627e-002 -8.94012228e-002 -3.50400507e-002
      -6.00026548e-002 -6.22191094e-002 2.46815551e-002 1.13180958e-001
      4.94661788e-003 -2.80932337e-002 4.64571677e-002 -5.64301712e-003
      -5.96720390e-002 3.69572826e-002 -5.88753559e-002 2.19733976e-002
      2.19095568e-003 1.50194215e-002 -1.18192621e-002 -5.62121905e-003
      -2.06334554e-002 8.08940530e-002 5.43822013e-002 4.03503180e-002
      1.64052919e-002 2.11951658e-002 -2.21966188e-002 4.50746864e-002
      9.73731687e-004 -7.68780783e-002 -3.61198671e-002 -6.38568774e-002
      -2.97391154e-002 -5.26482752e-003 1.07857715e-002 -5.41535653e-002
      5.69870621e-002 9.35382489e-003 7.65803270e-003 -8.24872684e-003
      5.15944697e-002 1.49210263e-002 1.11990616e-001 5.38853705e-002
      4.80484450e-003 -3.25751095e-003 -2.12036707e-002 -7.20983418e-003
      -2.70491117e-003 2.92733293e-002 -5.08618578e-002 5.02773859e-002
      9.41397902e-003 -1.75653491e-002 3.04740965e-002 -5.15702739e-003
      1.82967242e-002 -4.28592004e-002 -6.04627766e-002 -5.83361834e-002
      -4.32956070e-002 9.89954919e-003 -5.90825081e-002 4.88441512e-002
      6.72123432e-002 -3.90433967e-002 -2.36449181e-003 -3.89860868e-002
      -8.43777955e-002 2.00638697e-002 -1.85953826e-002 -1.11502726e-002
      -5.36623783e-003 -3.15686464e-002 -2.75751576e-002 1.78852379e-002
      7.73444539e-003 -9.04589593e-002 3.33369672e-002 9.01733115e-002
      -3.31449835e-003 7.86931217e-002 7.79816881e-002 9.57350582e-002
      2.91230530e-002 6.96192384e-002 1.66637041e-002 8.57623369e-002
      5.12891747e-002 -2.31318846e-002 8.43149051e-002 1.05454177e-001
      5.28755002e-002 5.47880400e-003 -1.62340663e-002 -2.32295096e-002
      8.70550703e-003 -2.88368128e-002 -2.50488091e-002 -1.96467061e-002
      1.12265511e-003 -5.99614903e-002 3.15241851e-002 -5.26959226e-002
      -3.08302473e-002 -2.07106266e-002 -1.56843872e-003 2.72027776e-002
      2.87723392e-002 1.74529552e-002 -2.84665190e-002 -4.33796830e-002
      2.71248128e-002 8.57976032e-004 6.91177323e-002 -3.99014801e-002
      8.02036654e-003 -3.43766659e-002 2.08027265e-003 9.53595992e-003
      1.89816281e-002 -7.23755977e-004 -6.35613650e-002 3.73528376e-002
      1.12260565e-001 3.44618671e-002 4.53972518e-002 5.14456257e-002
      1.47105362e-002 -2.27930024e-002 -8.23176503e-002 8.13973043e-003
      -3.02450918e-002 -6.00322299e-002 2.86110956e-002 -5.03640249e-002
      1.99344996e-002 1.62339900e-002 -6.51780423e-003 -1.03369551e-002
      9.19192061e-002 4.58503887e-002 1.24637578e-002 3.87375131e-002
      8.74922704e-003 2.27894243e-002 2.21027788e-002 -4.69662249e-002
      -3.57529409e-002 -5.68221696e-002 -2.48403028e-002 3.53746675e-002
      4.07371446e-002 1.29324431e-002 5.02586775e-002 -6.99330214e-003
      -1.81665253e-002 -3.39317098e-002 2.38385703e-002 4.25102934e-003
      6.61030933e-002 1.25567773e-002 -3.35159041e-002 1.75004068e-003
      -3.22819548e-003 3.57571095e-002 -1.08095426e-002 4.28352915e-002
      -9.30548832e-003 -6.19362202e-003 4.44939770e-002 3.49634141e-002
      9.40961298e-003 3.10029741e-002 7.72620179e-003 -1.29220793e-002
      1.98450889e-002 8.08522627e-002 3.26831788e-002 1.87890887e-001
      -1.87272578e-002 2.49927044e-002 7.58455507e-003 -1.11379139e-001
      -5.82852885e-002 -1.19726593e-002 -4.11663428e-002 8.96433194e-004
      4.78322012e-003 1.70003325e-002 1.45140011e-003 8.38398933e-003
      -5.13455868e-002 -4.45180051e-002 -1.99432634e-002 4.23670514e-003
      -1.66559382e-003 1.18345097e-001 -1.67611483e-002 -4.12448961e-003
      2.75871460e-003 -3.11815701e-002 4.50311527e-002 -3.57009983e-003
      3.13473530e-002 7.32867196e-002 5.05545586e-002 -3.36321481e-002
      5.10993041e-002 -5.80737740e-003 3.73387188e-002 1.11073777e-001
      2.38291398e-002 -4.58009504e-002 -1.05568869e-002 -5.14974296e-002
      8.20959546e-003 -4.06608172e-003 5.26320748e-002 -2.06945650e-002
      3.26846614e-002 3.61470170e-002 4.94407415e-002 -3.83969806e-002
      4.23709154e-002 -3.27254012e-002 -9.26736649e-003 4.98261675e-003
      1.06561452e-001 3.29130031e-002 5.22439070e-002 1.34073896e-002
      -8.53406340e-002 1.57637789e-003 1.76124480e-002 1.63432453e-002
      7.82012641e-002 6.37935400e-002 6.60733208e-002 1.72642060e-002
      1.77269746e-002 -3.65064479e-002 1.97089687e-002 5.57764433e-002
      -4.48082015e-002 6.75424980e-003 3.23678032e-002 3.25806462e-003
      3.71902362e-002 2.37631109e-002 -3.18024009e-002 2.93456055e-002
      -9.17861331e-003 -2.68039647e-002 -6.75725862e-002 1.18427731e-001
      -2.49520107e-003 -8.65917187e-003 2.16289405e-002 -1.03685334e-001
      4.14824560e-002 -6.00887742e-003 -5.61261363e-003 8.35558102e-002
      7.48189911e-002 3.23298201e-002 4.35959734e-002 2.13663932e-002
      -1.68098599e-001 1.90939512e-002 7.52791902e-003 3.48658394e-003
      6.07640557e-002 9.14670341e-003 -9.30579752e-003 2.52249166e-002
      1.13992812e-002 -1.44866649e-002 2.37936713e-002 -4.93521839e-002
      7.66405975e-003 -1.53346304e-002 3.93266641e-002 1.53913535e-002
      5.91699295e-002 2.30812263e-002 7.35554025e-002 -2.39296886e-003
      -1.46753779e-002 4.84500900e-002 1.66241843e-002 4.23906595e-002
      3.11247353e-002 7.17734471e-002 -3.82569917e-002 -9.66147333e-002
      -1.13168303e-002 1.09057436e-002 3.64976674e-002 7.23148361e-002
      -8.70822696e-004 -1.50355110e-002 5.83389774e-002 3.43188352e-004
      -2.58396696e-002 1.61596071e-002 4.06110585e-002 5.95953874e-002
      4.75072935e-002 6.91914335e-002 -1.10792331e-002 -5.44326054e-003
      3.01829795e-003 4.88337725e-002 -2.54985075e-002 -4.93633747e-003
      7.40414904e-003 5.75741269e-002 1.08214784e-002 -2.55231932e-002
      -5.06511964e-002 -4.40879539e-003 8.14244524e-002 5.47162108e-002
      -6.42219633e-002 -2.40939930e-002 2.63791196e-002 -1.50706749e-002
      7.72395879e-002 1.67442244e-002 1.85692962e-002 -3.60702351e-002
      -3.21631669e-003 5.81775121e-002 -2.97199935e-002 -2.28212178e-002
      -3.05993315e-002 6.18681982e-002 -2.94917487e-002 -5.77064231e-002
      -7.40615055e-002 -7.28974410e-004 1.07781356e-002 -5.69831915e-002
      -2.99093090e-002 -2.98334900e-002 -5.94267361e-002
      -3.54439691e-002 3.56133953e-002 6.13068417e-002 -3.19779082e-003
      -4.23789024e-002 -1.25022358e-004 -1.55310910e-002 5.92154711e-002
      -9.10345640e-004 -2.76871189e-003 5.18575050e-002 1.23496056e-001
      -7.09778368e-002 -2.89860857e-003 5.06978519e-002 7.51696806e-003
      -1.10559911e-002 -2.36615147e-002 5.53046539e-003 -1.96015630e-002
      1.10952808e-002 -3.55484858e-002 -1.43122505e-002 4.19199467e-003
      -3.81175056e-002 1.19890505e-002 -1.74210183e-002 4.60282480e-003
      -2.56561488e-002 6.79096803e-002 -5.08072563e-002 -4.25872244e-002
      2.10507717e-002 -3.03269620e-003 3.07239909e-002 3.01129688e-002
      -6.18598424e-004 -5.27489837e-003 4.90836147e-003 -6.61523417e-002
      -1.34240491e-002 9.01181921e-002 1.10168196e-001 4.74482365e-002
      2.30899788e-002 -4.14304920e-002 3.64988972e-003 1.97169967e-002
      -1.90196708e-002 -5.20404726e-002 2.63905078e-002 1.68826669e-001
      4.82122861e-002 6.06779335e-003 -2.68744156e-002 -9.96778836e-004
      1.83243826e-002 -6.82444870e-002 -2.60510072e-002 4.06871401e-002
      4.25794069e-003 2.43111756e-002 5.53852916e-002 -9.57126021e-002
      -1.57632232e-002 -1.53361028e-002 5.48798777e-003 -4.87925531e-003
      3.19005065e-002 8.00640788e-003 7.50679150e-003 2.19523963e-002
      -1.31787974e-002 5.96772917e-002 2.84236968e-002 -1.67105533e-002
      1.68621242e-002 -1.00989882e-002 1.13089085e-001 -1.05156884e-001
      1.44592300e-002 3.91988270e-002 3.41060422e-002 5.93724288e-002
      3.44196223e-002 2.77292598e-002 4.03901488e-002 -5.45914331e-003
      1.05210170e-001 6.95133135e-002 -3.54292579e-002 7.93805346e-002
      -2.94480193e-002 6.07969202e-002 4.35525142e-002 1.90118309e-002
      1.04011446e-001 8.31867754e-002 6.75001964e-002 4.74128053e-002
      4.91135642e-002 -7.32819885e-002 1.98202617e-002 6.06667809e-003
      7.00379014e-002 6.90027550e-002 -1.28968805e-001 -1.55476434e-003
      6.02635741e-002 1.97782610e-002 9.22102556e-002 8.03639665e-002
      2.06740778e-002 4.49074768e-002 -7.12455362e-002 -6.48428053e-002
      7.69058168e-002 1.04103975e-001 3.43399234e-002 2.85608675e-002
      2.37873681e-002 7.49983937e-002 7.73778185e-002 -1.54742897e-002
      4.31746291e-003 -2.91546695e-002 4.49914411e-002 3.86085808e-002
      1.07279010e-002 -9.10938438e-003 1.71803590e-002 9.19836313e-002
      3.14850807e-002 -3.12853418e-002 3.58700417e-002 1.54182762e-001
      5.89416996e-002 8.40756446e-002 -2.20695492e-005 5.68169821e-003
      1.53591543e-001 8.52687508e-002 1.43679352e-002 5.67420796e-002
      4.07108553e-002 1.39906593e-002 2.06497815e-002 6.90007349e-003
      8.22538603e-003 9.41896290e-002 3.59394513e-002 -6.38414696e-002
      2.67980956e-002 -7.16559961e-002 1.21403318e-002 1.74783945e-001
      5.72091639e-002 -6.15768842e-002 4.72750068e-002 -4.42815525e-003
      3.02157681e-002 -1.07954293e-002 6.16524220e-002 7.91903213e-003
      7.33047724e-002 2.11087540e-002 -7.25499308e-003 1.24366708e-001
      1.36693642e-001 7.23710582e-002 -1.19126737e-002 -2.25321744e-002
      -4.65061180e-002 4.26775217e-002 2.18951777e-002 9.86065064e-003
      2.88677495e-002 8.96531940e-002 -3.29799391e-002 1.79078821e-002
      -3.85713987e-002 5.02038151e-002 1.52789861e-001 1.60782039e-002
      -1.41260615e-002 1.88689455e-002 3.82814594e-002 -2.83347517e-002
      2.72840075e-002 2.41781157e-002 8.09256211e-002 4.96398881e-002
      -3.58687364e-004 -5.07329889e-002 5.53272152e-003 6.72427639e-002
      -2.13844571e-002 3.78554054e-002 -4.41194419e-003 -5.31612411e-002
      -5.14845401e-002 -8.32039118e-002 -1.70479696e-002 1.67918042e-003
      1.30674578e-002 -5.01765404e-003 7.19488263e-002 6.70206593e-003
      6.84286356e-002 6.77723438e-002 -3.43566388e-002 -7.40910787e-003
      4.81858328e-002 3.45743001e-002 -4.27175164e-002 -4.75662611e-002
      3.67851071e-002 8.24085549e-002 4.37725894e-003 -3.26129906e-002
      -6.30670935e-002 -5.04162982e-002 1.80794802e-002 -1.20247655e-001
      -1.79951657e-002 -3.09311766e-002 -5.87425288e-003
      -9.87910572e-003 6.97847037e-003 -9.26574972e-003 -3.18920836e-002
      -7.74616450e-002 -5.64965867e-002 -1.09098107e-001 3.06777237e-003
      7.48082548e-002 1.36044864e-002 6.87613385e-003 2.17985250e-002
      2.87195463e-002 5.26370294e-002 -4.11334746e-002 -3.94513607e-002
      5.15980050e-002 6.97544739e-002 -3.60582024e-002 4.37392779e-002
      5.20965643e-002 5.15264347e-002 4.24776375e-002 -1.14185438e-001
      4.85414714e-002 2.37864144e-002 -3.52022913e-003 -4.88517107e-004
      2.38002110e-002 4.27316837e-002 -7.40953488e-004 -7.51588196e-002
      -8.38810578e-002 7.75051862e-002 4.47851829e-002 3.12941298e-002
      1.63742807e-002 2.54739244e-002 5.51642440e-002 -4.51756828e-002
      -7.92539641e-002 3.22031528e-002 1.00780293e-001 -2.37369444e-002
      4.05093981e-003 2.23422796e-002 2.86816861e-002 9.16720033e-002
      3.17266025e-002 3.25599276e-002 5.11292964e-002 1.16579227e-001
      -8.16689432e-002 -5.20926341e-002 -6.98130950e-002 2.69567613e-002
      6.65156245e-002 1.97042953e-002 1.29320845e-001</_>
    <_>
      -1.31126046e-002 1.89131731e-003 4.95332619e-003 -3.86653515e-003
      3.45626175e-002 1.83663759e-002 3.08973831e-003 3.19957454e-003
      -1.21570723e-002 7.27329357e-003 8.16845335e-003 8.59720819e-003
      4.41572978e-004 -2.63230898e-003 9.45431367e-003 -3.32562835e-004
      -9.24036093e-003 -4.57614567e-003 -1.22355800e-002 2.73219943e-002
      6.53574150e-003 4.59902594e-003 4.66998070e-002 3.32461745e-002
      2.03598011e-003 2.55138446e-002 -9.82892234e-003 -8.33244808e-003
      1.46928290e-002 7.99930468e-003 1.10110352e-002 -5.18984976e-004
      2.83167008e-002 1.26941307e-002 2.71356683e-002 -1.12579241e-002
      1.37688266e-002 9.65080783e-003 7.75593566e-004 -7.84223666e-004
      -1.80732701e-002 1.58865023e-002 9.91879217e-003 4.05630039e-004
      1.04151014e-002 2.93711964e-002 1.66981164e-002 7.56404735e-003
      1.47966784e-003 -8.68378859e-003 4.66604112e-003 7.01475330e-003
      2.00226512e-002 2.51160227e-002 1.35906404e-002 2.46395934e-002
      1.54344654e-002 1.21525340e-002 -1.36948954e-002 3.13642062e-002
      2.13932190e-002 2.29882468e-002 8.64461809e-003 3.17353010e-002
      2.46063657e-002 1.14934016e-002 -9.25645605e-003 -3.29228304e-002
      1.30205695e-002 5.29147801e-004 2.53954101e-002 2.56184321e-002
      -9.59941186e-003 7.83127453e-003 1.07323518e-002 7.51362694e-003
      2.02533361e-002 4.71371785e-003 2.44487380e-003 -7.13264570e-003
      -2.02181339e-002 -8.99998099e-003 1.34203602e-002 2.20841728e-002
      1.11318026e-002 4.05869931e-002 2.14349907e-002 1.69574451e-002
      -6.90547051e-004 -2.44411584e-002 1.36770438e-002 7.63177639e-003
      -1.64436048e-003 -4.54597222e-003 -6.25406951e-003 3.88665881e-004
      -4.86406119e-004 1.50916073e-002 5.92255685e-003 1.06681860e-003
      1.20123029e-002 2.16350518e-003 7.21703051e-003 2.30995510e-002
      1.53577728e-002 6.85830042e-003 2.51679365e-002 -1.30976234e-002
      1.79346707e-002 -1.27004599e-003 8.26725829e-003 -8.91274365e-004
      2.18807850e-002 2.02852711e-002 9.66390409e-003 6.84559857e-003
      6.35224488e-003 2.48544686e-003 -1.69641792e-003 7.00384052e-003
      1.08849164e-002 2.18894947e-002 2.43166573e-002 6.78135175e-003
      1.30990660e-002 1.72050186e-002 -1.41077237e-002 3.00366920e-003
      -2.97801360e-003 -1.69527866e-002 -6.90003671e-003 2.55021430e-003
      -6.26771897e-003 2.44625960e-003 -2.35309545e-002 -1.07484479e-002
      3.81215499e-003 1.22328848e-002 1.02879794e-003 -7.62048177e-003
      8.14422499e-003 4.78176307e-003 7.26125808e-003 -5.74340811e-003
      7.92159699e-004 3.75702837e-003 9.30738635e-003 1.45100327e-002
      1.35076419e-002 8.35472066e-003 6.16730936e-003 -1.41058734e-003
      2.07453445e-002 -7.81553984e-003 1.12959847e-003 -8.72797519e-003
      7.97792058e-003 -5.88937057e-003 -1.07840644e-002 -1.19077461e-002
      -1.51578523e-002 2.04514270e-003 2.79080449e-003 2.33800104e-003
      1.29682980e-002 -5.41502377e-003 -2.38205232e-002 7.99590442e-003
      1.06645040e-002 9.91971232e-003 6.81551034e-003 6.19198382e-003
      1.89184733e-002 5.17731206e-003 -1.54426345e-003 -1.01534734e-002
      6.60385285e-003 2.11011078e-002 1.49950897e-002 -5.66206966e-003
      1.46485055e-002 5.01609687e-003 -1.47078361e-003 5.85245108e-003
      -8.39312933e-003 -3.63063207e-003 -5.00053214e-003 2.67431349e-003
      1.85909905e-002 1.08744493e-002 -6.43434003e-003 -1.11017479e-002
      -1.54465185e-002 -1.90768335e-002 -5.25035057e-003
      -4.84482618e-003 1.34426393e-002 1.34996185e-002 1.79260690e-002
      2.93559749e-002 1.78623479e-002 2.07212497e-003 -6.24064822e-003
      5.54812280e-003 1.06983576e-002 1.51974959e-002 -5.17884982e-005
      2.39587366e-003 1.69281159e-002 4.66421759e-003 7.29407766e-004
      -2.95915622e-002 -5.14952978e-003 1.14506697e-002 2.27443464e-002
      -5.58887655e-003 -8.46165139e-003 -1.16860587e-002
      -2.80122645e-003 -1.04565918e-002 2.61845309e-002 1.04966471e-002
      1.08769713e-002 2.12063845e-002 7.27348682e-003 -6.57858513e-003
      -1.04252174e-002 -1.85214030e-003 -7.65806530e-003 2.86239069e-002
      1.24855060e-002 -5.76227577e-003 5.61386696e-004 -7.10070506e-003
      -1.28864683e-002 8.17070075e-004 4.09343652e-003 1.62109490e-002
      2.50984058e-002 1.00321220e-002 1.76088959e-002 2.14831326e-002
      1.28915324e-003 7.07156537e-003 1.64969545e-002 1.16455648e-002
      9.38722491e-003 2.28806175e-002 7.58793391e-003 -4.77542588e-003
      -6.67125266e-003 -3.67041514e-003 -1.36995176e-002
      -8.49813502e-003 1.23479194e-003 3.64066055e-003 3.30745243e-002
      1.18901571e-002 -1.02620553e-002 -1.32737169e-002 -3.29877576e-003
      8.27493984e-003 4.73898835e-003 5.77178551e-003 2.25507165e-003
      -1.74267273e-002 -7.22628366e-003 -5.85238030e-003
      -1.29900593e-002 6.91595441e-003 2.34232955e-002 2.37480588e-002
      1.23887118e-002 -2.30675592e-004 2.97452025e-002 1.35205984e-002
      2.46809633e-003 8.23356304e-003 6.68501249e-003 2.08063722e-002
      3.55083942e-002 -2.68923491e-003 -2.34291404e-002 -1.46465246e-002
      -9.15043784e-005 -1.18989870e-003 1.19415559e-002 7.82402512e-003
      9.31619760e-003 4.21771361e-003 4.18311032e-003 -6.49529742e-004
      -1.26653574e-002 -1.01497653e-003 -3.34116071e-003
      -3.99989635e-003 2.62858695e-004 1.26761245e-002 1.25329792e-002
      4.23027948e-003 -3.32123158e-003 -7.39545142e-003 1.15055898e-002
      1.50839845e-003 1.77338980e-002 1.54189002e-002 6.85914513e-003
      2.43549775e-002 -6.31324667e-003 -1.09931650e-002 -5.44348219e-003
      2.77580079e-002 -2.34836305e-004 1.14438031e-002 8.11234396e-003
      -1.31232282e-002 2.27612872e-002 1.54893147e-002 2.17716154e-002
      1.38013093e-002 1.77611392e-002 -2.06173258e-003 1.29822018e-002
      -7.67657347e-003 7.06151966e-003 1.89698080e-003 3.99516383e-003
      -6.81270845e-003 1.58845987e-002 2.57057473e-002 4.70014522e-003
      1.76369939e-002 3.03280838e-002 7.89974257e-003 -1.35852641e-003
      5.84702007e-003 4.55414876e-003 1.41571071e-002 3.14508453e-002
      1.68520696e-002 1.00583816e-002 2.64386125e-002 -2.58387160e-002
      -1.37407007e-002 2.00481229e-002 2.31860429e-002 6.90615643e-003
      2.66711004e-002 -1.13252411e-003 2.56612827e-003 3.04820831e-003
      -2.46258508e-002 -1.76505074e-002 8.98733642e-003 5.43033704e-003
      3.30588338e-003 2.43952125e-002 -8.23747646e-003 -1.70911998e-002
      -2.15992015e-002 1.21906726e-002 -8.42534006e-003 -4.05018916e-003
      1.61434095e-002 6.86127646e-003 1.01972185e-002 4.00394248e-003
      4.42237267e-003 1.26980217e-002 -1.89234316e-002 -2.48822551e-002
      -4.23707720e-003 9.50019900e-003 2.61201826e-003 2.42392365e-002
      1.51047352e-005 -5.53865975e-004 -3.52539332e-003 -4.83347923e-002
      -2.68942975e-002 4.33131616e-004 6.66638929e-003 1.16020851e-002
      1.43923303e-002 -2.40918435e-002 -2.01582257e-002 -2.52092499e-002
      -2.46253349e-002 -1.38656767e-002 2.76552029e-002 3.34233604e-002
      -4.04391438e-004 1.49498135e-002 -2.45031472e-002 -8.05657543e-003
      4.97698318e-003 -2.72330400e-002 -2.36516241e-002 -2.44483398e-003
      1.54446543e-003 9.38543957e-003 2.29325518e-002 2.63812579e-003
      -9.11032897e-004 7.86718260e-003 -1.23538310e-002 -2.18043998e-002
      -6.85919868e-003 5.46386838e-003 1.72314830e-002 -8.03448856e-005
      -1.53249986e-002 -2.25704703e-002 1.58437733e-002 -3.03025302e-002
      -1.21646542e-002 1.67932771e-002 2.54629608e-002 2.51578987e-002
      1.49403512e-002 -2.61628116e-003 4.38096147e-004 5.12003386e-003
      -7.58665008e-003 -2.54079457e-002 -2.84077512e-004 2.23942455e-002
      2.45867744e-002 -9.60561354e-003 -1.73249207e-002 -2.16011275e-002
      -2.70206966e-002 2.96489731e-003 -1.51643865e-002 -8.44499189e-003
      4.42051591e-004 -4.29477514e-004 -3.36187752e-003 -1.15559381e-002
      -1.87459849e-002 2.51281057e-002 5.99919073e-003 1.07738059e-002
      -1.00942748e-002 -6.90330332e-003 2.19455035e-003 3.24621145e-003
      -5.86426258e-003 -1.89430062e-002 1.53406011e-002 3.55725735e-002
      -2.36621704e-002 -9.93970875e-003 2.74061481e-003 -1.18904030e-002
      -7.10064964e-003 -1.67487077e-002 -1.26522034e-002 1.06892949e-002
      2.35003829e-002 1.98416431e-002 -2.95979604e-002 -1.62772704e-002
      -1.83806464e-003 -8.09574965e-003 -2.54704468e-002
      -3.39983031e-003 -7.24424981e-003 -1.17919352e-002 2.78332289e-002
      -4.55249427e-003 7.53926765e-003 3.22562344e-002 1.97420008e-002
      6.22443762e-003 -2.71675084e-003 1.20534152e-002 -7.77962245e-003
      5.28802611e-002 3.99582135e-003 2.50797365e-002 2.50706915e-002
      1.19167902e-002 1.92762725e-003 2.59135338e-003 -9.32211243e-003
      2.26949545e-004 4.66187261e-002 -5.67561528e-003 4.43197228e-003
      1.39518725e-002 8.03363696e-003 -1.22877406e-002 1.99274197e-002
      -3.44603099e-002 -1.58814751e-002 3.33970822e-002 1.79567374e-002
      1.48344794e-002 -2.20131990e-003 -1.22608086e-002 -8.19469988e-003
      1.16323596e-002 -7.06134886e-002 2.66247243e-003 7.01093823e-002
      1.72358006e-002 4.67720069e-002 2.91766096e-002 2.44805235e-002
      2.30440681e-004 1.92220300e-003 -1.48130152e-002 1.76852848e-002
      5.96534386e-002 1.54551025e-002 2.65999623e-002 4.51760413e-003
      1.53863458e-002 2.63178162e-003 -9.90801305e-003 -4.19934653e-002
      -1.59531403e-002 4.58414629e-002 5.87613089e-003 1.98459439e-002
      2.99903937e-003 -6.26842491e-004 7.28316605e-003 1.52708162e-002
      -7.49413744e-002 -2.69819759e-002 4.73782010e-002 1.15036862e-002
      4.87587508e-003 -6.38938881e-003 4.68947605e-004 5.46046766e-003
      2.04447005e-002 -6.38498366e-002 1.53988646e-003 1.02133024e-002
      2.81438668e-004 -6.73323218e-003 3.20027955e-002 2.76016798e-002
      8.73258337e-003 2.21930072e-002 1.39032900e-002 -2.89830938e-003
      2.15943452e-004 1.25322246e-003 7.52329407e-003 -6.95912284e-004
      5.66096138e-003 9.38220136e-003 2.54383590e-002 2.92456872e-003
      -1.45512018e-002 -1.64121557e-002 -1.29827121e-002
      -3.47648747e-002 1.30947419e-002 1.76810957e-002 -8.46430380e-003
      -2.15330438e-004 -7.81124271e-003 -1.82211772e-002
      -1.40583124e-002 -2.25246348e-003 -9.64749698e-003 4.51089907e-003
      2.00740783e-003 -1.31328069e-002 7.57676037e-003 -4.80955886e-003
      5.45427494e-004 2.12143399e-002 8.07517767e-003 1.99089684e-002
      -2.61785649e-002 2.35925820e-002 4.27220250e-003 2.31685117e-002
      -5.97379729e-003 2.42002308e-002 1.37164490e-002 3.55816726e-003
      -3.70664755e-003 -4.16093878e-002 9.88959428e-003 2.62229145e-003
      1.46210995e-002 1.74690001e-002 -5.53597463e-003 1.86940413e-002
      1.18863378e-002 2.15651058e-002 -4.39368468e-003 3.28915007e-002
      4.16564383e-003 3.00116297e-002 5.46233787e-004 9.97716282e-003
      2.68757232e-002 -5.54530229e-003 -3.93804163e-003 -2.58065369e-002
      1.61242280e-002 1.84723511e-002 2.69824024e-002 8.64650402e-003
      1.72093064e-002 6.83052186e-003 -5.36008505e-003 -1.47663811e-002
      -2.95435134e-002 -3.25553282e-003 1.64697226e-003 1.18352119e-002
      2.69137626e-003 -1.62807014e-003 6.84260903e-003 -6.18144358e-003
      2.75991182e-003 1.91497449e-002 1.25400107e-002 1.03943367e-002
      1.64619628e-002 -8.93444475e-003 2.32526544e-003 5.18380199e-003
      -2.49901768e-002 -1.90564934e-002 -1.66923422e-002
      -5.70767233e-003 1.52151342e-002 2.08247714e-002 -1.22937383e-002
      -1.18583208e-002 -1.00893499e-002 -1.76490527e-002 2.61310092e-003
      1.91357341e-002 3.06304581e-002 1.48243224e-002 1.71966609e-002
      -2.04522672e-004 -1.82831381e-002 -5.34635969e-003
      -1.07416026e-002 -9.35613271e-003 1.21894646e-002 1.50415152e-002
      5.20853978e-003 -2.16878299e-003 -1.80044379e-002 2.75247963e-003
      -1.36133411e-003 -3.20509169e-003 1.80049019e-003 6.30102027e-003
      2.16865391e-002 5.07213082e-003 1.70110702e-003 1.41629875e-002
      -2.62400191e-002 -2.37143654e-002 -1.52185326e-002
      -5.68292104e-003 5.03853895e-003 1.04935765e-002 -3.08695994e-003
      -4.41819167e-004 -7.99546670e-003 -7.42927287e-003
      -3.98216117e-003 -8.90742149e-003 -1.72735490e-002
      -9.36792791e-003 1.25074526e-002 -8.61540344e-003 5.10059530e-003
      -1.63319544e-003 1.07324990e-002 1.10630710e-002 8.69210996e-003
      2.53642397e-003 -6.97287451e-003 1.11068832e-002 8.09287559e-003
      2.32079588e-002 1.19236577e-002 9.23668779e-003 2.30462011e-002
      1.37700709e-002 -8.60804413e-003 -6.51703496e-003 1.24547090e-002
      1.91099867e-002 3.16720903e-002 1.38579542e-002 1.45928804e-002
      1.04474779e-002 -2.35352607e-004 -9.30401590e-003 -9.73371230e-003
      -7.56106712e-003 -1.61377471e-002 1.44248586e-002 8.03105161e-003
      3.35548003e-003 -1.40403006e-002 -1.63421081e-003 -2.18278356e-002
      -1.32639902e-002 -1.15216421e-002 -1.87246017e-002 9.64428112e-003
      6.38420880e-003 1.26594976e-002 1.76249854e-002 1.73714757e-002
      -2.75104726e-003 3.50849633e-003 8.58125091e-003 1.15542943e-002
      6.02196204e-003 -2.13662977e-003 -1.18498206e-002 1.73123889e-002
      1.19896308e-002 9.77080548e-004 -1.38338888e-002 -3.02084722e-004
      1.16576767e-002 4.67306050e-003 -2.80328351e-003 -2.09899209e-002
      -7.09117064e-003 8.23687483e-003 -1.41236503e-002 8.03176221e-003
      3.48483073e-003 6.49771886e-004 -1.08670723e-003 -3.68344178e-003
      -1.20498901e-002 2.44039092e-002 2.04309113e-002 -2.28977464e-002
      -1.70736387e-002 -1.06569822e-003 5.28329797e-003 -1.27009628e-003
      7.45888450e-004 -1.17640216e-002 -8.49420112e-003 1.86444703e-003
      -6.22956839e-004 -4.77042235e-003 3.20885540e-003 4.66296263e-003
      3.98785993e-003 -2.63432902e-003 1.14979437e-002 1.95359183e-003
      1.65420398e-003 1.17248613e-002 1.67574007e-002 -9.16294567e-003
      -1.71974655e-002 -1.32265827e-002 5.75660542e-003 1.03903497e-002
      4.90950467e-003 9.76263266e-003 -2.89738253e-002 -1.31607475e-002
      -9.10641532e-003 -5.49600553e-003 3.14748636e-003 7.52099929e-003
      9.87376319e-004 -1.04379812e-002 -1.35201495e-002 7.60844152e-004
      2.38192864e-002 -1.00129275e-002 -2.53265649e-002 1.46674796e-003
      3.80382426e-002 3.51145188e-003 6.42214483e-003 7.28299562e-003
      1.37137026e-002 4.45993394e-002 1.44921839e-002 4.23162291e-003
      -2.31318572e-003 1.07052294e-003 -1.15422867e-002 -1.18500099e-003
      -1.49069950e-002 -1.83524713e-002 -3.10416240e-003 1.31062916e-004
      4.55924729e-003 2.75010499e-003 -1.78751945e-002 -1.14039332e-002
      -3.28402668e-002 -2.61813891e-003 2.91357860e-002 2.65237018e-002
      1.83043759e-002 -8.57513677e-003 -1.52323302e-003 3.62435281e-002
      -3.91271291e-003 -2.68148463e-002 -1.59946468e-003
      -6.42847782e-003 -4.46486706e-003 2.59351078e-003 -1.32832043e-002
      7.20209267e-004 4.00677919e-002 -1.73878390e-002 7.85431266e-003
      -1.64493322e-002 -1.13859901e-003 2.07143165e-002 9.76453349e-003
      2.68109329e-003 7.16109201e-003 -1.12530375e-002 8.48483108e-003
      -1.65582597e-002 -7.86784850e-003 2.15601865e-002 2.59507801e-002
      7.76335737e-003 -1.37541117e-002 -4.24127840e-003 9.56809148e-003
      -2.92619457e-003 -1.72406808e-002 -2.25727875e-002
      -9.59401485e-003 -9.09240823e-003 2.91724713e-003 -9.57872346e-003
      1.10870339e-002 2.26856675e-002 -1.72229894e-002 -3.02525479e-002
      -3.42285112e-002 -5.45154139e-003 2.24191677e-002 5.81372017e-003
      -2.93873642e-002 1.38378292e-002 1.91798024e-002 1.87255256e-002
      -3.89248021e-002 1.27074635e-003 2.04632804e-002 3.29491906e-002
      7.92330224e-003 -1.29088284e-002 -6.79309992e-003 3.71841863e-002
      1.10448776e-002 -2.92541217e-002 8.92816670e-003 -1.10797687e-002
      1.23813273e-002 1.69275925e-002 -7.70869106e-003 -2.52380446e-002
      2.23734155e-002 -4.79550660e-002 -3.48777510e-002 5.24751283e-003
      1.95847359e-002 3.04155257e-002 6.33587735e-003 -4.97549698e-002
      1.19874412e-002 4.22292948e-003 -3.70314680e-002 -1.44044384e-002
      4.95291129e-002 6.62864232e-003 4.79070954e-002 1.97409038e-002
      -3.48038413e-002 6.09986135e-004 8.49506073e-003 -2.56332438e-002
      -3.89091037e-002 3.74892377e-003 -4.19679238e-003 1.36852683e-002
      8.50015972e-003 -2.22337544e-002 -3.42938490e-002 7.99484365e-003
      -4.05846573e-002 -6.01589940e-002 1.06077082e-002 1.72758717e-002
      4.30824943e-002 7.51870358e-003 -2.87376679e-002 -1.46661801e-002
      4.09642197e-002 -3.88179012e-002 2.65235407e-003 4.36480008e-002
      5.69842197e-003 2.62227636e-002 1.40067667e-003 -3.11586149e-002
      1.08411140e-003 1.63937677e-002 -4.91598807e-003 -1.58676878e-002
      3.20169888e-002 2.56260508e-003 1.57618150e-002 -1.83927715e-002
      -2.97382995e-002 4.42150645e-002 2.67012268e-002 -1.32258944e-002
      -3.09999753e-002 6.07904233e-003 1.51801761e-002 4.18423377e-002
      -6.77905371e-003 -1.71631742e-002 -6.22192584e-003 2.25096922e-002
      -7.85039831e-003 -1.93121247e-002 -1.07446350e-002 1.53569803e-002
      1.89777222e-002 -2.61335191e-003 -1.94456596e-002 -1.91974286e-002
      -3.39004658e-002 4.87998966e-003 -1.13387806e-002 1.80362759e-003
      -8.10036063e-003 -1.47471065e-002 -4.80334759e-002
      -1.98058411e-002 1.94987543e-002 4.48917504e-003 -1.12643410e-002
      -2.73659024e-002 -3.79117392e-002 -8.66418984e-003
      -2.94258278e-002 -5.48583157e-002 -3.08607314e-002
      -2.04977524e-002 -1.40117500e-002 3.28938141e-002 -6.13546325e-003
      -9.49669350e-003 9.87164211e-003 2.76955534e-002 1.31472126e-002
      -2.55902647e-004 4.80441144e-003 -7.96312466e-003 2.46196650e-002
      -1.02546187e-002 -1.93770379e-002 -2.15244107e-003 1.98610239e-002
      -3.47534218e-003 -4.97356569e-003 2.24697609e-002 -1.57572925e-002
      -1.64158437e-002 -1.48393530e-002 7.16784736e-004 1.66616199e-004
      -1.24917636e-002 -3.38544622e-002 -1.16120931e-002
      -2.56275246e-003 -4.76412382e-003 -4.49100137e-002
      -3.97538841e-002 -4.03027562e-003 -3.10863182e-003
      -7.02721067e-003 -2.80761998e-002 -3.73953511e-003 2.16439646e-003
      -1.71966963e-002 -1.69624749e-003 -1.90681759e-002
      -1.30308736e-002 3.38609237e-003 2.05273796e-002 -9.86507908e-003
      -1.04316622e-002 1.93361454e-002 -1.28401900e-002 5.43348119e-003
      -1.61728878e-002 6.93022367e-003 8.73256288e-003 2.16560289e-002
      -9.89785511e-003 -7.78788887e-003 5.18450327e-003 -2.29008924e-002
      -6.72124550e-002 -3.32904421e-002 1.06576104e-002 2.31013410e-002
      8.47708806e-003 -7.76128937e-003 1.57511458e-002 1.98330693e-002
      -3.38174999e-002 -3.28712240e-002 -2.24106348e-004 3.45693007e-002
      2.79412866e-002 5.66954492e-003 -1.57224108e-002 -8.64815153e-003
      -1.32046109e-002 -4.41414602e-002 -2.56095380e-002
      -9.00902599e-003 -2.23711808e-003 3.44229557e-005 -4.98589734e-003
      -9.55014210e-003 -4.45645396e-003 5.43931965e-003 -3.47147547e-002
      -1.08014364e-002 -3.97318751e-002 -8.77594110e-003
      -1.04959328e-002 -2.27431245e-002 5.26045356e-003 1.17602479e-002
      2.16933470e-002 -2.63810940e-002 -1.84226874e-002 2.04331763e-002
      4.02697921e-002 2.14447780e-003 -1.24916974e-002 -1.92477778e-002
      -2.05229558e-002 -2.15467922e-002 -5.12138531e-002 2.57172622e-003
      -2.73410343e-002 2.21537426e-003 4.81671141e-003 -1.51736038e-002
      -1.30037256e-002 -1.97855290e-002 -1.75595731e-002
      -2.01816186e-002 1.79797765e-002 1.68717862e-003 6.04561530e-003
      -2.03571897e-002 -1.07412543e-002 2.06634551e-002 8.23444873e-003
      1.81791559e-002 2.67933290e-002 4.68499115e-004 -7.00959610e-003
      3.75026534e-003 -1.94355939e-002 -1.05432943e-002 1.45752309e-002
      6.16702065e-003 2.81775016e-002 2.00606696e-002 3.69996428e-002
      1.50860660e-002 1.49181318e-002 -3.15885469e-002 -1.72448624e-002
      2.05176529e-002 2.33616084e-002 2.83564068e-002 4.00436670e-002
      6.97788969e-003 4.36605979e-003 -5.74031798e-003 -3.52259614e-002
      1.84024649e-003 1.18688755e-002 1.94045696e-002 3.92161384e-002
      2.12948974e-002 1.50331222e-002 1.47367017e-002 1.21548036e-002
      1.07074936e-003 1.78398043e-002 3.59072573e-002 1.47796785e-002
      3.48269232e-002 2.05512643e-002 3.15800607e-002 2.52275951e-002
      -1.70621136e-003 -1.03168851e-002 -1.41790034e-002 1.44930761e-002
      1.97736528e-002 3.31176817e-002 2.09485535e-002 -2.07213149e-003
      9.36873630e-003 1.44666561e-003 -1.82063356e-002 -1.27333188e-002
      2.17901599e-002 2.08074823e-002 2.90080048e-002 7.74660055e-003
      1.72254983e-002 1.49924122e-002 6.90086000e-003 -4.40782961e-003
      -1.48730827e-002 -2.10920698e-003 1.74755801e-003 1.87094975e-002
      -4.16208897e-003 3.31666600e-003 1.73196234e-002 -1.51222982e-002
      1.34552736e-003 -3.43836215e-003 3.28708324e-003 1.47066852e-002
      3.10664326e-002 4.67943121e-003 -2.68817637e-002 6.09355187e-003
      -1.16697294e-004 8.56626406e-003 1.48498574e-002 3.37314382e-002
      8.63519777e-003 2.14795433e-002 -1.60727650e-002 1.38508622e-002
      4.85370867e-003 -1.59663316e-002 -4.58556134e-003 3.78283061e-004
      -1.23635298e-002 -2.60435068e-003 3.03461198e-002 2.06733290e-002
      -1.21486634e-002 1.17022009e-003 -1.67774707e-002 -1.23061500e-002
      -1.07037872e-002 -3.45494342e-003 8.65215622e-003 3.02213822e-002
      1.74702220e-002 1.51647031e-002 2.14154809e-003 2.13464300e-004
      1.44060766e-002 2.77296640e-002 1.87701751e-002 -1.82562449e-003
      1.30634252e-002 2.17125602e-002 1.34734903e-002 -3.24080400e-002
      -1.96223445e-002 -7.46480422e-003 -9.02413484e-003
      -3.25474958e-003 -8.77907407e-003 1.22579783e-002 3.01491339e-002
      -4.96491836e-003 -2.31035464e-002 -1.35968802e-002
      -1.83301959e-002 9.60195158e-003 -8.79176951e-004 1.11322431e-002
      2.19838619e-002 3.23490836e-002 -2.13567149e-002 -9.23671275e-002
      -6.99674115e-002 -3.66991535e-002 -7.08781974e-003
      -1.37720238e-002 1.21114659e-003 1.58993304e-002 6.01545125e-002
      6.23361953e-002 -1.42990546e-002 -7.03148218e-003 9.54821531e-004
      1.99781246e-002 3.14415805e-003 1.19678758e-003 2.94291396e-002
      8.46541971e-002 3.06840930e-002 -2.29068138e-002 1.46402530e-002
      1.78174651e-003 3.15053225e-003 3.71399987e-003 -1.40303629e-003
      2.25539654e-002 8.37182179e-002 -2.13141833e-002 -1.17573150e-001
      -6.07929341e-002 -3.65658998e-002 5.59328217e-003 1.41238766e-002
      1.25980079e-002 3.50288413e-002 5.91081753e-002 -5.07269390e-002
      -8.57798010e-002 1.78779056e-003 -1.50769744e-002 4.89355251e-003
      2.29346342e-002 2.26855036e-002 3.28935310e-002 3.84784564e-002
      -1.45890145e-002 -8.13004468e-003 2.37366594e-002 1.87229551e-002
      1.95627790e-002 7.35405087e-003 2.66713556e-003 1.56369563e-002
      2.77136806e-002 -9.42617096e-003 -4.14230395e-003 5.65748923e-002
      3.56903747e-002 1.63511503e-002 8.55471659e-003 1.15193278e-002
      2.58471612e-002 1.39303887e-002 -6.17935769e-002 -6.06604256e-002
      -2.27026385e-003 1.76318828e-002 1.33948121e-002 1.01275425e-002
      1.67612378e-002 2.91718002e-002 1.39622791e-002 -2.66331192e-002
      -3.59098613e-002 3.06462385e-002 5.78191802e-002 6.52153566e-002
      8.58584791e-003 3.76660414e-002 7.85030723e-002 5.54055944e-002
      -2.87831090e-002 -2.05807332e-002 3.43943983e-002 2.53546960e-003
      1.42407501e-002 5.36773237e-004 1.23833236e-003 1.42493788e-002
      2.29304796e-003 -3.58746275e-002 -2.14070454e-002 2.61276085e-002
      2.49780100e-002 3.00082862e-002 8.52392986e-003 4.76628775e-003
      4.39055040e-002 4.90499884e-002 -5.95256947e-002 -9.09222960e-002
      8.61765072e-003 3.52680981e-002 4.70977798e-002 1.33434543e-002
      6.44290298e-002 1.00338370e-001 3.00690830e-002 -7.32485577e-002
      -1.08876623e-001 2.26177461e-002 6.39353991e-002 8.45064297e-002
      8.78429264e-002 1.33933261e-001 1.60319149e-001 6.04618862e-002
      -6.05770424e-002 -1.00058191e-001 -4.83586686e-003 2.35198960e-002
      1.83191318e-002 3.66074406e-003 8.51143058e-003 5.24422787e-002
      5.92040196e-002 -6.24770634e-002 -1.20198987e-001 2.79092765e-003
      7.44066061e-003 5.52122900e-003 1.94140654e-002 2.81428806e-002
      4.13764864e-002 6.87099621e-002 -1.24159247e-001 -1.57276496e-001
      1.21338386e-002 8.35821629e-002 9.27427188e-002 1.01534724e-001
      1.20122321e-001 1.48113340e-001 3.25253718e-002 -1.05536602e-001
      -1.38742447e-001 8.67869183e-002 1.09600775e-001 1.20945781e-001
      1.28648594e-001 1.61884785e-001 1.10264428e-001 4.31200862e-002
      -4.99666072e-002 -8.58583152e-002 5.69188851e-004 -3.31767532e-003
      8.55094660e-003 1.69906225e-002 2.63159927e-002 4.83237393e-002
      8.13634172e-002 -5.45452870e-002 -6.87620416e-002 -5.62455924e-003
      -3.21976538e-003 1.72957722e-002 2.25545317e-002 2.79218759e-002
      5.85478730e-002 3.30341570e-002 -1.10292301e-001 -6.24382831e-002
      9.31272954e-002 9.55402479e-002 7.94751197e-002 8.31367671e-002
      1.32795751e-001 7.22498447e-002 3.35930660e-002 -1.20792732e-001
      -4.68215756e-002 4.69305553e-002 3.43814753e-002 3.67938466e-002
      8.50865766e-002 1.10105902e-001 3.72273065e-002 -7.41127040e-003
      -2.01450139e-002 -3.33078168e-002 2.15972438e-002 2.36064531e-002
      1.49696358e-002 1.00086108e-002 -1.70508847e-002 2.25904863e-002
      1.24233458e-002 -5.56081301e-003 7.25860801e-003 6.36289418e-002
      3.73637266e-002 5.33456877e-002 9.57484954e-005 3.09689585e-002
      2.88557895e-002 1.98204350e-002 -4.67480272e-002 -6.44649332e-003
      1.82664506e-002 1.03821233e-003 -1.21386070e-003 2.26378124e-002
      4.98085059e-002 2.17212867e-002 -6.36201631e-003 -6.52489290e-002
      -8.77644774e-003 -8.79906118e-003 -1.64326392e-002 1.61300749e-002
      1.27918972e-002 1.00445613e-001 3.12422812e-002 -4.57474105e-002
      -4.94835004e-002 9.05237254e-003 3.70794162e-002 5.06062806e-003
      1.98209528e-002 5.76024130e-003 4.43230309e-002 5.42022511e-002
      -1.51794115e-002 -3.55062224e-002 -2.76841000e-002 1.67961512e-002
      -6.53960602e-003 -1.20868543e-002 -2.09998414e-002 2.98292246e-002
      3.24901342e-002 1.81353861e-003 -6.17014430e-002 1.29874470e-002
      -6.74890645e-004 -2.03672540e-003 3.86996977e-002 5.01667485e-002
      9.59596112e-002 1.23986285e-002 -8.57494920e-002 -8.45095813e-002
      5.28620277e-003 -1.25942752e-002 -1.95744988e-002 3.18030119e-002
      5.58453240e-002 8.82525295e-002 -4.16242220e-002 -7.47453049e-002
      -4.69929352e-003 -7.16653187e-003 9.03431792e-003 -1.00221988e-002
      -2.27658432e-002 -1.93843190e-002 3.99015509e-002 3.48992608e-002
      1.39721334e-002 8.12431518e-003 -2.53298171e-002 -2.48700231e-002
      -4.15312536e-002 -5.05002365e-002 -4.68136370e-002
      -3.66885704e-003 1.52869960e-002 -3.31135909e-003 -5.35005331e-003
      -2.77473754e-003 -3.03831864e-002 -9.47223324e-003 3.19715142e-002
      6.70066327e-002 6.60166442e-002 -1.31642036e-002 -5.85481524e-002
      8.18825141e-003 -5.55808805e-002 -5.57413697e-002 -4.40911278e-002
      -1.55045856e-002 2.05691718e-002 2.72550322e-002 4.23412799e-004
      2.16737879e-003 1.59634762e-002 6.88139675e-003 -1.49138300e-002
      -4.44141701e-002 -6.61418438e-002 -5.89627102e-002
      -1.86370984e-002 -2.61980668e-003 3.58135961e-002 1.99345336e-003
      -1.29608195e-002 -1.34259760e-002 -2.77751312e-002
      -5.87858744e-002 -5.58552071e-002 9.56676377e-004 1.49808582e-002
      5.50084049e-003 9.23326146e-003 -1.96569934e-002 -3.57509144e-002
      -3.05591822e-002 -2.62666512e-002 -6.70185126e-003 1.59946959e-002
      2.30625272e-002 3.95442545e-002 3.02280709e-002 1.83940195e-002
      -1.37383295e-002 -2.20604241e-002 -4.80984896e-002
      -5.01665846e-003 3.30952667e-002 3.70387435e-002 4.87275571e-002
      1.42274075e-003 -3.02821118e-002 -2.25052107e-002 -2.06813384e-002
      -3.02234460e-002 -4.31004800e-002 7.05649424e-003 1.58621557e-002
      -3.50801907e-002 4.69420813e-002 1.75719447e-002 3.18680354e-003
      -2.76672631e-003 -7.57190213e-003 -1.90425999e-002
      -8.31600372e-003 -2.93927900e-002 -3.87271307e-002 4.78576832e-002
      8.20614025e-003 -1.71350669e-002 -3.69789489e-002 -3.47798765e-002
      -4.29341896e-003 4.85658012e-002 3.78595628e-002 2.01981477e-002
      4.16991264e-002 3.42693664e-002 -3.03633269e-002 -2.03995723e-002
      1.38958525e-002 3.09642721e-002 3.39284167e-002 -1.10135693e-002
      -5.96379815e-003 5.72795868e-002 3.56489904e-002 2.32618954e-003
      -1.66162439e-002 -1.74227394e-002 -3.19205634e-002
      -3.19639742e-002 -4.14258614e-002 -4.45312746e-002 4.60764058e-002
      1.49627719e-002 5.61481621e-003 1.59837957e-003 -1.71942785e-002
      -3.18804495e-002 -3.96738388e-002 -2.97269970e-002
      -3.78929339e-002 5.37600517e-002 1.47433421e-002 -4.67216522e-002
      -3.28020416e-002 7.29304692e-003 -5.71885193e-003 -2.95672100e-002
      -2.56079324e-002 5.09062596e-003 4.30878438e-002 -1.38135822e-002
      -2.63235755e-002 -1.86586902e-002 -2.02492364e-002
      -1.40500236e-002 -2.66468376e-002 -1.44639565e-002
      -2.03033648e-002 4.42626327e-002 1.97029375e-002 2.07675993e-002
      -9.88602266e-003 -1.11087840e-002 1.96286160e-002 2.86731254e-002
      3.43865976e-002 4.65190522e-002 1.38149653e-002 -6.08121452e-004
      4.48351400e-003 -1.55625856e-002 -6.63624029e-004 5.13175549e-003
      2.62574442e-002 3.34275886e-002 3.23051438e-002 -4.22560889e-003
      1.73664726e-002 1.10919038e-002 -6.25110418e-003 3.02839316e-002
      1.77034754e-002 3.45360637e-002 3.01659852e-002 -2.04893816e-002
      -2.44868211e-002 2.92403754e-002 -3.54013732e-003 -1.73982158e-002
      1.39792906e-002 -4.08177590e-003 1.96602177e-002 1.87357571e-002
      -1.61633007e-002 1.17564294e-002 1.22834258e-002 9.95417871e-003
      -4.31672623e-003 1.16708344e-002 3.27016460e-003 2.15504952e-002
      2.06569564e-002 3.27054001e-002 2.65636737e-003 1.16817420e-002
      4.52796509e-003 -4.98100976e-003 8.91518220e-003 5.50516765e-004
      1.16545586e-002 9.64596123e-003 5.37092164e-005 -1.76137686e-003
      2.65970193e-002 6.42054435e-003 1.06790625e-002 8.96320865e-003
      1.99525873e-003 1.00563597e-002 1.60663445e-002 9.28059686e-003
      -1.34860259e-002 5.94603503e-003 -2.91267037e-003 9.82100610e-003
      1.85823515e-002 1.25299385e-002 2.66807824e-002 1.60894059e-002
      -2.95392843e-003 2.21291352e-002 1.21438429e-002 -6.78840443e-004
      -9.41264536e-003 1.58787414e-003 -3.27264424e-003 8.32286943e-003
      2.33843327e-002 1.84124429e-002 9.83119383e-003 2.21969448e-002
      2.03340314e-003 -1.69286635e-002 4.72073257e-003 3.62211466e-003
      1.71091519e-002 3.66375484e-002 4.07827608e-002 -3.33508141e-002
      1.34784924e-002 8.53610877e-003 1.02923124e-003 2.05454659e-002
      4.96558147e-003 2.60261539e-002 2.00190842e-002 2.28820695e-003
      -9.25088674e-003 2.71136966e-002 6.81434665e-003 -1.48849767e-002
      1.39006441e-002 -5.61636733e-003 -3.19734192e-003 -2.47888942e-003
      1.47576304e-003 3.36052813e-002 1.46409711e-002 -4.02175472e-004
      -1.41819781e-002 1.67470090e-002 -4.76394562e-005 1.13792671e-002
      3.32953893e-002 7.61892125e-002 6.11128397e-002 -6.45834804e-002
      -7.59268329e-002 -4.90724556e-002 -1.24126375e-002
      -1.33744823e-002 -1.11147889e-003 2.40554847e-002 1.09229311e-001
